<?xml version="1.0" encoding="UTF-8"?>
<smile version="1.0" id="Unnamed" numsamples="10000" discsamples="10000">
	<nodes>
		<cpt id="FlameDamageName">
			<state id="Confinedtofirecelloforigin" />
			<state id="Confinedtoflooroforigin" />
			<state id="Confinedtoobjectoforigin" />
			<state id="Confinedtopartofroomorareaoforigin" />
			<state id="Confinedtoroomoforigin" />
			<state id="Confinedtostructureoforigin" />
			<state id="Extendedbeyondstructureoforigin" />
			<state id="Nodamageofthistype" />
			<probabilities>0.03218317823766344 0.04170717672969702 0.1858568622393302 0.3185975912220481 0.09424790174408222 0.2568106510049803 0.06688624774301077 0.003710391079188079</probabilities>
		</cpt>
		<cpt id="ModerateInjuryCount">
			<state id="AtLeastOne" />
			<state id="Zero" />
			<parents>FlameDamageName</parents>
			<probabilities>0.02959309494451295 0.9704069050554871 0.0390104662226451 0.960989533777355 0.01323796306181275 0.9867620369381872 0.02833655103693094 0.9716634489630691 0.04252631578947369 0.9574736842105264 0.02279224291122614 0.9772077570887738 0.02966478789676654 0.9703352121032335 0.0160427807486631 0.9839572192513368</probabilities>
		</cpt>
		<cpt id="PercentofPropertySaved">
			<state id="High" />
			<state id="Low" />
			<state id="Medium" />
			<parents>FlameDamageName ModerateInjuryCount</parents>
			<probabilities>0.3541666666666666 0.375 0.2708333333333333 0.4561626429479034 0.2820838627700127 0.2617534942820839 0.3658536585365854 0.2682926829268293 0.3658536585365854 0.4103960396039604 0.2797029702970297 0.3099009900990099 0.9032258064516129 0.07258064516129031 0.02419354838709677 0.8473439359515309 0.1080817916260954 0.04457427242237369 0.9318681318681319 0.01538461538461539 0.05274725274725275 0.8701448532239456 0.05287783617484938 0.07697731060120497 0.7475247524752475 0.09900990099009901 0.1534653465346535 0.6453386103781883 0.1917326297273527 0.1629287598944591 0.1559322033898305 0.6644067796610169 0.1796610169491525 0.1870651486401012 0.665796963946869 0.1471378874130297 0.11 0.86 0.03 0.1290125343931519 0.7927239376337512 0.07826352797309691 0.5833333333333334 0.3333333333333333 0.08333333333333333 0.7989130434782609 0.1358695652173913 0.06521739130434782</probabilities>
		</cpt>
		<cpt id="YearConstructedName">
			<state id="S19001945" />
			<state id="S19461969" />
			<state id="S19701991" />
			<state id="S19922005" />
			<state id="S2006onwards" />
			<state id="Pre1900" />
			<state id="Unknown" />
			<parents>FlameDamageName PercentofPropertySaved</parents>
			<probabilities>0.1047619047619048 0.2843537414965986 0.364625850340136 0.1537414965986394 0.04625850340136054 0.008163265306122448 0.03809523809523809 0.07142857142857142 0.2554112554112554 0.3831168831168831 0.1493506493506493 0.05627705627705628 0.01082251082251082 0.0735930735930736 0.1317647058823529 0.3317647058823529 0.3082352941176471 0.1411764705882353 0.04705882352941176 0.002352941176470588 0.03764705882352941 0.1094295692665891 0.2770663562281723 0.3760186263096624 0.1280558789289872 0.05355064027939464 0.009313154831199068 0.04656577415599535 0.1141396933560477 0.3168654173764907 0.3441226575809199 0.09710391822827939 0.03407155025553663 0.005110732538330495 0.08858603066439523 0.1295731707317073 0.2957317073170732 0.3917682926829268 0.0975609756097561 0.0350609756097561 0.009146341463414635 0.04115853658536586 0.09793554884189325 0.2507552870090635 0.3402567975830816 0.1693101711983887 0.0702416918429003 0.008559919436052367 0.06294058408862034 0.06051587301587301 0.1527777777777778 0.2311507936507936 0.1934523809523809 0.1130952380952381 0.00992063492063492 0.2390873015873016 0.05301204819277109 0.1879518072289157 0.2939759036144579 0.1855421686746988 0.1012048192771084 0.004819277108433735 0.1734939759036145 0.1003571428571429 0.2883571428571429 0.3614285714285714 0.1421428571428572 0.05271428571428572 0.007857142857142858 0.04714285714285715 0.06009615384615385 0.2067307692307692 0.3269230769230769 0.1935096153846154 0.06971153846153846 0.003605769230769231 0.1394230769230769 0.05795918367346939 0.2171428571428571 0.3616326530612245 0.1722448979591837 0.07265306122448979 0.005714285714285714 0.1126530612244898 0.1053143227478937 0.3130265716137395 0.3642255346727155 0.1270252754374595 0.04666234607906675 0.008749189889825017 0.03499675955930007 0.04596412556053812 0.2163677130044843 0.3307174887892377 0.2163677130044843 0.05381165919282511 0.002242152466367713 0.1345291479820628 0.08419689119170985 0.2953367875647668 0.3419689119170984 0.13860103626943 0.06347150259067358 0.005181347150259068 0.07124352331606218 0.1227197346600332 0.2815091210613599 0.3374792703150912 0.1334991708126037 0.04767827529021559 0.01243781094527363 0.06467661691542288 0.1092027387721945 0.2712080770569804 0.299176047348265 0.1326447719623999 0.04734826505744458 0.01125681791806893 0.1291632818846466 0.1347962382445141 0.3234064785788924 0.3181818181818182 0.09979101358411704 0.04806687565308256 0.008881922675026124 0.06687565308254964 0.09237875288683603 0.2678983833718245 0.3441108545034642 0.1200923787528868 0.06004618937644342 0.009237875288683603 0.1062355658198614 0.09555804404628593 0.2228443449048152 0.2978723404255319 0.139231056364315 0.05636431504292647 0.02202314296379246 0.166106756252333 0.1158301158301158 0.2316602316602317 0.3359073359073359 0.1312741312741313 0.05791505791505792 0.01158301158301158 0.1158301158301158 0.08724832214765101 0.1677852348993289 0.3758389261744967 0.1610738255033557 0.09395973154362416 0.006711409395973154 0.1073825503355705 0.1164021164021164 0.1164021164021164 0.2645502645502645 0.1164021164021164 0.07936507936507936 0.005291005291005291 0.3015873015873016 0.1648351648351648 0.2417582417582418 0.2417582417582418 0.01098901098901099 0.2417582417582418 0.01098901098901099 0.08791208791208792</probabilities>
		</cpt>
		<cpt id="Numfloors">
			<state id="High" />
			<state id="Low" />
			<state id="Medium" />
			<parents>YearConstructedName</parents>
			<probabilities>0.006312882225290984 0.7705661866245808 0.2231209311501282 0.006832708838439496 0.8402027771655278 0.1529645139960326 0.01396170839469808 0.7921060382916053 0.1939322533136966 0.02415591545429591 0.7289321987373044 0.2469118858083997 0.01940035273368607 0.7223985890652558 0.2582010582010582 0.0007032348804500702 0.6293952180028128 0.369901547116737 0.008192771084337349 0.889156626506024 0.1026506024096386</probabilities>
		</cpt>
		<cpt id="MinorInjuryCount">
			<state id="AtLeastOne" />
			<state id="Zero" />
			<probabilities>0.03527847774757436 0.9647215222524257</probabilities>
		</cpt>
		<cpt id="StructureAream2">
			<state id="High" />
			<state id="Low" />
			<state id="Medium" />
			<parents>YearConstructedName Numfloors MinorInjuryCount</parents>
			<probabilities>0.3333333333333333 0.3333333333333333 0.3333333333333333 0.9494949494949495 0.0404040404040404 0.0101010101010101 0.0743801652892562 0.04132231404958678 0.8842975206611571 0.1323645970937913 0.08348745046235138 0.7841479524438573 0.6140350877192982 0.008771929824561403 0.3771929824561404 0.7175502742230347 0.03107861060329068 0.2513711151736746 0.7777777777777777 0.1111111111111111 0.1111111111111111 0.9710144927536233 0.003623188405797102 0.02536231884057972 0.06581740976645435 0.03397027600849257 0.9002123142250531 0.1043319653442772 0.1125398996808026 0.7831281349749202 0.6914893617021276 0.02127659574468085 0.2872340425531915 0.6493963782696177 0.02515090543259558 0.3254527162977868 0.9047619047619049 0.04761904761904762 0.04761904761904762 0.961038961038961 0.004329004329004329 0.03463203463203463 0.1016949152542373 0.06591337099811675 0.8323917137476459 0.126984126984127 0.148741773132017 0.7242740998838559 0.5631313131313131 0.002525252525252525 0.4343434343434344 0.6380892122745966 0.02151217968997153 0.3403986080354318 0.9166666666666669 0.04166666666666667 0.04166666666666667 0.9901960784313725 0.00196078431372549 0.007843137254901959 0.1748251748251748 0.1048951048951049 0.7202797202797203 0.1698916408668731 0.2627708978328174 0.5673374613003096 0.6486486486486487 0.02702702702702703 0.3243243243243243 0.6846376811594203 0.02492753623188406 0.2904347826086957 0.3333333333333333 0.3333333333333333 0.3333333333333333 0.9702380952380952 0.005952380952380952 0.02380952380952381 0.1764705882352941 0.1372549019607843 0.6862745098039216 0.1972959439158738 0.3109664496745118 0.4917376064096144 0.619047619047619 0.0119047619047619 0.3690476190476191 0.6652482269503547 0.02836879432624114 0.3063829787234043 0.3333333333333333 0.3333333333333333 0.3333333333333333 0.3333333333333333 0.3333333333333333 0.3333333333333333 0.2666666666666667 0.06666666666666667 0.6666666666666667 0.1938775510204082 0.1496598639455782 0.6564625850340136 0.9166666666666669 0.04166666666666667 0.04166666666666667 0.7142857142857142 0.0119047619047619 0.2738095238095238 0.6666666666666667 0.1666666666666667 0.1666666666666667 0.8484848484848485 0.0303030303030303 0.1212121212121212 0.1538461538461539 0.2153846153846154 0.6307692307692307 0.09462068965517242 0.3972413793103449 0.5081379310344828 0.761904761904762 0.04761904761904762 0.1904761904761905 0.5523809523809524 0.09761904761904763 0.35</probabilities>
		</cpt>
		<cpt id="MeshblockID2018">
			<state id="High" />
			<state id="Low" />
			<state id="Medium" />
			<probabilities>0.315740391674438 0.3541736939224985 0.3300859144030636</probabilities>
		</cpt>
		<cpt id="TimeofDay">
			<state id="High" />
			<state id="Low" />
			<state id="Medium" />
			<parents>YearConstructedName StructureAream2 MeshblockID2018</parents>
			<probabilities>0.2864864864864865 0.436036036036036 0.2774774774774775 0.3176895306859206 0.3898916967509025 0.2924187725631769 0.2804642166344294 0.4100580270793037 0.3094777562862669 0.2985074626865671 0.3955223880597015 0.3059701492537313 0.328125 0.40625 0.265625 0.3987341772151899 0.3354430379746836 0.2658227848101266 0.3271428571428571 0.3578571428571429 0.315 0.2915360501567398 0.4137931034482759 0.2946708463949843 0.3054298642533937 0.3702865761689291 0.3242835595776772 0.2614622057001239 0.4349442379182156 0.3035935563816605 0.2553699284009547 0.4105011933174225 0.3341288782816229 0.2886386898669396 0.3930399181166837 0.3183213920163767 0.2927461139896373 0.3704663212435234 0.3367875647668394 0.3312101910828026 0.3407643312101911 0.3280254777070064 0.2890365448504983 0.3704318936877076 0.340531561461794 0.3188502673796791 0.3626336898395722 0.3185160427807486 0.2859986728599867 0.3788984737889847 0.3351028533510285 0.3246400434664493 0.3670198315675088 0.3083401249660418 0.2884297520661157 0.3859504132231405 0.3256198347107438 0.3046875 0.3717447916666666 0.3235677083333333 0.2636148382004735 0.4151539068666141 0.3212312549329124 0.3014440433212996 0.368231046931408 0.3303249097472925 0.3031123139377537 0.3328822733423545 0.3640054127198918 0.3046448087431694 0.3647540983606558 0.3306010928961748 0.3239255933290571 0.3524695317511225 0.3236048749198204 0.2878755593437033 0.3667163861069678 0.3454080545493288 0.3285348688419706 0.3637236084452975 0.3077415227127319 0.2951048951048951 0.3818181818181818 0.3230769230769231 0.2997946611909651 0.3963039014373717 0.3039014373716633 0.3090614886731392 0.3754045307443366 0.3155339805825243 0.2867132867132867 0.3682983682983683 0.344988344988345 0.302367941712204 0.3642987249544626 0.3333333333333333 0.3568181818181818 0.3363636363636364 0.3068181818181818 0.2858361774744027 0.3848122866894198 0.3293515358361775 0.3140604467805519 0.3534822601839684 0.3324572930354797 0.2848904267589389 0.3644752018454441 0.3506343713956171 0.3544668587896254 0.3659942363112392 0.2795389048991354 0.3074792243767313 0.3656509695290859 0.3268698060941828 0.2638297872340425 0.3659574468085107 0.3702127659574468 0.3 0.375 0.325 0.3438735177865612 0.3201581027667984 0.3359683794466403 0.3179487179487179 0.3948717948717949 0.2871794871794872 0.2668024439918533 0.3869653767820774 0.3462321792260692 0.290249433106576 0.380952380952381 0.3287981859410431 0.2724358974358974 0.4166666666666666 0.3108974358974359 0.3114754098360656 0.3934426229508197 0.2950819672131147 0.2745098039215687 0.3333333333333333 0.392156862745098 0.3287671232876712 0.4931506849315068 0.1780821917808219 0.5714285714285714 0.2380952380952381 0.1904761904761905 0.3333333333333333 0.1666666666666667 0.5 0.3157894736842105 0.2105263157894737 0.4736842105263158 0.3063063063063063 0.4324324324324325 0.2612612612612613 0.3541666666666666 0.4791666666666666 0.1666666666666667 0.3373493975903615 0.3614457831325301 0.3012048192771085 0.2534246575342466 0.4657534246575342 0.2808219178082192 0.2741433021806853 0.3925233644859813 0.3333333333333333 0.2302631578947368 0.4407894736842105 0.3289473684210526 0.2764578833693305 0.3542116630669547 0.3693304535637149 0.298828125 0.359375 0.341796875 0.2495201535508637 0.3800383877159309 0.3704414587332054 0.3211314475873544 0.367720465890183 0.3111480865224626 0.3233190271816881 0.3805436337625179 0.296137339055794 0.3510204081632653 0.3578231292517007 0.291156462585034</probabilities>
		</cpt>
		<cpt id="IncidentTypeName">
			<state id="Structurefirewithdamage" />
			<state id="Structurefirewithnodamage" />
			<parents>TimeofDay</parents>
			<probabilities>0.9967931937172776 0.003206806282722513 0.9973979077053794 0.002602092294620572 0.9975442043222004 0.002455795677799607</probabilities>
		</cpt>
		<cpt id="SpecificPropertyUseGroupParentName">
			<state id="Assembly" />
			<state id="Commercial" />
			<state id="Educational" />
			<state id="SHealthcare_Institutional" />
			<state id="Manufacturing" />
			<state id="Miscellaneous" />
			<state id="NotRecorded" />
			<state id="PrimaryIndustriesandUtilities" />
			<state id="Residential" />
			<state id="Storage" />
			<parents>FlameDamageName StructureAream2</parents>
			<probabilities>0.04123006833712984 0.1938496583143508 0.05489749430523918 0.02528473804100228 0.1004555808656036 0.02300683371298405 0.0002277904328018223 0.01845102505694761 0.4740318906605922 0.06856492027334853 0.02771739130434782 0.02771739130434782 0.02771739130434782 0.005978260869565218 0.02228260869565217 0.08750000000000001 0.0005434782608695652 0.02771739130434782 0.7124999999999999 0.06032608695652174 0.008991008991008992 0.03996003996003996 0.01898101898101898 0.006993006993006993 0.01698301698301698 0.01398601398601399 0.001998001998001998 0.01998001998001998 0.8521478521478522 0.01998001998001998 0.04736842105263158 0.1596491228070175 0.04736842105263158 0.01052631578947368 0.05789473684210526 0.0368421052631579 0.001754385964912281 0.01754385964912281 0.5947368421052631 0.02631578947368421 0.07105263157894737 0.02719298245614035 0.07982456140350877 0.0008771929824561404 0.02719298245614035 0.1236842105263158 0.0008771929824561404 0.07105263157894737 0.5622807017543859 0.03596491228070175 0.01415492957746479 0.02823943661971832 0.01204225352112676 0.006408450704225353 0.008521126760563382 0.02049295774647888 7.042253521126762e-05 0.01908450704225353 0.8775352112676057 0.01345070422535212 0.06764808973010866 0.2320364528566422 0.06344199088678584 0.06869961444093936 0.1398527865404837 0.02628811777076762 0.001752541184717841 0.01962846126883982 0.3406940063091483 0.03995793901156677 0.06353084911423336 0.06047648136835675 0.03604153940134392 0.008552229688454489 0.03787416004886988 0.2217470983506414 0.001221747098350641 0.06291997556505803 0.4783139890042761 0.02932193036041539 0.02050440844781628 0.07689153167931105 0.02419520196842321 0.008816895632561 0.03260200943202789 0.03014148041828993 0.001230264506868977 0.03219192126307156 0.7566126717244208 0.01681361492720935 0.05641513925255891 0.181385384432278 0.07641037848131398 0.04118067126874553 0.08474172815996191 0.03070697452987384 0.001904308497976672 0.01571054510830755 0.4796477029278743 0.03189716734110926 0.05190102595051298 0.03983101991550996 0.03862401931200966 0.007242003621001811 0.02353651176825589 0.1152685576342788 0.001207000603500302 0.05914302957151479 0.6336753168376584 0.02957151478575739 0.01304049416609472 0.04941660947151682 0.01598195901558976 0.0060790273556231 0.0123541523678792 0.02059025394646534 0.001470732424747524 0.01902147269340131 0.8499852926757525 0.0120600058829297 0.04835589941972921 0.1682785299806576 0.04448742746615087 0.04061895551257253 0.07543520309477757 0.02224371373307544 0.002901353965183753 0.02321083172147002 0.534816247582205 0.03965183752417795 0.04306151645207439 0.04592274678111588 0.02160228898426323 0.005865522174535049 0.02303290414878398 0.1145922746781116 0.0001430615164520744 0.07167381974248928 0.6310443490701002 0.04306151645207439 0.01159708416169649 0.04042412193505633 0.01358515573227303 0.004970178926441352 0.01292246520874752 0.01524188204108681 0.0009940357852882705 0.02717031146454606 0.8624917163684559 0.01060304837640822 0.05562474055624741 0.1282689912826899 0.037359900373599 0.008302200083022002 0.08551266085512661 0.045662100456621 0.0016604400166044 0.08800332088003321 0.4748858447488584 0.074719800747198 0.0328399629972248 0.02590194264569843 0.0240518038852914 0.001850138760407031 0.01572617946345976 0.1211840888066605 0.001387604070305273 0.0938945420906568 0.6248843663274746 0.05827937095282146 0.01648351648351648 0.02544194935499283 0.009316770186335404 0.002388915432393693 0.013258480649785 0.03093645484949832 0.001552795031055901 0.06497849976110845 0.792403248924988 0.04323936932632585 0.02494802494802495 0.1101871101871102 0.03118503118503119 0.004158004158004158 0.08316008316008316 0.03742203742203742 0.002079002079002079 0.08523908523908524 0.5031185031185031 0.1185031185031185 0.01510611735330836 0.03258426966292135 0.02259675405742822 0.002621722846441948 0.02134831460674157 0.1099875156054931 0.0001248439450686642 0.07378277153558052 0.6780274656679152 0.04382022471910112 0.01004784688995215 0.02727272727272727 0.00909090909090909 0.002870813397129187 0.01770334928229665 0.02822966507177034 0.001435406698564593 0.06698564593301436 0.7784688995215311 0.05789473684210526 0.05849056603773584 0.1528301886792452 0.001886792452830188 0.05849056603773584 0.07735849056603772 0.02075471698113207 0.001886792452830188 0.05849056603773584 0.5301886792452829 0.03962264150943395 0.002380952380952381 0.07380952380952381 0.05 0.02619047619047619 0.002380952380952381 0.05 0.002380952380952381 0.07380952380952381 0.6214285714285714 0.09761904761904761 0.03263157894736842 0.09578947368421052 0.02210526315789474 0.001052631578947368 0.02210526315789474 0.03263157894736842 0.001052631578947368 0.1063157894736842 0.6747368421052631 0.01157894736842105</probabilities>
		</cpt>
		<cpt id="OriginGroupName">
			<state id="LivingArea" />
			<state id="MeansofEgress" />
			<state id="NotRecorded" />
			<state id="OutsideAreaMultipleArea" />
			<state id="SalesandAssemblyArea" />
			<state id="ServiceFacility" />
			<state id="ServiceorEquipmentArea" />
			<state id="StorageandGarageArea" />
			<state id="StructuralRoofCeilingArea" />
			<state id="TechnicalManufacturingArea" />
			<state id="UnabletoClassify" />
			<state id="VehicleArea" />
			<parents>SpecificPropertyUseGroupParentName PercentofPropertySaved</parents>
			<probabilities>0.241505722460658 0.0344241773962804 8.941344778254647e-05 0.07948855507868381 0.09021816881258939 0.005454220314735335 0.03227825464949928 0.1524499284692417 0.3391452074391988 0.00330829756795422 0.01832975679542203 0.00330829756795422 0.1957635009310987 0.01419925512104283 0.0002327746741154563 0.1203445065176909 0.1259310986964619 0.003026070763500931 0.01978584729981378 0.2600093109869647 0.1957635009310987 0.003026070763500931 0.06168528864059591 0.0002327746741154563 0.191872427983539 0.02520576131687242 0.0005144032921810698 0.1116255144032922 0.08076131687242798 0.0005144032921810698 0.03137860082304526 0.2042181069958847 0.2782921810699588 0.006687242798353908 0.0684156378600823 0.0005144032921810698 0.263963510185807 0.03024960823819118 2.798298634430266e-05 0.04401723751958809 0.08397694201925229 0.01446720394000448 0.06853033355719722 0.1692690843966868 0.2874692187150212 0.02353369151555854 0.01144504141481979 0.00305014551152899 0.1983024691358025 0.009413580246913579 0.000154320987654321 0.0316358024691358 0.05941358024691359 0.009413580246913579 0.07237654320987655 0.3871913580246914 0.1427469135802469 0.01682098765432099 0.05385802469135802 0.01867283950617284 0.2476105137395461 0.01821983273596177 0.0002986857825567504 0.04689366786140982 0.08990442054958186 0.003882915173237755 0.05764635603345283 0.2762843488649941 0.201015531660693 0.01463560334528077 0.02538829151732378 0.01821983273596177 0.2713842637936663 0.0539503754489063 8.161932745674174e-05 0.0725595821090434 0.08627162912177602 0.003019915115899445 0.01771139405811296 0.1293666340189357 0.3183969964087495 0.02946457721188377 0.01771139405811296 8.161932745674174e-05 0.1526063100137174 0.04149519890260631 0.0003429355281207132 0.1237997256515775 0.09087791495198901 0.0003429355281207132 0.01268861454046639 0.3501371742112482 0.1772976680384088 0.02091906721536351 0.02914951989026063 0.0003429355281207132 0.1377688172043011 0.04099462365591398 0.0006720430107526882 0.1216397849462366 0.08131720430107529 0.0006720430107526882 0.03293010752688173 0.2184139784946237 0.3071236559139786 0.03293010752688173 0.02486559139784947 0.0006720430107526882 0.5596655328798186 0.02565192743764172 0.0001417233560090703 0.01714852607709751 0.01204648526077097 0.01034580498866213 0.03755668934240362 0.1123866213151927 0.1974206349206349 0.01714852607709751 0.01034580498866213 0.0001417233560090703 0.3969298245614035 0.00219298245614035 0.00219298245614035 0.1074561403508772 0.02850877192982455 0.00219298245614035 0.00219298245614035 0.2653508771929824 0.1600877192982456 0.02850877192982455 0.00219298245614035 0.00219298245614035 0.4694444444444447 0.06944444444444448 0.002777777777777779 0.03611111111111112 0.002777777777777779 0.002777777777777779 0.002777777777777779 0.2361111111111112 0.06944444444444448 0.06944444444444448 0.03611111111111112 0.002777777777777779 0.03857791225416037 0.00529500756429652 0.0007564296520423601 0.02118003025718608 0.009077155824508321 0.02874432677760968 0.1172465960665658 0.2798789712556732 0.1671709531013616 0.319213313161876 0.01210287443267776 0.0007564296520423601 0.02747502270663034 0.002951861943687557 0.0002270663033605813 0.02202543142597639 0.005676657584014534 0.01385104450499546 0.07924613987284287 0.5015894641235241 0.1010445049954587 0.2073115349682107 0.03292461398728429 0.005676657584014534 0.0336644591611479 0.0005518763796909492 0.0005518763796909492 0.0336644591611479 0.007174392935982339 0.02041942604856512 0.119757174392936 0.3647902869757175 0.1859823399558499 0.1926048565121413 0.02704194260485651 0.01379690949227373 0.2232755507403395 0.02500902853015529 9.028530155290718e-05 0.2200252798844348 0.02609245214879017 0.007674250631997111 0.02825929938605995 0.1431022029613579 0.2579451065366558 0.01417479234380643 0.05209461899602744 0.00225713253882268 0.1471433400946586 0.01428329952670723 8.451656524678837e-05 0.1724983096686951 0.01935429344151453 0.002112914131169709 0.02645368492224476 0.3124577417173766 0.1623563218390805 0.01428329952670723 0.1177315753887762 0.01124070317782285 0.2465277777777778 0.02683080808080808 0.0003156565656565656 0.1442550505050505 0.02683080808080808 0.007891414141414142 0.03440656565656566 0.2313762626262627 0.2124368686868687 0.004103535353535353 0.06470959595959595 0.0003156565656565656 0.4018518518518518 0.001851851851851852 0.001851851851851852 0.02407407407407407 0.001851851851851852 0.02407407407407407 0.001851851851851852 0.312962962962963 0.2240740740740741 0.001851851851851852 0.001851851851851852 0.001851851851851852 0.3373015873015874 0.003968253968253969 0.003968253968253969 0.0515873015873016 0.0515873015873016 0.003968253968253969 0.003968253968253969 0.2896825396825398 0.1468253968253969 0.003968253968253969 0.09920634920634924 0.003968253968253969 0.2604166666666666 0.01041666666666666 0.01041666666666666 0.01041666666666666 0.01041666666666666 0.01041666666666666 0.01041666666666666 0.3854166666666666 0.2604166666666666 0.01041666666666666 0.01041666666666666 0.01041666666666666 0.1017221249270286 0.007151196730881494 0.0001459427904261529 0.02816695855224752 0.001897256275539988 0.012405137186223 0.1560128429655575 0.3836835960303561 0.1997956800934034 0.05969060128429656 0.03692352597781669 0.012405137186223 0.06425625161124002 0.0008378448053622069 6.444960041247745e-05 0.05342871874194381 0.002384635215261666 0.0008378448053622069 0.09209847898943029 0.6110466615106988 0.07353699407063677 0.01089198246970869 0.07199020366073731 0.01862593451920598 0.06138676844783714 0.0003180661577608142 0.0003180661577608142 0.04993638676844784 0.0003180661577608142 0.01176844783715013 0.09573791348600508 0.5652035623409669 0.1682569974554707 0.02703562340966921 0.01940203562340967 0.0003180661577608142 0.5720407998709885 0.02283905821641671 4.031607805192711e-06 0.05172149653281728 0.002858409933881632 0.00474520238671182 0.009583131752943074 0.1103088211578778 0.2179043702628608 0.0003426866634413804 0.006099822609256572 0.001552169004999194 0.4292401323184635 0.007426855509522432 8.029032983267495e-06 0.03845103895686803 0.002513087323762726 0.001260558178372997 0.005596235989337444 0.375285030670906 0.09105726306323667 0.0007788161993769471 0.04230497478883643 0.006077977968333494 0.539026792750197 0.01609535066981875 0.000256107171000788 0.03760835303388495 0.001674546887312845 0.001674546887312845 0.004984239558707643 0.2411544523246651 0.1470646178092987 1.970055161544523e-05 0.006875492513790386 0.003565799842395587 0.04867128827267474 0.01054303870595031 0.000144425187752744 0.04867128827267474 0.01920854997111496 0.008809936452917387 0.05040439052570767 0.4836799537839398 0.2583766608896591 0.05040439052570767 0.008809936452917387 0.01227614095898324 0.02261636636636636 0.004598348348348347 9.384384384384382e-05 0.05189564564564564 0.002346096096096096 0.00121996996996997 0.02374249249249248 0.7714902402402402 0.05302177177177177 0.01022897897897898 0.03838213213213212 0.02036411411411411 0.04541198501872658 0.01170411985018727 0.0004681647940074905 0.0791198501872659 0.006086142322097377 0.006086142322097377 0.02855805243445692 0.6352996254681647 0.1352996254681648 0.01170411985018727 0.01732209737827715 0.02294007490636703</probabilities>
		</cpt>
		<cpt id="HeatSourceGroupName">
			<state id="CigarettesMatchesandCandles" />
			<state id="ElectricalEquipment" />
			<state id="ExplosivesFireWorks" />
			<state id="ExposureFire" />
			<state id="GasorLiquidFuelPoweredEquipment" />
			<state id="HotObject" />
			<state id="NaturalSource" />
			<state id="NotRecorded" />
			<state id="OutsideFire" />
			<state id="SolidFuelledPoweredEquipment" />
			<state id="UnabletoClassify" />
			<parents>OriginGroupName</parents>
			<probabilities>0.2049110922946655 0.4700818515382444 0.004374823595822749 0.03702135666572584 0.04210179697055226 0.06557531282340766 0.008984852761313387 0.06176498259478784 0.001317151190140182 0.04704111393357795 0.05682566563176215 0.3905908096280087 0.2844638949671772 0.01531728665207877 0.02954048140043763 0.0175054704595186 0.0700218818380744 0.01094091903719912 0.07549234135667396 0.005470459518599562 0.003282275711159737 0.09737417943107221 0.03030303030303031 0.6969696969696971 0.03030303030303031 0.03030303030303031 0.03030303030303031 0.03030303030303031 0.03030303030303031 0.03030303030303031 0.03030303030303031 0.03030303030303031 0.03030303030303031 0.3451983685576566 0.06674082313681869 0.02002224694104561 0.1560993696700037 0.03744901742677048 0.1212458286985539 0.01779755283648498 0.05635891731553578 0.09084167593622543 0.01520207638116426 0.07304412309974045 0.2709163346613546 0.4342629482071713 0.03054448871181939 0.03452855245683931 0.01195219123505976 0.02788844621513944 0.02656042496679947 0.07171314741035856 0.01328021248339973 0.01195219123505976 0.06640106241699867 0.06984906984906984 0.2706212706212706 0.000351000351000351 0.06212706212706212 0.07757107757107756 0.232011232011232 0.01965601965601966 0.02351702351702352 0.004212004212004212 0.177957177957178 0.06212706212706212 0.04846938775510204 0.6394557823129251 0.001700680272108843 0.02551020408163265 0.07482993197278912 0.08503401360544217 0.02210884353741497 0.03316326530612245 0.005952380952380952 0.02380952380952381 0.03996598639455782 0.21076420858793 0.2696074328283251 0.009207332384699087 0.09600736586590776 0.0452833347283837 0.1089813342261656 0.03741525069054993 0.09659328701766133 0.0365782204737591 0.0134761864903323 0.07608604670628609 0.1831549356687209 0.3659855119472376 0.01567737052654341 0.1419612931127689 0.04973510649799978 0.09622661909395611 0.01081197967347821 0.04162612174289113 0.02173207914369121 0.041193642555952 0.03189534003676073 0.04105571847507331 0.4008572073088201 0.002594180013534852 0.03857432889690953 0.1117753214527408 0.2470110534626663 0.03361154974058199 0.03857432889690953 0.0001127904353710805 0.03361154974058199 0.05222197157681028 0.1511111111111111 0.104 0.003555555555555556 0.08622222222222223 0.01688888888888889 0.04444444444444445 0.008888888888888889 0.2186666666666667 0.02044444444444445 0.008 0.3377777777777778 0.1022727272727273 0.255050505050505 0.009680134680134679 0.2828282828282828 0.06060606060606061 0.1161616161616161 0.0004208754208754209 0.03745791245791246 0.00505050505050505 0.01893939393939394 0.1115319865319865</probabilities>
		</cpt>
		<cpt id="DayofWeek">
			<state id="Friday" />
			<state id="Monday" />
			<state id="Saturday" />
			<state id="Sunday" />
			<state id="Thursday" />
			<state id="Tuesday" />
			<state id="Wednesday" />
			<parents>HeatSourceGroupName</parents>
			<probabilities>0.13996138996139 0.1345559845559846 0.167953667953668 0.1687258687258687 0.1324324324324324 0.1303088803088803 0.1260617760617761 0.1470698421193471 0.1432700026759433 0.1423601819641424 0.1342788332887343 0.1462670591383463 0.1432700026759433 0.1434840781375435 0.1826280623608018 0.1158129175946548 0.2494432071269488 0.1692650334075724 0.08685968819599109 0.08463251670378619 0.111358574610245 0.1375126390293226 0.1380182002022245 0.1610212335692619 0.1660768452982811 0.1190596562184024 0.1445904954499495 0.1337209302325582 0.1456483126110124 0.1425399644760213 0.1354351687388988 0.1087921847246892 0.1545293072824156 0.1531971580817052 0.1598579040852575 0.1376353790613719 0.1527527075812274 0.1405685920577617 0.1498194945848375 0.1389891696750903 0.1344765342960289 0.1457581227436823 0.1300904977375566 0.1493212669683258 0.1470588235294118 0.1425339366515837 0.1414027149321267 0.1425339366515837 0.1470588235294118 0.126699450390512 0.1345096904830778 0.1718252820364478 0.1709574775817182 0.1252531096326295 0.1269887185420885 0.1437662713335262 0.138830897703549 0.1315240083507307 0.1868475991649269 0.1774530271398747 0.1169102296450939 0.1294363256784969 0.1189979123173278 0.1357519016968988 0.1468695143358689 0.1620830895260386 0.1474546518431832 0.1246342890579286 0.1468695143358689 0.136337039204213 0.1470678538532392 0.1326373963770341 0.1673319005219527 0.1452256677924471 0.131102241326374 0.1486030089038993 0.1280319312250537</probabilities>
		</cpt>
		<cpt id="GeneralPropertyUseGroupName">
			<state id="CommercialRetailManufacturingStorage" />
			<state id="CommunicationsResearch" />
			<state id="ConstructionRenovation" />
			<state id="Educational" />
			<state id="HealthInstitutional" />
			<state id="NoAddress" />
			<state id="Other" />
			<state id="RecreationalAssembly" />
			<state id="Residential" />
			<state id="RuralFarmingForests" />
			<state id="Transportation" />
			<state id="UtilitiesDisposal" />
			<state id="WaterAreas" />
			<parents>SpecificPropertyUseGroupParentName</parents>
			<probabilities>0.03867374005305039 0.004190981432360742 0.004190981432360742 0.02419098143236074 0.009708222811671085 5.305039787798407e-05 0.01936339522546419 0.8531564986737399 0.009708222811671085 0.006259946949602121 0.02970822281167108 5.305039787798407e-05 0.000742705570291777 0.9626026147765285 0.0002837741968176753 0.002391811087463263 0.002128306476132565 0.005290361812100947 2.026958548697681e-05 0.003972838755447454 0.01056045403871492 0.00845241714806933 0.001337792642140469 0.001074288030809771 2.026958548697681e-05 0.001864801864801866 0.005827505827505826 5.550005550005549e-05 5.550005550005549e-05 0.9675879675879675 0.01953601953601953 5.550005550005549e-05 0.0007770007770007769 0.001498501498501499 0.003663003663003662 0.0007770007770007769 5.550005550005549e-05 5.550005550005549e-05 5.550005550005549e-05 0.04293107504116678 0.0001176193836744295 0.001646671371442013 0.001646671371442013 0.8930839802399434 0.0001176193836744295 0.006233827334744765 0.004704775346977182 0.04904728299223712 0.0001176193836744295 0.0001176193836744295 0.0001176193836744295 0.0001176193836744295 0.9799221985192621 4.182875308487054e-05 0.001129376333291504 0.0005856025431881875 4.182875308487054e-05 4.182875308487054e-05 0.002760697703601455 0.001129376333291504 0.001129376333291504 0.01146107834525453 0.001673150123394821 4.182875308487054e-05 4.182875308487054e-05 0.08433179723502304 0.01935483870967742 0.1700460829493088 0.004608294930875576 0.006912442396313364 0.003225806451612903 0.1488479262672811 0.08433179723502304 0.2221198156682028 0.1202764976958525 0.06267281105990784 0.03917050691244239 0.03410138248847926 0.1816239316239316 0.001068376068376068 0.01495726495726495 0.05662393162393161 0.02884615384615384 0.001068376068376068 0.02884615384615384 0.01495726495726495 0.5566239316239315 0.09829059829059827 0.01495726495726495 0.001068376068376068 0.001068376068376068 0.04898728214790391 0.02731983042863872 0.0004710315591144607 0.005181347150259068 0.002826189354686764 0.0004710315591144607 0.01177578897786152 0.0009420631182289214 0.01130475741874706 0.8502119642016015 0.001413094677343382 0.03862458784738577 0.0004710315591144607 0.00547316730665655 2.180544743687869e-06 0.0009659813214537258 0.0007392046681101874 0.0005407750964345914 2.180544743687869e-06 0.001221105056465207 0.0009659813214537258 0.9791670755188062 0.01077407157856176 5.887470807957245e-05 3.052762641163016e-05 5.887470807957245e-05 0.5753058641541273 0.0006562602540664697 0.003703182862232222 0.003703182862232222 0.00126564477569962 4.687573243331927e-05 0.01467210425162893 0.01284395068672948 0.09023578493413958 0.286457600900014 0.006750105470397974 0.00126564477569962 0.003093798340599071</probabilities>
		</cpt>
		<cpt id="FireCauseGroupName">
			<state id="CarelessnesswithHeatSource" />
			<state id="CarelessnesswithMaterialIgnited" />
			<state id="DeliberatelyLitFire" />
			<state id="DesignConstructionInstallationFault" />
			<state id="MechanicalFailureorMalfunction" />
			<state id="NaturalCauses" />
			<state id="NotRecorded" />
			<state id="OperatingFailure" />
			<state id="OtherorUndeterminedCause" />
			<state id="SReckless_involvingfire_" />
			<parents>HeatSourceGroupName OriginGroupName</parents>
			<probabilities>0.3826256598577001 0.03422079412439751 0.5240073445030982 0.002777140234106035 0.0009410144594904746 0.00117053018131742 2.295157218269451e-05 0.004383750286894651 0.01792517787468441 0.03192563690612805 0.2405027932960893 0.01424581005586592 0.7181564245810054 0.0002793296089385474 0.0002793296089385474 0.005865921787709494 0.0002793296089385474 0.0002793296089385474 0.01424581005586592 0.005865921787709494 0.1 0.1 0.1 0.1 0.1 0.1 0.1 0.1 0.1 0.1 0.4689914163090128 0.02371244635193133 0.4657725321888411 0.002253218884120171 0.0001072961373390558 0.001180257510729614 0.0001072961373390558 0.0001072961373390558 0.02049356223175965 0.01727467811158798 0.1614634146341464 0.02 0.7956097560975611 0.0004878048780487806 0.005365853658536587 0.0004878048780487806 0.0004878048780487806 0.0004878048780487806 0.005365853658536587 0.01024390243902439 0.3210526315789473 0.005263157894736841 0.3736842105263157 0.1105263157894737 0.1105263157894737 0.005263157894736841 0.005263157894736841 0.005263157894736841 0.05789473684210525 0.005263157894736841 0.2086206896551724 0.01896551724137931 0.7603448275862068 0.001724137931034483 0.001724137931034483 0.001724137931034483 0.001724137931034483 0.001724137931034483 0.001724137931034483 0.001724137931034483 0.306113537117904 0.02266772528781263 0.6177451369591108 0.0004366812227074237 3.969829297340216e-05 3.969829297340216e-05 3.969829297340216e-05 0.002818578801111553 0.01552203255260024 0.03457721317983328 0.3882595870206491 0.01421828908554573 0.5605309734513276 0.001828908554572272 0.002418879056047198 0.001828908554572272 5.899705014749265e-05 0.0006489675516224192 0.008908554572271389 0.02129793510324485 0.238235294117647 0.002941176470588235 0.6794117647058823 0.002941176470588235 0.002941176470588235 0.002941176470588235 0.002941176470588235 0.002941176470588235 0.03235294117647058 0.03235294117647058 0.1584795321637427 0.01228070175438597 0.7900584795321638 0.006432748538011697 0.000584795321637427 0.000584795321637427 0.000584795321637427 0.000584795321637427 0.01812865497076024 0.01228070175438597 0.09130434782608692 0.09130434782608692 0.6565217391304344 0.00434782608695652 0.00434782608695652 0.00434782608695652 0.00434782608695652 0.04782608695652172 0.04782608695652172 0.04782608695652172 0.4577846708024813 0.03092855713428056 0.008314988993396034 0.04323594156493895 0.3218030818491093 0.003812287372423452 1.000600360216129e-05 0.0955673404042425 0.03573143886331798 0.002811687012207323 0.03869731800766283 0.0157088122605364 0.008045977011494253 0.0578544061302682 0.736015325670498 0.004214559386973181 0.0003831417624521073 0.1 0.03869731800766283 0.0003831417624521073 0.03333333333333333 0.03333333333333333 0.03333333333333333 0.03333333333333333 0.6999999999999998 0.03333333333333333 0.03333333333333333 0.03333333333333333 0.03333333333333333 0.03333333333333333 0.08895027624309394 0.03922651933701658 0.006077348066298343 0.02265193370165746 0.6359116022099448 0.006077348066298343 0.0005524861878453039 0.1386740331491713 0.06132596685082874 0.0005524861878453039 0.07652439024390241 0.0246951219512195 0.006402439024390242 0.04603658536585364 0.6649390243902437 0.01249999999999999 0.0003048780487804877 0.1070121951219512 0.05823170731707315 0.003353658536585365 0.001408450704225352 0.0295774647887324 0.001408450704225352 0.07183098591549296 0.6352112676056338 0.05774647887323944 0.001408450704225352 0.09999999999999999 0.09999999999999999 0.001408450704225352 0.02934926958831341 0.00942895086321381 0.001460823373173971 0.03598937583001328 0.7106241699867197 0.01606905710491368 0.0001328021248339973 0.1329349269588313 0.06254980079681274 0.001460823373173971 0.103382991930478 0.01834264432029796 0.0009621353196772193 0.03882681564245811 0.6099006828057109 0.0186530105524519 3.103662321539417e-05 0.1427995034140286 0.06489757914338921 0.002203600248292986 0.09040165386887185 0.008298877731836978 0.0003248670998227998 0.1128470171293562 0.5974896633195512 0.01863555818074425 2.953337271116362e-05 0.09955699940933257 0.07120496160661549 0.001210868281157708 0.09290123456790123 0.03117283950617283 0.0003086419753086419 0.04043209876543209 0.614506172839506 0.0095679012345679 0.0003086419753086419 0.1515432098765432 0.05586419753086419 0.003395061728395061 0.1110169491525424 0.009322033898305087 0.009322033898305087 0.02627118644067797 0.5347457627118646 0.06016949152542374 0.0008474576271186443 0.1364406779661017 0.1110169491525424 0.0008474576271186443 0.09107142857142855 0.01964285714285714 0.001785714285714286 0.0375 0.7160714285714286 0.001785714285714286 0.001785714285714286 0.09107142857142855 0.0375 0.001785714285714286 0.1074468085106383 0.03297872340425533 0.6606382978723406 0.001063829787234043 0.01170212765957447 0.001063829787234043 0.001063829787234043 0.001063829787234043 0.01170212765957447 0.1712765957446809 0.14 0.006666666666666668 0.7400000000000001 0.006666666666666668 0.006666666666666668 0.006666666666666668 0.006666666666666668 0.006666666666666668 0.006666666666666668 0.07333333333333335 0.1 0.1 0.1 0.1 0.1 0.1 0.1 0.1 0.1 0.1 0.22 0.02 0.2563636363636363 0.001818181818181818 0.001818181818181818 0.001818181818181818 0.001818181818181818 0.001818181818181818 0.03818181818181818 0.4563636363636364 0.004166666666666665 0.004166666666666665 0.7541666666666664 0.04583333333333332 0.004166666666666665 0.004166666666666665 0.004166666666666665 0.004166666666666665 0.04583333333333332 0.1291666666666666 0.1 0.1 0.1 0.1 0.1 0.1 0.1 0.1 0.1 0.1 0.03333333333333333 0.03333333333333333 0.3666666666666666 0.03333333333333333 0.03333333333333333 0.03333333333333333 0.03333333333333333 0.3666666666666666 0.03333333333333333 0.03333333333333333 0.2801801801801802 0.05495495495495495 0.2081081081081081 0.009909909909909911 0.0009009009009009009 0.0009009009009009009 0.0009009009009009009 0.0009009009009009009 0.05495495495495495 0.3882882882882883 0.2746575342465754 0.05547945205479453 0.2267123287671234 0.0006849315068493153 0.0006849315068493153 0.007534246575342468 0.0006849315068493153 0.007534246575342468 0.02808219178082192 0.3979452054794522 0.03333333333333333 0.03333333333333333 0.6999999999999998 0.03333333333333333 0.03333333333333333 0.03333333333333333 0.03333333333333333 0.03333333333333333 0.03333333333333333 0.03333333333333333 0.02 0.02 0.4199999999999999 0.02 0.02 0.02 0.02 0.02 0.02 0.4199999999999999 0.03333333333333333 0.3666666666666666 0.03333333333333333 0.03333333333333333 0.03333333333333333 0.03333333333333333 0.03333333333333333 0.03333333333333333 0.03333333333333333 0.3666666666666666 0.257741116751269 0.04454314720812182 0.03312182741116751 0.07626903553299492 0.03692893401015229 0.01281725888324873 0.0001269035532994924 0.02804568527918782 0.5039340101522842 0.006472081218274111 0.075 0.003571428571428571 0.03928571428571428 0.003571428571428571 0.003571428571428571 0.003571428571428571 0.003571428571428571 0.003571428571428571 0.8607142857142858 0.003571428571428571 0.1 0.1 0.1 0.1 0.1 0.1 0.1 0.1 0.1 0.1 0.07606635071090047 0.007345971563981042 0.03578199052132701 0.007345971563981042 0.004976303317535544 0.009715639810426538 0.0002369668246445497 0.002606635071090047 0.8509478672985782 0.004976303317535544 0.04074074074074074 0.04074074074074074 0.1148148148148148 0.04074074074074074 0.003703703703703704 0.003703703703703704 0.003703703703703704 0.04074074074074074 0.7074074074074074 0.003703703703703704 0.06470588235294118 0.005882352941176471 0.06470588235294118 0.3 0.005882352941176471 0.005882352941176471 0.005882352941176471 0.1823529411764706 0.3588235294117647 0.005882352941176471 0.003225806451612903 0.003225806451612903 0.03548387096774194 0.132258064516129 0.1 0.003225806451612903 0.003225806451612903 0.003225806451612903 0.7129032258064516 0.003225806451612903 0.08109756097560974 0.01228222996515679 0.03231707317073171 0.0009581881533101046 0.01750871080139373 0.009668989547038327 8.710801393728223e-05 0.006184668989547038 0.8337108013937282 0.006184668989547038 0.0404109589041096 0.009208523592085238 0.0358447488584475 0.03964992389649925 0.01073059360730594 0.005403348554033486 7.610350076103503e-05 0.009208523592085238 0.8433028919330291 0.006164383561643837 0.128125 0.003125 0.034375 0.003125 0.096875 0.034375 0.003125 0.065625 0.628125 0.003125 0.001020408163265306 0.001020408163265306 0.02142857142857143 0.001020408163265306 0.001020408163265306 0.01122448979591837 0.001020408163265306 0.001020408163265306 0.9602040816326531 0.001020408163265306 0.01774193548387097 0.001612903225806452 0.01774193548387097 0.001612903225806452 0.001612903225806452 0.01774193548387097 0.001612903225806452 0.001612903225806452 0.9370967741935484 0.001612903225806452 0.5391741071428571 0.08604910714285711 0.02020089285714285 0.07042410714285713 0.1217633928571428 0.006808035714285712 0.0001116071428571428 0.09944196428571425 0.04140624999999999 0.01462053571428571 0.652941176470588 0.06470588235294115 0.005882352941176469 0.005882352941176469 0.2411764705882352 0.005882352941176469 0.005882352941176469 0.005882352941176469 0.005882352941176469 0.005882352941176469 0.1 0.1 0.1 0.1 0.1 0.1 0.1 0.1 0.1 0.1 0.5598039215686277 0.03039215686274511 0.05000000000000002 0.06960784313725492 0.1382352941176471 0.0009803921568627455 0.0009803921568627455 0.1088235294117647 0.04019607843137256 0.0009803921568627455 0.21 0.01 0.01 0.11 0.21 0.01 0.01 0.11 0.3100000000000001 0.01 0.3857142857142857 0.1476190476190476 0.004761904761904762 0.1 0.05238095238095238 0.004761904761904762 0.004761904761904762 0.2904761904761904 0.004761904761904762 0.004761904761904762 0.203370786516854 0.04606741573033709 0.001123595505617978 0.02359550561797754 0.4505617977528091 0.01235955056179776 0.001123595505617978 0.1584269662921349 0.102247191011236 0.001123595505617978 0.5001845018450183 0.08505535055350551 0.02232472324723246 0.02232472324723246 0.2012915129151291 0.002029520295202951 0.0001845018450184501 0.09059040590405901 0.06291512915129149 0.01309963099630996 0.7420824295010843 0.01757049891540129 0.008893709327548802 0.06312364425162686 0.05444685466377438 0.002386117136659435 0.0002169197396963122 0.03492407809110627 0.05878524945770062 0.01757049891540129 0.2208791208791209 0.06703296703296703 0.001098901098901099 0.07802197802197802 0.3087912087912088 0.03406593406593407 0.001098901098901099 0.1989010989010989 0.08901098901098901 0.001098901098901099 0.355 0.05500000000000001 0.005000000000000001 0.05500000000000001 0.155 0.005000000000000001 0.005000000000000001 0.155 0.205 0.005000000000000001 0.2214285714285715 0.007142857142857144 0.07857142857142858 0.007142857142857144 0.4357142857142858 0.007142857142857144 0.007142857142857144 0.15 0.07857142857142858 0.007142857142857144 0.4767741935483872 0.07032258064516131 0.04881720430107528 0.111899641577061 0.04738351254480288 0.01369175627240144 7.16845878136201e-05 0.04810035842293908 0.165663082437276 0.01727598566308244 0.7553846153846153 0.06307692307692306 0.01692307692307692 0.01692307692307692 0.01692307692307692 0.001538461538461538 0.001538461538461538 0.04769230769230769 0.06307692307692306 0.01692307692307692 0.1 0.1 0.1 0.1 0.1 0.1 0.1 0.1 0.1 0.1 0.7624999999999996 0.05518292682926827 0.03079268292682925 0.02164634146341462 0.01249999999999999 0.0246951219512195 0.0003048780487804876 0.006402439024390241 0.0765243902439024 0.009451219512195116 0.4136363636363636 0.05 0.05 0.09545454545454546 0.09545454545454546 0.004545454545454546 0.004545454545454546 0.05 0.2318181818181818 0.004545454545454546 0.09999999999999998 0.03442622950819672 0.0180327868852459 0.2147540983606557 0.1819672131147541 0.001639344262295082 0.001639344262295082 0.2639344262295082 0.1819672131147541 0.001639344262295082 0.2881188118811883 0.08019801980198023 0.0009900990099009905 0.06039603960396041 0.2287128712871288 0.0108910891089109 0.0009900990099009905 0.1495049504950496 0.1792079207920793 0.0009900990099009905 0.5887183422870299 0.05456638526477359 0.02540291634689179 0.01696085955487337 0.06761320030698388 0.02003069838833461 7.674597083653109e-05 0.04382194934765925 0.1689178818112049 0.01389102072141213 0.4591470258136924 0.02368125701459034 0.03153759820426486 0.1179573512906846 0.03939393939393938 0.02592592592592592 0.0001122334455667789 0.05510662177328843 0.2335578002244668 0.01358024691358024 0.1205 0.0255 0.0005000000000000001 0.07050000000000001 0.3655 0.0155 0.0005000000000000001 0.2855000000000001 0.1155 0.0005000000000000001 0.296078431372549 0.04117647058823529 0.1392156862745098 0.04117647058823529 0.09999999999999998 0.00196078431372549 0.00196078431372549 0.02156862745098039 0.3156862745098039 0.04117647058823529 0.2346153846153846 0.003846153846153846 0.003846153846153846 0.003846153846153846 0.2730769230769231 0.04230769230769231 0.003846153846153846 0.2346153846153846 0.1961538461538462 0.003846153846153846 0.0734375 0.08906250000000002 0.0005208333333333334 0.03177083333333334 0.02135416666666667 0.3338541666666667 0.0005208333333333334 0.0265625 0.4223958333333334 0.0005208333333333334 0.009090909090909092 0.1 0.009090909090909092 0.009090909090909092 0.009090909090909092 0.4636363636363637 0.009090909090909092 0.009090909090909092 0.3727272727272727 0.009090909090909092 0.1 0.1 0.1 0.1 0.1 0.1 0.1 0.1 0.1 0.1 0.06326530612244897 0.1040816326530612 0.002040816326530612 0.002040816326530612 0.002040816326530612 0.4306122448979592 0.002040816326530612 0.002040816326530612 0.3897959183673469 0.002040816326530612 0.05238095238095238 0.09999999999999998 0.004761904761904761 0.004761904761904761 0.004761904761904761 0.05238095238095238 0.004761904761904761 0.004761904761904761 0.7666666666666666 0.004761904761904761 0.01666666666666667 0.01666666666666667 0.01666666666666667 0.01666666666666667 0.01666666666666667 0.01666666666666667 0.01666666666666667 0.5166666666666666 0.35 0.01666666666666667 0.003703703703703704 0.04074074074074074 0.003703703703703704 0.003703703703703704 0.04074074074074074 0.1888888888888889 0.003703703703703704 0.07777777777777778 0.6333333333333333 0.003703703703703704 0.02700892857142857 0.1274553571428571 0.002455357142857143 0.0046875 0.0046875 0.2234375 0.0002232142857142857 0.01808035714285714 0.5895089285714286 0.002455357142857143 0.03069306930693071 0.0405940594059406 0.0009900990099009905 0.0108910891089109 0.03069306930693071 0.5950495049504952 0.0009900990099009905 0.0108910891089109 0.2782178217821784 0.0009900990099009905 0.075 0.1464285714285714 0.003571428571428571 0.003571428571428571 0.03928571428571428 0.1821428571428571 0.003571428571428571 0.03928571428571428 0.5035714285714286 0.003571428571428571 0.009090909090909092 0.009090909090909092 0.009090909090909092 0.009090909090909092 0.009090909090909092 0.2818181818181819 0.009090909090909092 0.009090909090909092 0.6454545454545454 0.009090909090909092 0.1 0.1 0.1 0.1 0.1 0.1 0.1 0.1 0.1 0.1 0.08225437928408226 0.007616146230007616 0.3869002284843869 0.002284843869002285 0.02361005331302361 0.001523229246001523 0.0007616146230007616 0.01447067783701447 0.4744859101294745 0.006092916984006093 0.001428571428571429 0.001428571428571429 0.6442857142857142 0.01571428571428572 0.001428571428571429 0.001428571428571429 0.001428571428571429 0.01571428571428572 0.3014285714285714 0.01571428571428572 0.1 0.1 0.1 0.1 0.1 0.1 0.1 0.1 0.1 0.1 0.04640522875816994 0.0006535947712418302 0.6084967320261438 0.0006535947712418302 0.01372549019607843 0.0006535947712418302 0.0006535947712418302 0.01372549019607843 0.2947712418300654 0.02026143790849674 0.001818181818181818 0.02 0.5836363636363635 0.001818181818181818 0.03818181818181817 0.001818181818181818 0.001818181818181818 0.001818181818181818 0.3472727272727272 0.001818181818181818 0.01428571428571429 0.01428571428571429 0.01428571428571429 0.01428571428571429 0.01428571428571429 0.01428571428571429 0.01428571428571429 0.1571428571428571 0.5857142857142856 0.1571428571428571 0.0275 0.0025 0.1025 0.0025 0.1275 0.0025 0.0025 0.0525 0.6775000000000001 0.0025 0.04597402597402597 0.009610389610389611 0.3507359307359307 0.004415584415584415 0.04424242424242424 0.008744588744588744 8.658008658008658e-05 0.01134199134199134 0.5161038961038962 0.008744588744588744 0.05466321243523316 0.008031088082901554 0.4018134715025907 0.01580310880829016 0.03393782383419689 0.01062176165803109 0.0002590673575129534 0.01321243523316062 0.4536269430051814 0.008031088082901554 0.003125 0.003125 0.128125 0.003125 0.190625 0.034375 0.003125 0.065625 0.565625 0.003125 0.02064777327935223 0.004453441295546559 0.2838056680161943 0.0004048582995951417 0.004453441295546559 0.004453441295546559 0.0004048582995951417 0.004453441295546559 0.6562753036437247 0.02064777327935223 0.01111111111111111 0.01111111111111111 0.2333333333333333 0.01111111111111111 0.01111111111111111 0.01111111111111111 0.01111111111111111 0.01111111111111111 0.6777777777777777 0.01111111111111111 0.3482758620689654 0.1758620689655172 0.2448275862068965 0.003448275862068965 0.03793103448275861 0.003448275862068965 0.003448275862068965 0.1068965517241379 0.07241379310344827 0.003448275862068965 0.1833333333333334 0.3500000000000001 0.3500000000000001 0.01666666666666667 0.01666666666666667 0.01666666666666667 0.01666666666666667 0.01666666666666667 0.01666666666666667 0.01666666666666667 0.1 0.1 0.1 0.1 0.1 0.1 0.1 0.1 0.1 0.1 0.4434959349593497 0.08577235772357727 0.2483739837398375 0.01260162601626017 0.004471544715447156 0.02479674796747968 0.0004065040650406506 0.01666666666666667 0.1101626016260163 0.05325203252032522 0.2818181818181819 0.009090909090909092 0.3727272727272727 0.1 0.009090909090909092 0.009090909090909092 0.009090909090909092 0.009090909090909092 0.1 0.1 0.04999999999999999 0.04999999999999999 0.5499999999999999 0.04999999999999999 0.04999999999999999 0.04999999999999999 0.04999999999999999 0.04999999999999999 0.04999999999999999 0.04999999999999999 0.3875000000000001 0.2625000000000001 0.1375 0.0125 0.1375 0.0125 0.0125 0.0125 0.0125 0.0125 0.4134703196347031 0.0778538812785388 0.2673515981735159 0.002511415525114155 0.009360730593607303 0.0504566210045662 0.000228310502283105 0.004794520547945205 0.1166666666666666 0.05730593607305935 0.2975247524752476 0.06980198019801981 0.4163366336633664 0.0103960396039604 0.005445544554455447 0.04504950495049505 0.0004950495049504952 0.0103960396039604 0.07970297029702972 0.06485148514851487 0.1 0.1 0.1 0.1 0.1 0.1 0.1 0.1 0.1 0.1 0.1291666666666667 0.04583333333333334 0.2958333333333333 0.04583333333333334 0.04583333333333334 0.004166666666666667 0.004166666666666667 0.004166666666666667 0.3791666666666667 0.04583333333333334 0.5499999999999998 0.04999999999999998 0.04999999999999998 0.04999999999999998 0.04999999999999998 0.04999999999999998 0.04999999999999998 0.04999999999999998 0.04999999999999998 0.04999999999999998 0.2528471528471528 0.101998001998002 0.03406593406593406 0.3027972027972027 0.08501498501498499 0.01108891108891109 9.990009990009989e-05 0.09999999999999998 0.09800199800199798 0.01408591408591408 0.02499999999999999 0.02499999999999999 0.275 0.02499999999999999 0.02499999999999999 0.02499999999999999 0.02499999999999999 0.275 0.02499999999999999 0.275 0.1 0.1 0.1 0.1 0.1 0.1 0.1 0.1 0.1 0.1 0.5499999999999998 0.09761904761904758 0.04999999999999998 0.04999999999999998 0.07380952380952378 0.00238095238095238 0.00238095238095238 0.09761904761904758 0.04999999999999998 0.02619047619047618 0.21 0.11 0.11 0.21 0.11 0.01 0.01 0.11 0.11 0.01 0.04468085106382978 0.002127659574468085 0.02340425531914894 0.5127659574468084 0.1085106382978723 0.002127659574468085 0.002127659574468085 0.151063829787234 0.151063829787234 0.002127659574468085 0.1758620689655172 0.003448275862068965 0.003448275862068965 0.1068965517241379 0.3827586206896551 0.003448275862068965 0.003448275862068965 0.2448275862068965 0.07241379310344827 0.003448275862068965 0.2722222222222223 0.04382716049382717 0.08703703703703705 0.1240740740740741 0.2351851851851852 0.0006172839506172842 0.0006172839506172842 0.08703703703703705 0.1240740740740741 0.02530864197530865 0.08141361256544501 0.01858638743455497 0.0238219895287958 0.450523560209424 0.1049738219895288 0.02905759162303664 0.0002617801047120418 0.1075916230366492 0.1808900523560209 0.00287958115183246 0.075 0.1107142857142857 0.03928571428571428 0.003571428571428571 0.2535714285714286 0.03928571428571428 0.003571428571428571 0.2178571428571428 0.2535714285714286 0.003571428571428571 0.01 0.01 0.3100000000000001 0.01 0.11 0.11 0.01 0.01 0.3100000000000001 0.11 0.02 0.02 0.22 0.02 0.22 0.02 0.02 0.02 0.42 0.02 0.1291149710504549 0.02489660876757651 0.3052936311000827 0.009181141439205955 0.03978494623655914 8.271298593879239e-05 8.271298593879239e-05 0.01166253101736973 0.4756823821339951 0.004218362282878411 0.09 0.001111111111111111 0.5344444444444445 0.001111111111111111 0.01222222222222222 0.001111111111111111 0.001111111111111111 0.01222222222222222 0.3455555555555556 0.001111111111111111 0.1 0.1 0.1 0.1 0.1 0.1 0.1 0.1 0.1 0.1 0.08131313131313132 0.01565656565656566 0.4045454545454545 0.0005050505050505052 0.01565656565656566 0.005555555555555557 0.0005050505050505052 0.0005050505050505052 0.4752525252525253 0.0005050505050505052 0.04117647058823529 0.06078431372549019 0.4529411764705882 0.00196078431372549 0.00196078431372549 0.00196078431372549 0.00196078431372549 0.00196078431372549 0.4137254901960784 0.02156862745098039 0.005882352941176471 0.005882352941176471 0.06470588235294118 0.005882352941176471 0.1235294117647059 0.005882352941176471 0.005882352941176471 0.1823529411764706 0.5941176470588235 0.005882352941176471 0.06458333333333333 0.002083333333333333 0.1895833333333333 0.02291666666666667 0.1270833333333333 0.002083333333333333 0.002083333333333333 0.04374999999999999 0.54375 0.002083333333333333 0.04626373626373625 0.02318681318681318 0.2484615384615384 0.005604395604395603 0.05175824175824175 0.008901098901098898 0.0001098901098901099 0.01879120879120879 0.5891208791208791 0.007802197802197801 0.06114864864864866 0.01722972972972973 0.3111486486486487 0.02060810810810811 0.06790540540540542 0.01047297297297297 0.0003378378378378379 0.02060810810810811 0.4699324324324324 0.02060810810810811 0.07209302325581395 0.0953488372093023 0.0953488372093023 0.04883720930232557 0.1883720930232558 0.002325581395348837 0.002325581395348837 0.07209302325581395 0.4209302325581395 0.002325581395348837 0.01338582677165354 0.008136482939632546 0.2496062992125984 0.0002624671916010499 0.01863517060367454 0.0002624671916010499 0.0002624671916010499 0.005511811023622047 0.7010498687664043 0.002887139107611549 0.004 0.044 0.404 0.004 0.08400000000000001 0.004 0.004 0.004 0.444 0.004</probabilities>
		</cpt>
		<cpt id="AgeofPersonInvolvedName">
			<state id="Nopersoninvolved" />
			<state id="NotRecorded" />
			<state id="Persons10yearsorunder" />
			<state id="Persons1118yrs" />
			<state id="Persons1964yrs" />
			<state id="SPersons65_yrs" />
			<state id="Unknown" />
			<parents>GeneralPropertyUseGroupName FireCauseGroupName MinorInjuryCount</parents>
			<probabilities>0.003484320557491289 0.02787456445993031 0.003484320557491289 0.003484320557491289 0.9059233449477352 0.003484320557491289 0.05226480836236933 0.02147239263803681 0.03169734151329243 0.001022494887525562 0.003067484662576688 0.6840490797546013 0.016359918200409 0.2423312883435583 0.0238095238095238 0.0238095238095238 0.0238095238095238 0.0238095238095238 0.857142857142857 0.0238095238095238 0.0238095238095238 0.02203647416413374 0.0911854103343465 0.006079027355623099 0.0007598784194528874 0.6603343465045592 0.01671732522796352 0.202887537993921 0.01785714285714286 0.01785714285714286 0.01785714285714286 0.01785714285714286 0.2678571428571428 0.01785714285714286 0.6428571428571429 0.001757469244288225 0.02899824253075571 0.008787346221441124 0.04042179261862917 0.1098418277680141 0.0008787346221441124 0.8093145869947276 0.5357142857142858 0.03571428571428572 0.03571428571428572 0.03571428571428572 0.2857142857142858 0.03571428571428572 0.03571428571428572 0.357879234167894 0.02798232695139911 0.0004909180166912126 0.0004909180166912126 0.2994599901816397 0.007363770250368188 0.3063328424153166 0.4362934362934363 0.03088803088803089 0.003861003861003861 0.003861003861003861 0.4092664092664093 0.003861003861003861 0.111969111969112 0.5177919708029197 0.09032846715328467 0.0009124087591240876 0.0004562043795620438 0.2057481751824818 0.005474452554744526 0.1792883211678832 0.1428571428571429 0.1428571428571429 0.1428571428571429 0.1428571428571429 0.1428571428571429 0.1428571428571429 0.1428571428571429 0.4186335403726709 0.07950310559006211 0.001242236024844721 0.001242236024844721 0.262111801242236 0.001242236024844721 0.2360248447204969 0.1428571428571429 0.1428571428571429 0.1428571428571429 0.1428571428571429 0.1428571428571429 0.1428571428571429 0.1428571428571429 0.1428571428571429 0.1428571428571429 0.1428571428571429 0.1428571428571429 0.1428571428571429 0.1428571428571429 0.1428571428571429 0.00892857142857143 0.00892857142857143 0.00892857142857143 0.00892857142857143 0.8839285714285716 0.00892857142857143 0.07142857142857144 0.2954990215264188 0.05044574907588607 0.0002174385736029572 0.001739508588823657 0.441617742987606 0.009349858664927158 0.2011306805827354 0.1746031746031746 0.1746031746031746 0.007936507936507936 0.007936507936507936 0.2857142857142857 0.007936507936507936 0.3412698412698413 0.2913209239739852 0.1798609553711595 0.0001121327651939897 0.004036779546983629 0.1790760260148015 0.009531285041489123 0.3360618972863871 0.07142857142857144 0.07142857142857144 0.07142857142857144 0.07142857142857144 0.5714285714285715 0.07142857142857144 0.07142857142857144 0.004329004329004329 0.004329004329004329 0.03463203463203463 0.004329004329004329 0.5194805194805194 0.03463203463203463 0.3982683982683983 0.1428571428571429 0.1428571428571429 0.1428571428571429 0.1428571428571429 0.1428571428571429 0.1428571428571429 0.1428571428571429 0.1428571428571428 0.01785714285714286 0.01785714285714286 0.01785714285714286 0.3928571428571428 0.01785714285714286 0.3928571428571428 0.1428571428571429 0.1428571428571429 0.1428571428571429 0.1428571428571429 0.1428571428571429 0.1428571428571429 0.1428571428571429 0.07142857142857144 0.07142857142857144 0.07142857142857144 0.07142857142857144 0.07142857142857144 0.07142857142857144 0.5714285714285715 0.1428571428571429 0.1428571428571429 0.1428571428571429 0.1428571428571429 0.1428571428571429 0.1428571428571429 0.1428571428571429 0.002801120448179271 0.1008403361344538 0.002801120448179271 0.06162464985994397 0.02240896358543417 0.002801120448179271 0.8067226890756303 0.1428571428571429 0.1428571428571429 0.1428571428571429 0.1428571428571429 0.1428571428571429 0.1428571428571429 0.1428571428571429 0.2857142857142858 0.03571428571428572 0.03571428571428572 0.03571428571428572 0.2857142857142858 0.03571428571428572 0.2857142857142858 0.1428571428571429 0.1428571428571429 0.1428571428571429 0.1428571428571429 0.1428571428571429 0.1428571428571429 0.1428571428571429 0.680672268907563 0.06302521008403361 0.004201680672268907 0.004201680672268907 0.03361344537815126 0.004201680672268907 0.2100840336134454 0.1428571428571429 0.1428571428571429 0.1428571428571429 0.1428571428571429 0.1428571428571429 0.1428571428571429 0.1428571428571429 0.5714285714285715 0.07142857142857144 0.07142857142857144 0.07142857142857144 0.07142857142857144 0.07142857142857144 0.07142857142857144 0.1428571428571429 0.1428571428571429 0.1428571428571429 0.1428571428571429 0.1428571428571429 0.1428571428571429 0.1428571428571429 0.1428571428571429 0.1428571428571429 0.1428571428571429 0.1428571428571429 0.1428571428571429 0.1428571428571429 0.1428571428571429 0.1428571428571429 0.1428571428571429 0.1428571428571429 0.1428571428571429 0.1428571428571429 0.1428571428571429 0.1428571428571429 0.02857142857142857 0.4285714285714286 0.02857142857142857 0.02857142857142857 0.2285714285714286 0.02857142857142857 0.2285714285714286 0.1428571428571429 0.1428571428571429 0.1428571428571429 0.1428571428571429 0.1428571428571429 0.1428571428571429 0.1428571428571429 0.1142857142857143 0.3142857142857142 0.01428571428571428 0.01428571428571428 0.3142857142857142 0.01428571428571428 0.2142857142857142 0.1428571428571429 0.1428571428571429 0.1428571428571429 0.1428571428571429 0.1428571428571429 0.1428571428571429 0.1428571428571429 0.1428571428571429 0.1428571428571429 0.1428571428571429 0.1428571428571429 0.1428571428571429 0.1428571428571429 0.1428571428571429 0.1428571428571429 0.1428571428571429 0.1428571428571429 0.1428571428571429 0.1428571428571429 0.1428571428571429 0.1428571428571429 0.02935420743639922 0.02935420743639922 0.001956947162426614 0.01565557729941291 0.6594911937377691 0.001956947162426614 0.2622309197651663 0.1428571428571429 0.1428571428571429 0.1428571428571429 0.1428571428571429 0.1428571428571429 0.1428571428571429 0.1428571428571429 0.02857142857142857 0.2285714285714286 0.02857142857142857 0.02857142857142857 0.6285714285714286 0.02857142857142857 0.02857142857142857 0.07142857142857144 0.07142857142857144 0.07142857142857144 0.07142857142857144 0.5714285714285715 0.07142857142857144 0.07142857142857144 0.0005232862375719518 0.02982731554160125 0.004186289900575614 0.04447933019361591 0.05180533751962323 0.0005232862375719518 0.8686551543694401 0.1428571428571429 0.1428571428571429 0.1428571428571429 0.1428571428571429 0.1428571428571429 0.1428571428571429 0.1428571428571429 0.2285714285714286 0.02857142857142857 0.02857142857142857 0.02857142857142857 0.4285714285714286 0.02857142857142857 0.2285714285714286 0.1428571428571429 0.1428571428571429 0.1428571428571429 0.1428571428571429 0.1428571428571429 0.1428571428571429 0.1428571428571429 0.4201680672268908 0.1848739495798319 0.008403361344537815 0.008403361344537815 0.1848739495798319 0.06722689075630252 0.1260504201680672 0.1428571428571429 0.1428571428571429 0.1428571428571429 0.1428571428571429 0.1428571428571429 0.1428571428571429 0.1428571428571429 0.5357142857142858 0.03571428571428572 0.03571428571428572 0.03571428571428572 0.2857142857142858 0.03571428571428572 0.03571428571428572 0.1428571428571429 0.1428571428571429 0.1428571428571429 0.1428571428571429 0.1428571428571429 0.1428571428571429 0.1428571428571429 0.1428571428571429 0.1428571428571429 0.1428571428571429 0.1428571428571429 0.1428571428571429 0.1428571428571429 0.1428571428571429 0.1428571428571429 0.1428571428571429 0.1428571428571429 0.1428571428571429 0.1428571428571429 0.1428571428571429 0.1428571428571429 0.3142857142857143 0.01428571428571429 0.01428571428571429 0.01428571428571429 0.5142857142857143 0.01428571428571429 0.1142857142857143 0.5714285714285715 0.07142857142857144 0.07142857142857144 0.07142857142857144 0.07142857142857144 0.07142857142857144 0.07142857142857144 0.1809523809523809 0.1809523809523809 0.003174603174603175 0.0253968253968254 0.09206349206349207 0.003174603174603175 0.5142857142857143 0.1428571428571429 0.1428571428571429 0.1428571428571429 0.1428571428571429 0.1428571428571429 0.1428571428571429 0.1428571428571429 0.03571428571428571 0.03571428571428571 0.03571428571428571 0.03571428571428571 0.03571428571428571 0.03571428571428571 0.7857142857142857 0.04761904761904762 0.04761904761904762 0.04761904761904762 0.04761904761904762 0.3809523809523809 0.04761904761904762 0.3809523809523809 0.02222222222222222 0.02222222222222222 0.01481481481481482 0.1111111111111111 0.5481481481481482 0.007407407407407408 0.2740740740740741 0.1428571428571429 0.1428571428571429 0.1428571428571429 0.1428571428571429 0.1428571428571429 0.1428571428571429 0.1428571428571429 0.007142857142857143 0.1571428571428571 0.007142857142857143 0.1071428571428572 0.5071428571428571 0.007142857142857143 0.2071428571428572 0.0119047619047619 0.0119047619047619 0.0119047619047619 0.2619047619047619 0.0119047619047619 0.0119047619047619 0.6785714285714285 0.0001806032147372223 0.0355788333032328 0.03810727830955391 0.174643308650894 0.02167238576846668 0.001444825717897779 0.7283727650352176 0.1428571428571429 0.1428571428571429 0.1428571428571429 0.1428571428571429 0.1428571428571429 0.1428571428571429 0.1428571428571429 0.3047619047619048 0.07142857142857144 0.004761904761904762 0.0380952380952381 0.1047619047619048 0.004761904761904762 0.4714285714285715 0.07142857142857144 0.07142857142857144 0.07142857142857144 0.07142857142857144 0.07142857142857144 0.07142857142857144 0.5714285714285715 0.6033163265306123 0.07206632653061225 0.005102040816326531 0.005102040816326531 0.107780612244898 0.0006377551020408164 0.2059948979591837 0.1428571428571429 0.1428571428571429 0.1428571428571429 0.1428571428571429 0.1428571428571429 0.1428571428571429 0.1428571428571429 0.6825396825396824 0.01587301587301587 0.01587301587301587 0.01587301587301587 0.1269841269841269 0.01587301587301587 0.1269841269841269 0.1428571428571429 0.1428571428571429 0.1428571428571429 0.1428571428571429 0.1428571428571429 0.1428571428571429 0.1428571428571429 0.1428571428571429 0.1428571428571429 0.1428571428571429 0.1428571428571429 0.1428571428571429 0.1428571428571429 0.1428571428571429 0.1428571428571429 0.1428571428571429 0.1428571428571429 0.1428571428571429 0.1428571428571429 0.1428571428571429 0.1428571428571429 0.4311224489795918 0.05612244897959183 0.002551020408163265 0.002551020408163265 0.3061224489795918 0.002551020408163265 0.1989795918367347 0.07142857142857144 0.07142857142857144 0.07142857142857144 0.5714285714285715 0.07142857142857144 0.07142857142857144 0.07142857142857144 0.1895424836601307 0.1895424836601307 0.0130718954248366 0.04575163398692811 0.1176470588235294 0.0130718954248366 0.4313725490196079 0.1428571428571429 0.1428571428571429 0.1428571428571429 0.1428571428571429 0.1428571428571429 0.1428571428571429 0.1428571428571429 0.008403361344537815 0.008403361344537815 0.06722689075630252 0.2436974789915967 0.008403361344537815 0.008403361344537815 0.6554621848739496 0.02857142857142856 0.02857142857142856 0.02857142857142856 0.02857142857142856 0.4285714285714284 0.4285714285714284 0.02857142857142856 0.01131541725601131 0.06082036775106082 0.001414427157001414 0.02121640735502122 0.4568599717114569 0.1598302687411598 0.2885431400282885 0.1428571428571429 0.1428571428571429 0.1428571428571429 0.1428571428571429 0.1428571428571429 0.1428571428571429 0.1428571428571429 0.0761904761904762 0.009523809523809525 0.009523809523809525 0.009523809523809525 0.6095238095238096 0.2095238095238096 0.0761904761904762 0.01428571428571429 0.1142857142857143 0.01428571428571429 0.1142857142857143 0.4142857142857144 0.1142857142857143 0.2142857142857143 0.003937007874015748 0.02362204724409449 0.003937007874015748 0.07874015748031496 0.4921259842519685 0.01181102362204724 0.3858267716535433 0.1428571428571429 0.1428571428571429 0.1428571428571429 0.1428571428571429 0.1428571428571429 0.1428571428571429 0.1428571428571429 0.3540372670807453 0.09316770186335405 0.006211180124223603 0.006211180124223603 0.1801242236024845 0.006211180124223603 0.3540372670807453 0.3061224489795918 0.4489795918367346 0.02040816326530612 0.02040816326530612 0.02040816326530612 0.163265306122449 0.02040816326530612 0.523015873015873 0.09523809523809526 0.0007936507936507938 0.0007936507936507938 0.1452380952380953 0.04523809523809524 0.1896825396825397 0.1428571428571429 0.1428571428571429 0.1428571428571429 0.1428571428571429 0.1428571428571429 0.1428571428571429 0.1428571428571429 0.02380952380952381 0.1904761904761905 0.02380952380952381 0.02380952380952381 0.5238095238095238 0.1904761904761905 0.02380952380952381 0.1428571428571429 0.1428571428571429 0.1428571428571429 0.1428571428571429 0.1428571428571429 0.1428571428571429 0.1428571428571429 0.1428571428571429 0.1428571428571429 0.1428571428571429 0.1428571428571429 0.1428571428571429 0.1428571428571429 0.1428571428571429 0.1428571428571429 0.1428571428571429 0.1428571428571429 0.1428571428571429 0.1428571428571429 0.1428571428571429 0.1428571428571429 0.3073593073593073 0.03463203463203463 0.004329004329004329 0.004329004329004329 0.3073593073593073 0.09523809523809523 0.2467532467532468 0.1428571428571429 0.1428571428571429 0.1428571428571429 0.1428571428571429 0.1428571428571429 0.1428571428571429 0.1428571428571429 0.2154566744730679 0.117096018735363 0.00234192037470726 0.0351288056206089 0.1662763466042154 0.0351288056206089 0.4285714285714286 0.1428571428571429 0.1428571428571429 0.1428571428571429 0.1428571428571429 0.1428571428571429 0.1428571428571429 0.1428571428571429 0.02857142857142856 0.02857142857142856 0.02857142857142856 0.02857142857142856 0.6285714285714284 0.2285714285714285 0.02857142857142856 0.1428571428571429 0.1428571428571429 0.1428571428571429 0.1428571428571429 0.1428571428571429 0.1428571428571429 0.1428571428571429 0.07142857142857144 0.07142857142857144 0.5714285714285715 0.07142857142857144 0.07142857142857144 0.07142857142857144 0.07142857142857144 0.1428571428571429 0.1428571428571429 0.1428571428571429 0.1428571428571429 0.1428571428571429 0.1428571428571429 0.1428571428571429 0.1428571428571429 0.1428571428571429 0.1428571428571429 0.1428571428571429 0.1428571428571429 0.1428571428571429 0.1428571428571429 0.1428571428571429 0.1428571428571429 0.1428571428571429 0.1428571428571429 0.1428571428571429 0.1428571428571429 0.1428571428571429 0.02857142857142857 0.4285714285714286 0.02857142857142857 0.02857142857142857 0.02857142857142857 0.02857142857142857 0.4285714285714286 0.1428571428571429 0.1428571428571429 0.1428571428571429 0.1428571428571429 0.1428571428571429 0.1428571428571429 0.1428571428571429 0.1428571428571429 0.1428571428571429 0.1428571428571429 0.1428571428571429 0.1428571428571429 0.1428571428571429 0.1428571428571429 0.1428571428571429 0.1428571428571429 0.1428571428571429 0.1428571428571429 0.1428571428571429 0.1428571428571429 0.1428571428571429 0.1428571428571429 0.1428571428571429 0.1428571428571429 0.1428571428571429 0.1428571428571429 0.1428571428571429 0.1428571428571429 0.1428571428571429 0.1428571428571429 0.1428571428571429 0.1428571428571429 0.1428571428571429 0.1428571428571429 0.1428571428571429 0.1428571428571429 0.1428571428571429 0.1428571428571429 0.1428571428571429 0.1428571428571429 0.1428571428571429 0.1428571428571429 0.1428571428571429 0.1428571428571429 0.1428571428571429 0.1428571428571429 0.1428571428571429 0.1428571428571429 0.1428571428571429 0.1428571428571429 0.1428571428571429 0.1428571428571429 0.1428571428571429 0.1428571428571429 0.1428571428571429 0.1428571428571429 0.1428571428571429 0.1428571428571429 0.1428571428571429 0.1428571428571429 0.1428571428571429 0.1428571428571429 0.1428571428571429 0.1428571428571429 0.1428571428571429 0.1428571428571429 0.1428571428571429 0.1428571428571429 0.1428571428571429 0.1428571428571429 0.1428571428571429 0.1428571428571429 0.1428571428571429 0.1428571428571429 0.1428571428571429 0.1428571428571429 0.1428571428571429 0.5357142857142858 0.2857142857142858 0.03571428571428572 0.03571428571428572 0.03571428571428572 0.03571428571428572 0.03571428571428572 0.1428571428571429 0.1428571428571429 0.1428571428571429 0.1428571428571429 0.1428571428571429 0.1428571428571429 0.1428571428571429 0.1428571428571429 0.1428571428571429 0.1428571428571429 0.1428571428571429 0.1428571428571429 0.1428571428571429 0.1428571428571429 0.04761904761904762 0.04761904761904762 0.04761904761904762 0.04761904761904762 0.7142857142857142 0.04761904761904762 0.04761904761904762 0.004081632653061224 0.1469387755102041 0.004081632653061224 0.004081632653061224 0.3183673469387755 0.08979591836734693 0.4326530612244898 0.1428571428571429 0.1428571428571429 0.1428571428571429 0.1428571428571429 0.1428571428571429 0.1428571428571429 0.1428571428571429 0.04761904761904762 0.04761904761904762 0.04761904761904762 0.04761904761904762 0.3809523809523809 0.04761904761904762 0.3809523809523809 0.1428571428571429 0.1428571428571429 0.1428571428571429 0.1428571428571429 0.1428571428571429 0.1428571428571429 0.1428571428571429 0.003747072599531616 0.07915690866510539 0.02014051522248244 0.1053864168618267 0.07259953161592506 0.000468384074941452 0.7185011709601873 0.1428571428571429 0.1428571428571429 0.1428571428571429 0.1428571428571429 0.1428571428571429 0.1428571428571429 0.1428571428571429 0.4489795918367346 0.1632653061224489 0.02040816326530612 0.02040816326530612 0.3061224489795917 0.02040816326530612 0.02040816326530612 0.1428571428571429 0.1428571428571429 0.1428571428571429 0.1428571428571429 0.1428571428571429 0.1428571428571429 0.1428571428571429 0.5982142857142858 0.09821428571428574 0.004464285714285715 0.004464285714285715 0.1607142857142858 0.03571428571428572 0.09821428571428574 0.1428571428571429 0.1428571428571429 0.1428571428571429 0.1428571428571429 0.1428571428571429 0.1428571428571429 0.1428571428571429 0.04761904761904762 0.04761904761904762 0.04761904761904762 0.04761904761904762 0.7142857142857142 0.04761904761904762 0.04761904761904762 0.1428571428571429 0.1428571428571429 0.1428571428571429 0.1428571428571429 0.1428571428571429 0.1428571428571429 0.1428571428571429 0.1428571428571429 0.1428571428571429 0.1428571428571429 0.1428571428571429 0.1428571428571429 0.1428571428571429 0.1428571428571429 0.1428571428571429 0.1428571428571429 0.1428571428571429 0.1428571428571429 0.1428571428571429 0.1428571428571429 0.1428571428571429 0.2678571428571428 0.01785714285714286 0.01785714285714286 0.01785714285714286 0.1428571428571428 0.01785714285714286 0.5178571428571429 0.07142857142857144 0.07142857142857144 0.07142857142857144 0.07142857142857144 0.5714285714285715 0.07142857142857144 0.07142857142857144 0.1556776556776557 0.3095238095238095 0.01465201465201465 0.001831501831501831 0.1941391941391941 0.02747252747252747 0.2967032967032966 0.1428571428571429 0.1428571428571429 0.1428571428571429 0.1428571428571429 0.1428571428571429 0.1428571428571429 0.1428571428571429 0.02857142857142857 0.02857142857142857 0.02857142857142857 0.2285714285714286 0.2285714285714286 0.02857142857142857 0.4285714285714286 0.02040816326530612 0.02040816326530612 0.02040816326530612 0.02040816326530612 0.5918367346938775 0.02040816326530612 0.3061224489795918 0.03592814371257486 0.04191616766467066 0.005988023952095809 0.01197604790419162 0.4550898203592815 0.01796407185628743 0.4311377245508982 0.1428571428571429 0.1428571428571429 0.1428571428571429 0.1428571428571429 0.1428571428571429 0.1428571428571429 0.1428571428571429 0.01020408163265306 0.01020408163265306 0.01020408163265306 0.08163265306122448 0.5102040816326531 0.01020408163265306 0.3673469387755102 0.07142857142857144 0.07142857142857144 0.07142857142857144 0.07142857142857144 0.5714285714285715 0.07142857142857144 0.07142857142857144 0.000168662506324844 0.02496205093607691 0.01315567549333783 0.06864564007421151 0.06628436498566369 0.003710575139146567 0.8230730308652385 0.1428571428571429 0.1428571428571429 0.1428571428571429 0.1428571428571429 0.1428571428571429 0.1428571428571429 0.1428571428571429 0.3113553113553113 0.0293040293040293 0.003663003663003663 0.003663003663003663 0.1831501831501832 0.05494505494505494 0.4139194139194139 0.03571428571428572 0.2857142857142858 0.03571428571428572 0.2857142857142858 0.03571428571428572 0.03571428571428572 0.2857142857142858 0.5557299843014128 0.09419152276295134 0.0007849293563579278 0.0007849293563579278 0.1546310832025118 0.01726844583987441 0.1766091051805338 0.1428571428571429 0.1428571428571429 0.1428571428571429 0.1428571428571429 0.1428571428571429 0.1428571428571429 0.1428571428571429 0.6095238095238096 0.009523809523809525 0.009523809523809525 0.009523809523809525 0.2095238095238096 0.0761904761904762 0.0761904761904762 0.1428571428571429 0.1428571428571429 0.1428571428571429 0.1428571428571429 0.1428571428571429 0.1428571428571429 0.1428571428571429 0.1428571428571429 0.1428571428571429 0.1428571428571429 0.1428571428571429 0.1428571428571429 0.1428571428571429 0.1428571428571429 0.04761904761904762 0.04761904761904762 0.04761904761904762 0.04761904761904762 0.7142857142857142 0.04761904761904762 0.04761904761904762 0.4908424908424908 0.08058608058608058 0.003663003663003663 0.0293040293040293 0.26007326007326 0.003663003663003663 0.1318681318681319 0.5714285714285715 0.07142857142857144 0.07142857142857144 0.07142857142857144 0.07142857142857144 0.07142857142857144 0.07142857142857144 0.1717171717171717 0.196969696969697 0.005050505050505051 0.0101010101010101 0.1161616161616162 0.0101010101010101 0.4898989898989899 0.1428571428571429 0.1428571428571429 0.1428571428571429 0.1428571428571429 0.1428571428571429 0.1428571428571429 0.1428571428571429 0.007936507936507936 0.119047619047619 0.007936507936507936 0.06349206349206349 0.119047619047619 0.007936507936507936 0.6746031746031745 0.002209944751381216 0.02099447513812155 0.07182320441988951 0.06519337016574586 0.7314917127071824 0.07734806629834255 0.03093922651933702 0.006380716058135413 0.02410492733073378 0.05450194966323998 0.04298121233605105 0.7195143566111308 0.06442750797589507 0.08808933002481389 0.0121580547112462 0.0121580547112462 0.06534954407294834 0.07598784194528876 0.7249240121580548 0.10790273556231 0.001519756838905775 0.01397379912663755 0.02620087336244542 0.04803493449781659 0.05502183406113537 0.7126637554585153 0.05851528384279476 0.08558951965065502 0.001488095238095238 0.02232142857142857 0.2827380952380953 0.08482142857142858 0.2931547619047619 0.01190476190476191 0.3035714285714286 0.001659406762082555 0.04459655673096868 0.08711885500933417 0.04148516905206388 0.1970545529973035 0.009956440572495333 0.6181290188757519 0.3277310924369748 0.004201680672268907 0.03361344537815126 0.004201680672268907 0.4747899159663865 0.03361344537815126 0.1218487394957983 0.2317144528964307 0.02516091281451141 0.001170275014628438 0.007021650087770627 0.4961966062024576 0.04564072557050907 0.1930953774136922 0.2666666666666667 0.02564102564102564 0.01025641025641026 0.03076923076923077 0.5538461538461539 0.08205128205128205 0.03076923076923077 0.366213921901528 0.06655348047538201 0.001358234295415959 0.006281833616298812 0.4112054329371817 0.0567062818336163 0.09168081494057725 0.3571428571428572 0.02380952380952381 0.02380952380952381 0.02380952380952381 0.3571428571428572 0.1904761904761905 0.02380952380952381 0.3962541314726404 0.03121557106132941 0.0003672420124862284 0.002937936099889827 0.3936834373852368 0.0646345941975762 0.110907087770841 0.1428571428571429 0.1428571428571429 0.1428571428571429 0.1428571428571429 0.1428571428571429 0.1428571428571429 0.1428571428571429 0.07142857142857144 0.5714285714285715 0.07142857142857144 0.07142857142857144 0.07142857142857144 0.07142857142857144 0.07142857142857144 0.06153846153846154 0.06153846153846154 0.01538461538461539 0.01538461538461539 0.6923076923076923 0.07692307692307693 0.07692307692307693 0.1625069328896284 0.03105934553521908 0.007764836383804771 0.01830282861896839 0.6112035496394898 0.07154742096505824 0.0976150859678314 0.09523809523809523 0.1031746031746032 0.01587301587301587 0.03174603174603174 0.4761904761904762 0.02380952380952381 0.253968253968254 0.18140589569161 0.178166504697117 0.01036605118237771 0.01085195983155167 0.2915451895043732 0.03854875283446712 0.2891156462585034 0.003322259136212624 0.02657807308970099 0.3056478405315615 0.04983388704318937 0.5847176079734219 0.003322259136212624 0.02657807308970099 0.001828153564899452 0.009140767824497258 0.1956124314442413 0.13345521023766 0.4095063985374772 0.03107861060329068 0.2193784277879342 0.007518796992481203 0.007518796992481203 0.112781954887218 0.06015037593984962 0.7969924812030075 0.007518796992481203 0.007518796992481203 0.01302083333333333 0.0390625 0.02083333333333333 0.03385416666666666 0.6901041666666666 0.06510416666666666 0.1380208333333333 0.04761904761904762 0.04761904761904762 0.04761904761904762 0.04761904761904762 0.7142857142857142 0.04761904761904762 0.04761904761904762 0.06153846153846154 0.1076923076923077 0.03076923076923077 0.04615384615384616 0.5846153846153846 0.09230769230769231 0.07692307692307693 0.07142857142857144 0.07142857142857144 0.07142857142857144 0.07142857142857144 0.5714285714285715 0.07142857142857144 0.07142857142857144 0.003125 0.046875 0.05312500000000001 0.046875 0.265625 0.01875 0.565625 0.380952380952381 0.04761904761904762 0.04761904761904762 0.04761904761904762 0.380952380952381 0.04761904761904762 0.04761904761904762 0.3472906403940886 0.08866995073891626 0.002463054187192118 0.002463054187192118 0.3300492610837438 0.01970443349753695 0.20935960591133 0.03571428571428571 0.03571428571428571 0.03571428571428571 0.03571428571428571 0.5357142857142857 0.2857142857142857 0.03571428571428571 0.347887323943662 0.09154929577464789 0.001408450704225352 0.002816901408450704 0.3845070422535212 0.04507042253521127 0.1267605633802817 0.380952380952381 0.04761904761904762 0.04761904761904762 0.04761904761904762 0.380952380952381 0.04761904761904762 0.04761904761904762 0.3607399794450155 0.05858170606372045 0.001027749229188078 0.008221993833504625 0.3607399794450155 0.04419321685508736 0.1664953751284687 0.1428571428571429 0.1428571428571429 0.1428571428571429 0.1428571428571429 0.1428571428571429 0.1428571428571429 0.1428571428571429 0.1428571428571429 0.1428571428571429 0.1428571428571429 0.1428571428571429 0.1428571428571429 0.1428571428571429 0.1428571428571429 0.380952380952381 0.04761904761904762 0.04761904761904762 0.04761904761904762 0.380952380952381 0.04761904761904762 0.04761904761904762 0.2156003505696757 0.04382120946538125 0.0008764241893076249 0.01314636283961437 0.5591586327782647 0.02541630148992112 0.1419807186678352 0.2678571428571428 0.1428571428571428 0.01785714285714286 0.01785714285714286 0.5178571428571429 0.01785714285714286 0.01785714285714286 0.259047619047619 0.1542857142857143 0.00380952380952381 0.002857142857142857 0.3028571428571429 0.02190476190476191 0.2552380952380953 0.1428571428571429 0.1428571428571429 0.1428571428571429 0.1428571428571429 0.1428571428571429 0.1428571428571429 0.1428571428571429 0.003861003861003861 0.03088803088803089 0.05791505791505792 0.08494208494208494 0.5173745173745173 0.03088803088803089 0.2741312741312741 0.1428571428571429 0.1428571428571429 0.1428571428571429 0.1428571428571429 0.1428571428571429 0.1428571428571429 0.1428571428571429 0.007518796992481203 0.06015037593984962 0.06015037593984962 0.007518796992481203 0.2706766917293233 0.007518796992481203 0.5864661654135338 0.1428571428571429 0.1428571428571429 0.1428571428571429 0.1428571428571429 0.1428571428571429 0.1428571428571429 0.1428571428571429 0.1428571428571429 0.1428571428571429 0.1428571428571429 0.1428571428571429 0.1428571428571429 0.1428571428571429 0.1428571428571429 0.1428571428571429 0.1428571428571429 0.1428571428571429 0.1428571428571429 0.1428571428571429 0.1428571428571429 0.1428571428571429 0.001587301587301587 0.03492063492063492 0.001587301587301587 0.05714285714285715 0.05714285714285715 0.001587301587301587 0.846031746031746 0.1428571428571429 0.1428571428571429 0.1428571428571429 0.1428571428571429 0.1428571428571429 0.1428571428571429 0.1428571428571429 0.3061224489795918 0.02040816326530612 0.02040816326530612 0.02040816326530612 0.3061224489795918 0.02040816326530612 0.3061224489795918 0.1428571428571429 0.1428571428571429 0.1428571428571429 0.1428571428571429 0.1428571428571429 0.1428571428571429 0.1428571428571429 0.6151603498542273 0.1457725947521866 0.002915451895043731 0.002915451895043731 0.0845481049562682 0.002915451895043731 0.1457725947521866 0.1428571428571429 0.1428571428571429 0.1428571428571429 0.1428571428571429 0.1428571428571429 0.1428571428571429 0.1428571428571429 0.1428571428571429 0.1428571428571429 0.1428571428571429 0.1428571428571429 0.1428571428571429 0.1428571428571429 0.1428571428571429 0.1428571428571429 0.1428571428571429 0.1428571428571429 0.1428571428571429 0.1428571428571429 0.1428571428571429 0.1428571428571429 0.1428571428571429 0.1428571428571429 0.1428571428571429 0.1428571428571429 0.1428571428571429 0.1428571428571429 0.1428571428571429 0.1428571428571429 0.1428571428571429 0.1428571428571429 0.1428571428571429 0.1428571428571429 0.1428571428571429 0.1428571428571429 0.3766233766233766 0.01298701298701298 0.01298701298701298 0.01298701298701298 0.2857142857142857 0.01298701298701298 0.2857142857142857 0.1428571428571429 0.1428571428571429 0.1428571428571429 0.1428571428571429 0.1428571428571429 0.1428571428571429 0.1428571428571429 0.2275132275132275 0.005291005291005291 0.005291005291005291 0.005291005291005291 0.2275132275132275 0.005291005291005291 0.5238095238095237 0.1428571428571429 0.1428571428571429 0.1428571428571429 0.1428571428571429 0.1428571428571429 0.1428571428571429 0.1428571428571429 0.02040816326530612 0.02040816326530612 0.02040816326530612 0.02040816326530612 0.02040816326530612 0.02040816326530612 0.8775510204081632 0.07142857142857144 0.07142857142857144 0.07142857142857144 0.07142857142857144 0.5714285714285715 0.07142857142857144 0.07142857142857144 0.08163265306122448 0.08163265306122448 0.01020408163265306 0.01020408163265306 0.3673469387755102 0.01020408163265306 0.4387755102040816 0.1428571428571429 0.1428571428571429 0.1428571428571429 0.1428571428571429 0.1428571428571429 0.1428571428571429 0.1428571428571429 0.03571428571428571 0.03571428571428571 0.03571428571428571 0.03571428571428571 0.03571428571428571 0.03571428571428571 0.7857142857142857 0.1428571428571429 0.1428571428571429 0.1428571428571429 0.1428571428571429 0.1428571428571429 0.1428571428571429 0.1428571428571429 0.004081632653061224 0.03265306122448979 0.03265306122448979 0.08979591836734693 0.004081632653061224 0.004081632653061224 0.8326530612244898 0.1428571428571429 0.1428571428571429 0.1428571428571429 0.1428571428571429 0.1428571428571429 0.1428571428571429 0.1428571428571429 0.2285714285714286 0.02857142857142857 0.02857142857142857 0.02857142857142857 0.6285714285714286 0.02857142857142857 0.02857142857142857 0.04761904761904762 0.04761904761904762 0.04761904761904762 0.04761904761904762 0.7142857142857142 0.04761904761904762 0.04761904761904762 0.6357142857142857 0.05238095238095237 0.00238095238095238 0.00238095238095238 0.06904761904761904 0.00238095238095238 0.2357142857142857 0.1428571428571429 0.1428571428571429 0.1428571428571429 0.1428571428571429 0.1428571428571429 0.1428571428571429 0.1428571428571429 0.4489795918367346 0.02040816326530612 0.02040816326530612 0.02040816326530612 0.163265306122449 0.02040816326530612 0.3061224489795918 0.1428571428571429 0.1428571428571429 0.1428571428571429 0.1428571428571429 0.1428571428571429 0.1428571428571429 0.1428571428571429 0.1428571428571429 0.1428571428571429 0.1428571428571429 0.1428571428571429 0.1428571428571429 0.1428571428571429 0.1428571428571429 0.07142857142857144 0.5714285714285715 0.07142857142857144 0.07142857142857144 0.07142857142857144 0.07142857142857144 0.07142857142857144 0.4829931972789117 0.006802721088435376 0.006802721088435376 0.006802721088435376 0.1020408163265306 0.006802721088435376 0.3877551020408164 0.1428571428571429 0.1428571428571429 0.1428571428571429 0.1428571428571429 0.1428571428571429 0.1428571428571429 0.1428571428571429 0.3516483516483517 0.1593406593406594 0.005494505494505495 0.005494505494505495 0.005494505494505495 0.005494505494505495 0.467032967032967 0.1428571428571429 0.1428571428571429 0.1428571428571429 0.1428571428571429 0.1428571428571429 0.1428571428571429 0.1428571428571429 0.04761904761904762 0.04761904761904762 0.04761904761904762 0.04761904761904762 0.04761904761904762 0.04761904761904762 0.7142857142857142 0.07142857142857144 0.07142857142857144 0.07142857142857144 0.07142857142857144 0.5714285714285715 0.07142857142857144 0.07142857142857144 0.04968944099378882 0.04968944099378882 0.006211180124223602 0.006211180124223602 0.1366459627329192 0.04968944099378882 0.7018633540372671 0.1428571428571429 0.1428571428571429 0.1428571428571429 0.1428571428571429 0.1428571428571429 0.1428571428571429 0.1428571428571429 0.04761904761904762 0.04761904761904762 0.04761904761904762 0.04761904761904762 0.7142857142857142 0.04761904761904762 0.04761904761904762 0.1428571428571429 0.1428571428571429 0.1428571428571429 0.1428571428571429 0.1428571428571429 0.1428571428571429 0.1428571428571429 0.004464285714285714 0.09821428571428571 0.004464285714285714 0.06696428571428571 0.09821428571428571 0.03571428571428571 0.6919642857142857 0.1428571428571429 0.1428571428571429 0.1428571428571429 0.1428571428571429 0.1428571428571429 0.1428571428571429 0.1428571428571429 0.5714285714285715 0.07142857142857144 0.07142857142857144 0.07142857142857144 0.07142857142857144 0.07142857142857144 0.07142857142857144 0.07142857142857144 0.07142857142857144 0.07142857142857144 0.07142857142857144 0.5714285714285715 0.07142857142857144 0.07142857142857144 0.1948051948051948 0.01298701298701299 0.01298701298701299 0.01298701298701299 0.5584415584415585 0.1038961038961039 0.1038961038961039 0.1428571428571429 0.1428571428571429 0.1428571428571429 0.1428571428571429 0.1428571428571429 0.1428571428571429 0.1428571428571429 0.380952380952381 0.04761904761904762 0.04761904761904762 0.04761904761904762 0.380952380952381 0.04761904761904762 0.04761904761904762 0.1428571428571429 0.1428571428571429 0.1428571428571429 0.1428571428571429 0.1428571428571429 0.1428571428571429 0.1428571428571429 0.1428571428571429 0.1428571428571429 0.1428571428571429 0.1428571428571429 0.1428571428571429 0.1428571428571429 0.1428571428571429 0.1428571428571429 0.1428571428571429 0.1428571428571429 0.1428571428571429 0.1428571428571429 0.1428571428571429 0.1428571428571429 0.07142857142857144 0.07142857142857144 0.07142857142857144 0.07142857142857144 0.07142857142857144 0.07142857142857144 0.5714285714285715 0.1428571428571429 0.1428571428571429 0.1428571428571429 0.1428571428571429 0.1428571428571429 0.1428571428571429 0.1428571428571429 0.2589285714285715 0.2589285714285715 0.008928571428571428 0.008928571428571428 0.07142857142857142 0.008928571428571428 0.3839285714285715 0.1428571428571429 0.1428571428571429 0.1428571428571429 0.1428571428571429 0.1428571428571429 0.1428571428571429 0.1428571428571429 0.02857142857142857 0.02857142857142857 0.02857142857142857 0.02857142857142857 0.2285714285714286 0.02857142857142857 0.6285714285714286</probabilities>
		</cpt>
		<cpt id="SeriousInjuryCount">
			<state id="AtLeastOne" />
			<state id="Zero" />
			<parents>FireCauseGroupName AgeofPersonInvolvedName</parents>
			<probabilities>0.004310344827586207 0.9956896551724138 0.005494505494505495 0.9945054945054946 0.001436781609195402 0.9985632183908045 0.003442340791738382 0.9965576592082617 0.002786346900189073 0.9972136530998109 0.008101851851851851 0.9918981481481481 0.000327653997378768 0.9996723460026212 0.01851851851851852 0.9814814814814814 0.01694915254237288 0.9830508474576272 0.007692307692307693 0.9923076923076923 0.006493506493506494 0.9935064935064936 0.009216589861751152 0.9907834101382489 0.01123595505617977 0.9887640449438202 0.003184713375796179 0.9968152866242038 0.03571428571428571 0.9642857142857142 0.001358695652173913 0.9986413043478261 0.0009523809523809524 0.9990476190476191 0.0009140767824497258 0.9990859232175503 0.002083333333333333 0.9979166666666667 0.007575757575757576 0.9924242424242424 0.0001633186346562143 0.9998366813653438 0.0008726003490401396 0.9991273996509599 0.007936507936507936 0.992063492063492 0.125 0.875 0.03571428571428571 0.9642857142857142 0.0005015045135406219 0.9994984954864594 0.005882352941176471 0.9941176470588236 0.00104602510460251 0.9989539748953974 0.0001231830500123183 0.9998768169499876 0.0006811989100817438 0.9993188010899182 0.03333333333333333 0.9666666666666667 0.01020408163265306 0.9897959183673468 0.0001481042654028436 0.9998518957345972 0.00121654501216545 0.9987834549878346 0.0004230118443316413 0.9995769881556683 0.001798561151079137 0.9982014388489209 0.01612903225806452 0.9838709677419355 0.5 0.5 0.1666666666666667 0.8333333333333333 0.002008032128514056 0.9979919678714858 0.01428571428571429 0.9857142857142857 0.00510204081632653 0.9948979591836734 0.5 0.5 0.25 0.75 0.5 0.5 0.5 0.5 0.5 0.5 0.5 0.5 0.5 0.5 0.0008333333333333334 0.9991666666666668 0.004504504504504504 0.9954954954954955 0.03125 0.96875 0.01282051282051282 0.9871794871794871 0.001254705144291092 0.9987452948557088 0.003378378378378379 0.9966216216216217 0.002638522427440633 0.9973614775725593 0.0002630194634402946 0.9997369805365597 0.001229256299938537 0.9987707437000614 0.006666666666666667 0.9933333333333334 0.005376344086021506 0.9946236559139786 0.003605769230769231 0.9963942307692307 0.00352112676056338 0.9964788732394366 0.0001792757260666906 0.9998207242739334 0.25 0.75 0.05 0.9500000000000001 0.004 0.996 0.005882352941176471 0.9941176470588236 0.001700680272108843 0.9982993197278911 0.02380952380952381 0.9761904761904762 0.002717391304347826 0.9972826086956521</probabilities>
		</cpt>
		<cpt id="ConstructionTypeName">
			<state id="BrickBlocksetc" />
			<state id="Heavytimber" />
			<state id="Metalframeprotected" />
			<state id="Metalframeunprotected" />
			<state id="PlasticConstructioncompositeformed" />
			<state id="PolystyreneBlocks" />
			<state id="Reinforcedconcretetiltslab" />
			<state id="Reinforcedconcretewithcombustiblecladding" />
			<state id="Reinforcedconcretewithnoncombustiblecladding" />
			<state id="Timberframeprotected" />
			<state id="STimberframeunprotected_normalhousing_" />
			<state id="Unabletoclassify" />
			<state id="Unknown" />
			<parents>YearConstructedName StructureAream2 SeriousInjuryCount</parents>
