<?xml version="1.0" encoding="UTF-8"?>
<smile version="1.0" id="Unnamed" numsamples="10000" discsamples="10000">
	<nodes>
		<cpt id="Numfloors">
			<state id="High" />
			<state id="Low" />
			<state id="Medium" />
			<probabilities>0.01244072303021885 0.7963451655786822 0.191214111391099</probabilities>
		</cpt>
		<cpt id="IncidentTypeName">
			<state id="Structurefirewithdamage" />
			<state id="Structurefirewithnodamage" />
			<parents>Numfloors</parents>
			<probabilities>0.9984051036682615 0.001594896331738437 0.9970848386694905 0.002915161330509531 0.9979246653522881 0.002075334647711943</probabilities>
		</cpt>
		<cpt id="DayofWeek">
			<state id="Friday" />
			<state id="Monday" />
			<state id="Saturday" />
			<state id="Sunday" />
			<state id="Thursday" />
			<state id="Tuesday" />
			<state id="Wednesday" />
			<probabilities>0.1420464691759757 0.1403400861128197 0.1548046588225957 0.1490307347368003 0.1366892200242068 0.1389313280025397 0.138157503125062</probabilities>
		</cpt>
		<cpt id="FlameDamageName">
			<state id="Confinedtofirecelloforigin" />
			<state id="Confinedtoflooroforigin" />
			<state id="Confinedtoobjectoforigin" />
			<state id="Confinedtopartofroomorareaoforigin" />
			<state id="Confinedtoroomoforigin" />
			<state id="Confinedtostructureoforigin" />
			<state id="Extendedbeyondstructureoforigin" />
			<state id="Nodamageofthistype" />
			<probabilities>0.03218317823766344 0.04170717672969702 0.1858568622393302 0.3185975912220481 0.09424790174408222 0.2568106510049803 0.06688624774301077 0.003710391079188079</probabilities>
		</cpt>
		<cpt id="FloorAream2">
			<state id="High" />
			<state id="Low" />
			<state id="Medium" />
			<parents>IncidentTypeName DayofWeek</parents>
			<probabilities>0.04173669467787115 0.5280112044817927 0.4302521008403361 0.04376770538243626 0.5205382436260623 0.4356940509915014 0.03547101914920961 0.5386197146896285 0.4259092661611618 0.03270154831820608 0.5381740523224773 0.4291243993593166 0.0399067870667055 0.5002912904165453 0.4598019225167492 0.0442947247706422 0.4997133027522936 0.4559919724770642 0.04391016412323639 0.5185718399078606 0.437517995968903 0.01666666666666667 0.8166666666666668 0.1666666666666667 0.07692307692307693 0.5384615384615385 0.3846153846153846 0.09523809523809523 0.6190476190476191 0.2857142857142857 0.01666666666666667 0.8666666666666668 0.1166666666666667 0.04347826086956522 0.5652173913043478 0.3913043478260869 0.07692307692307693 0.6538461538461539 0.2692307692307693 0.05882352941176471 0.5294117647058824 0.4117647058823529</probabilities>
		</cpt>
		<cpt id="StructureAream2">
			<state id="High" />
			<state id="Low" />
			<state id="Medium" />
			<parents>IncidentTypeName FloorAream2 Numfloors</parents>
			<probabilities>0.9957805907172995 0.00210970464135021 0.00210970464135021 0.9993091537132988 0.0003454231433506045 0.0003454231433506045 0.9992559523809523 0.0003720238095238095 0.0003720238095238095 0.6984126984126984 0.04761904761904762 0.253968253968254 1.471085808435206e-05 0.307662885976139 0.6923224031657768 0.05043227665706052 0.07492795389048992 0.8746397694524496 0.9983619983619985 0.0008190008190008191 0.0008190008190008191 0.2511638307820536 2.032892195726861e-05 0.7488158402959891 0.9998730883939337 6.345580303318739e-05 6.345580303318739e-05 0.6666666666666667 0.1666666666666667 0.1666666666666667 0.8666666666666668 0.06666666666666668 0.06666666666666668 0.7777777777777777 0.1111111111111111 0.1111111111111111 0.3333333333333333 0.3333333333333333 0.3333333333333333 0.00392156862745098 0.6509803921568628 0.3450980392156863 0.03703703703703703 0.2592592592592592 0.7037037037037036 0.3333333333333333 0.3333333333333333 0.3333333333333333 0.3444444444444444 0.01111111111111111 0.6444444444444444 0.9393939393939393 0.0303030303030303 0.0303030303030303</probabilities>
		</cpt>
		<cpt id="CriticalInjuryCount">
			<state id="AtLeastOne" />
			<state id="Zero" />
			<probabilities>0.003055616182860771 0.9969443838171392</probabilities>
		</cpt>
		<cpt id="PercentofPropertySaved">
			<state id="High" />
			<state id="Low" />
			<state id="Medium" />
			<parents>FlameDamageName StructureAream2 CriticalInjuryCount</parents>
			<probabilities>0.7777777777777777 0.1111111111111111 0.1111111111111111 0.7591743119266056 0.08256880733944955 0.1582568807339449 0.3333333333333333 0.3333333333333333 0.3333333333333333 0.06010928961748634 0.7431693989071039 0.1967213114754098 0.25 0.25 0.5 0.391742195367573 0.2900302114803626 0.3182275931520644 0.7777777777777777 0.1111111111111111 0.1111111111111111 0.6549295774647887 0.1302816901408451 0.2147887323943662 0.3333333333333333 0.3333333333333333 0.3333333333333333 0.09734513274336283 0.6814159292035398 0.2212389380530974 0.6000000000000001 0.2 0.2 0.3330975954738331 0.3076379066478077 0.3592644978783593 0.7777777777777777 0.1111111111111111 0.1111111111111111 0.9933356716941424 0.00526131182041389 0.001403016485443704 0.3333333333333333 0.3333333333333333 0.3333333333333333 0.2993280390959072 0.5070250458155162 0.1936469150885767 0.7777777777777777 0.1111111111111111 0.1111111111111111 0.9472820512820512 0.03343589743589744 0.01928205128205128 0.9487179487179487 0.02564102564102564 0.02564102564102564 0.9835282883743136 0.00310336595846264 0.01336834566722368 0.1111111111111111 0.7777777777777777 0.1111111111111111 0.2924471299093656 0.3746223564954683 0.3329305135951662 0.8888888888888887 0.08888888888888886 0.02222222222222222 0.9200785468826707 0.01924398625429553 0.06067746686303387 0.9259259259259258 0.03703703703703703 0.03703703703703703 0.9395711500974658 0.02144249512670565 0.03898635477582846 0.1111111111111111 0.7777777777777777 0.1111111111111111 0.07614942528735633 0.7169540229885057 0.2068965517241379 0.4166666666666667 0.01666666666666667 0.5666666666666668 0.6845615205068356 0.1230410136712237 0.1923974658219406 0.2222222222222222 0.5555555555555556 0.2222222222222222 0.3641666666666667 0.45875 0.1770833333333333 0.1111111111111111 0.7777777777777777 0.1111111111111111 0.04166666666666667 0.888425925925926 0.0699074074074074 0.04081632653061224 0.7346938775510203 0.2244897959183673 0.173495133966118 0.6673074612519524 0.1591974047819296 0.1111111111111111 0.7777777777777777 0.1111111111111111 0.2546972860125261 0.6388308977035489 0.1064718162839248 0.1111111111111111 0.7777777777777777 0.1111111111111111 0.03508771929824561 0.9197994987468672 0.04511278195488722 0.08333333333333333 0.75 0.1666666666666667 0.1357074109720885 0.782483156881617 0.08180943214629452 0.3333333333333333 0.3333333333333333 0.3333333333333333 0.9615384615384616 0.01923076923076923 0.01923076923076923 0.3333333333333333 0.3333333333333333 0.3333333333333333 0.3414634146341464 0.4878048780487805 0.1707317073170732 0.3333333333333333 0.3333333333333333 0.3333333333333333 0.9042553191489362 0.05319148936170213 0.0425531914893617</probabilities>
		</cpt>
		<cpt id="TimeofDay">
			<state id="High" />
			<state id="Low" />
			<state id="Medium" />
			<parents>PercentofPropertySaved</parents>
			<probabilities>0.3039030319400365 0.3557971503815248 0.3402998176784388 0.3020591935377078 0.4054823544991061 0.2924584519631862 0.3023952095808383 0.3820007044734061 0.3156040859457556</probabilities>
		</cpt>
		<cpt id="YearConstructedName">
			<state id="S19001945" />
			<state id="S19461969" />
			<state id="S19701991" />
			<state id="S19922005" />
			<state id="S2006onwards" />
			<state id="Pre1900" />
			<state id="Unknown" />
			<probabilities>0.1005773924085795 0.270064882239727 0.3368122383380623 0.1445663604436596 0.05625111609357328 0.009385106847358084 0.08234290362904026</probabilities>
		</cpt>
		<cpt id="ConstructionTypeName">
			<state id="BrickBlocksetc" />
			<state id="Heavytimber" />
			<state id="Metalframeprotected" />
			<state id="Metalframeunprotected" />
			<state id="PlasticConstructioncompositeformed" />
			<state id="PolystyreneBlocks" />
			<state id="Reinforcedconcretetiltslab" />
			<state id="Reinforcedconcretewithcombustiblecladding" />
			<state id="Reinforcedconcretewithnoncombustiblecladding" />
			<state id="Timberframeprotected" />
			<state id="STimberframeunprotected_normalhousing_" />
			<state id="Unabletoclassify" />
			<state id="Unknown" />
			<parents>YearConstructedName PercentofPropertySaved</parents>
			<probabilities>0.1116133783680829 2.539553546486528e-05 0.0003555374965081139 0.01290093201615156 0.0003555374965081139 2.539553546486528e-05 0.0003555374965081139 0.01620235162658405 0.04888640576986567 0.06935520735454709 0.7342611168956499 0.001676105340681109 0.003987099067983849 0.05304674678384245 5.294086505373498e-05 0.003494097093546508 0.01312933453332627 0.001429403356450844 5.294086505373498e-05 5.294086505373498e-05 0.007623484567737837 0.01519402827042194 0.1115464026682196 0.7894541796812959 0.002805865847847954 0.002117634602149399 0.0696219035202086 0.0001303780964797914 0.0001303780964797914 0.01199478487614081 0.0001303780964797914 0.0001303780964797914 0.0001303780964797914 0.01368970013037809 0.01877444589308996 0.07470664928292046 0.8035202086049543 0.003520208604954367 0.003520208604954367 0.1263556726463661 9.309340060883082e-06 0.005213230434094526 0.02021988661223805 0.0007354378648097634 9.309340060883082e-06 0.001703609231141604 0.01755741535482549 0.05592120574572467 0.08157774695351845 0.6840223796535062 0.001340544968767164 0.005334251854886007 0.09121960198801465 2.045282555785082e-05 0.007997054793119671 0.0300656535700407 2.045282555785082e-05 0.0005522262900619721 2.045282555785082e-05 0.0125171292414047 0.009858261918884096 0.1108952201746671 0.7272206655349437 0.006933507864111428 0.002679320148078457 0.1000483792936623 4.837929366231253e-05 0.001306240928882438 0.01765844218674407 0.001935171746492501 4.837929366231253e-05 4.837929366231253e-05 0.01011127237542332 0.02206095791001451 0.09061441702951135 0.7516207063376874 0.001935171746492501 0.002564102564102564 0.1696586895672436 7.327403021821007e-06 0.009532951331389129 0.03106086140949925 0.002102964667262629 0.0003883523601565133 0.006865776631446284 0.02315459354895438 0.06725823233729503 0.08449961164763985 0.5934536981403051 0.005151164324340168 0.006865776631446284 0.1069640418752845 0.000236012070331597 0.02105564827458319 0.06159915035654681 0.002646706788718623 1.68580050236855e-05 0.001331782396871154 0.007248942160184765 0.01316610192349837 0.1183600532712959 0.6517810482307523 0.009002174682648056 0.006591479964261029 0.1513181654026725 4.012680069018098e-05 0.01360298543397135 0.04229364792745074 0.002126720436579591 0.0005617752096625336 0.002126720436579591 0.01255968861602664 0.01881946952369488 0.1001966213233819 0.6489707475622969 0.005256610890413707 0.002126720436579591 0.1384403134230681 1.768753205865186e-05 0.02255160337478112 0.0600314838070644 0.00875532836903267 0.003926632117020712 0.03427843712966729 0.03220899587880503 0.1115375771618586 0.09728142632258521 0.468631161893981 0.007605638785220299 0.014733714204857 0.04878219730155949 3.504468196951113e-05 0.0396705799894866 0.1562992815840197 0.03283686700543193 0.005046434203609602 0.004135272472402313 0.005502015069213247 0.01233572805326792 0.1184860697389171 0.5490099877343614 0.01962502190292623 0.008235500262835115 0.1034589571502323 0.0001032524522457408 0.03500258131130614 0.1034589571502323 0.02560660815694372 0.002787816210635003 0.01084150748580279 0.005472379969024264 0.02963345379452762 0.09808982963345379 0.5678884873515746 0.01084150748580279 0.006814661848218894 0.1253442261795484 4.589682393978337e-05 0.03226546722966771 0.06567835505783 0.00899577749219754 0.001835872957591335 0.05553515696713788 0.02331558656140995 0.1169910042225078 0.07940150541582522 0.4552964934826511 0.01496236460436938 0.02033229300532403 0.04236343366778149 9.290226681531028e-05 0.07134894091415829 0.1945373467112597 0.06772575250836119 0.006131549609810477 0.004923820141211444 0.002508361204013378 0.01217019695280564 0.1099962839093274 0.4348755109624674 0.03994797473058342 0.01337792642140468 0.1020267157991709 0.0002303086135421464 0.0451404882542607 0.1020267157991709 0.02418240442192537 0.009212344541685857 0.006218332565637954 0.00322432058959005 0.05412252418240441 0.09304467987102716 0.5301704283740211 0.01520036849378166 0.01520036849378166 0.1767722473604827 0.000301659125188537 0.004223227752639517 0.008144796380090498 0.000301659125188537 0.000301659125188537 0.004223227752639517 0.008144796380090498 0.05128205128205128 0.08265460030165912 0.6316742081447964 0.01990950226244344 0.01206636500754148 0.1004273504273504 0.0004273504273504275 0.0004273504273504275 0.03376068376068377 0.005982905982905984 0.0004273504273504275 0.0004273504273504275 0.0004273504273504275 0.0004273504273504275 0.1226495726495727 0.6837606837606839 0.02820512820512821 0.02264957264957265 0.1482176360225141 0.001876172607879925 0.001876172607879925 0.001876172607879925 0.001876172607879925 0.001876172607879925 0.001876172607879925 0.001876172607879925 0.02626641651031895 0.09943714821763602 0.6848030018761726 0.02626641651031895 0.001876172607879925 0.1222359633935197 4.946821667078902e-05 0.02255750680187979 0.040563937670047 0.003264902300272075 0.0006925550333910462 0.008409596834034134 0.01676972545139748 0.05728419490477368 0.108088053425674 0.5151620084095968 0.02898837496908237 0.07593371258966114 0.03759479956663055 3.611412062116288e-05 0.03149151318165403 0.1014445648248465 0.0225713253882268 0.0009750812567713977 3.611412062116288e-05 0.006608884073672805 0.01224268689057421 0.1521487901769592 0.5202239075478512 0.05167930660888408 0.06294691224268688 0.07495069033530571 0.0001643655489809336 0.04717291255752794 0.09418145956607495 0.01298487836949375 0.0001643655489809336 0.00230111768573307 0.008711374095989479 0.02366863905325443 0.1369165023011177 0.487343852728468 0.04289940828402367 0.06854043392504931</probabilities>
		</cpt>
		<cpt id="AgeofPersonInvolvedName">
			<state id="Nopersoninvolved" />
			<state id="NotRecorded" />
			<state id="Persons10yearsorunder" />
			<state id="Persons1118yrs" />
			<state id="Persons1964yrs" />
			<state id="SPersons65_yrs" />
			<state id="Unknown" />
			<parents>IncidentTypeName CriticalInjuryCount</parents>
			<probabilities>0.04545454545454546 0.02597402597402598 0.03246753246753247 0.04545454545454546 0.7012987012987013 0.06493506493506494 0.08441558441558442 0.1503183187977728 0.06701658450915042 0.0300756381343924 0.02937713293551799 0.4275051390025346 0.03959526613048077 0.2561119204901511 0.1428571428571429 0.1428571428571429 0.1428571428571429 0.1428571428571429 0.1428571428571429 0.1428571428571429 0.1428571428571429 0.1593011305241521 0.001027749229188078 0.01541623843782117 0.008221993833504625 0.3391572456320658 0.02261048304213772 0.4542651593011306</probabilities>
		</cpt>
		<cpt id="EthnicityName">
			<state id="African" />
			<state id="SAsian_Indian" />
			<state id="Chinese" />
			<state id="SEuropean_Pakeha" />
			<state id="Informationnotrecorded" />
			<state id="SLatinAmerican_Hispanic" />
			<state id="Maori" />
			<state id="MiddleEastern" />
			<state id="Nopersoninvolved" />
			<state id="Other" />
			<state id="OtherAsian" />
			<state id="OtherEuropean" />
			<state id="PacificIsland" />
			<state id="SouthEastAsian" />
			<state id="Unknown" />
			<parents>AgeofPersonInvolvedName</parents>
			<probabilities>8.816009873931059e-06 0.0005377766023097946 8.816009873931059e-06 0.003050339416380147 0.1137353433835846 8.816009873931059e-06 0.001066737194745658 8.816009873931059e-06 0.8204266948778983 0.004637221193687738 8.816009873931059e-06 8.816009873931059e-06 0.0006700167504187605 8.816009873931059e-06 0.05581415851185754 1.982357022499752e-05 0.001506591337099812 1.982357022499752e-05 0.0023986519972247 0.9910992169689762 1.982357022499752e-05 0.0023986519972247 1.982357022499752e-05 1.982357022499752e-05 0.0003171771235999604 1.982357022499752e-05 1.982357022499752e-05 0.001803944890474775 1.982357022499752e-05 0.0003171771235999604 0.004004400440044006 0.01522552255225523 0.002024202420242025 0.244928492849285 0.004664466446644666 4.400440044004402e-05 0.4066446644664468 0.0007040704070407043 4.400440044004402e-05 0.003344334433443345 0.004004400440044006 0.007964796479647967 0.2244664466446645 0.002024202420242025 0.07991199119911993 0.003421111861354941 0.01625028134143597 0.004096331307674995 0.3369795183434616 0.007472428539275265 4.501462975467027e-05 0.304568984920099 0.006121989646635156 4.501462975467027e-05 0.005446770200315102 0.003421111861354941 0.0142246230024758 0.07837047040288093 0.004096331307674995 0.2154400180058519 0.004962073813165255 0.05367134757689516 0.0085306885418115 0.5570314068993221 0.004776691229858956 0.001069039563732988 0.1707404489348226 0.00320093927175542 3.08970972177164e-06 0.01043086002070106 0.008206269021025477 0.02266611051891676 0.04560720520307119 0.005703604146390449 0.1034002255488097 0.00203536870203537 0.02906239572906241 0.006039372706039375 0.7232565899232569 0.008541875208541879 0.0005338672005338674 0.1071404738071405 0.00203536870203537 3.336670003336672e-05 0.005038371705038374 0.003036369703036371 0.0255588922255589 0.02856189522856191 0.001534868201534869 0.05759092425759095 0.0002375419571391686 0.002871159308029951 0.0008572166279369997 0.02099664342886651 0.009610121352956363 0.0003150012909888974 0.01402530338239091 8.262328943971082e-05 5.163955589981926e-06 0.00155435063258456 0.0008572166279369997 0.0009346759617867285 0.006124451329718564 0.0005473792925380841 0.9409811515620966</probabilities>
		</cpt>
		<cpt id="SpecificPropertyUseGroupParentName">
			<state id="Assembly" />
			<state id="Commercial" />
			<state id="Educational" />
			<state id="SHealthcare_Institutional" />
			<state id="Manufacturing" />
			<state id="Miscellaneous" />
			<state id="NotRecorded" />
			<state id="PrimaryIndustriesandUtilities" />
			<state id="Residential" />
			<state id="Storage" />
			<parents>ConstructionTypeName EthnicityName</parents>
			<probabilities>0.004545454545454545 0.004545454545454545 0.004545454545454545 0.004545454545454545 0.004545454545454545 0.004545454545454545 0.004545454545454545 0.004545454545454545 0.959090909090909 0.004545454545454545 0.004453441295546559 0.2230769230769231 0.0004048582995951417 0.0004048582995951417 0.01255060728744939 0.008502024291497975 0.0004048582995951417 0.008502024291497975 0.7331983805668016 0.008502024291497975 0.002040816326530612 0.4918367346938775 0.002040816326530612 0.002040816326530612 0.002040816326530612 0.002040816326530612 0.002040816326530612 0.002040816326530612 0.4918367346938775 0.002040816326530612 0.01684782608695652 0.07282608695652174 0.005978260869565218 0.01793478260869565 0.03532608695652174 0.01630434782608696 0.001630434782608696 0.02880434782608696 0.7934782608695652 0.0108695652173913 0.0500924214417745 0.1924214417744917 0.02051756007393715 0.02791127541589649 0.044547134935305 0.05194085027726433 0.0001848428835489834 0.0722735674676525 0.5288354898336415 0.01127541589648798 0.02 0.42 0.02 0.02 0.02 0.02 0.02 0.02 0.42 0.02 0.01275 0.04024999999999999 0.01525 0.03025 0.01275 0.04275 0.00025 0.00275 0.8302499999999999 0.01275 0.006666666666666668 0.34 0.006666666666666668 0.07333333333333335 0.006666666666666668 0.006666666666666668 0.006666666666666668 0.006666666666666668 0.54 0.006666666666666668 0.0401106500691563 0.2226832641770401 0.03319502074688797 0.01798063623789765 0.08022130013831259 0.02351313969571231 0.004149377593360996 0.06639004149377593 0.4840940525587829 0.02766251728907331 0.0025 0.05249999999999999 0.0025 0.0025 0.0275 0.0025 0.0025 0.05249999999999999 0.8524999999999998 0.0025 0.003030303030303031 0.1848484848484848 0.003030303030303031 0.03333333333333334 0.03333333333333334 0.003030303030303031 0.003030303030303031 0.003030303030303031 0.7303030303030303 0.003030303030303031 0.02763157894736842 0.06710526315789472 0.01447368421052632 0.01447368421052632 0.04078947368421053 0.02763157894736842 0.00131578947368421 0.01447368421052632 0.7776315789473685 0.01447368421052632 0.02279411764705883 0.03014705882352942 0.000735294117647059 0.000735294117647059 0.02279411764705883 0.02279411764705883 0.000735294117647059 0.000735294117647059 0.897794117647059 0.000735294117647059 0.004 0.364 0.004 0.044 0.004 0.004 0.004 0.004 0.5639999999999999 0.004 0.0989247311827957 0.2080645161290323 0.05591397849462366 0.03172043010752688 0.04946236559139785 0.1193548387096774 0.002150537634408602 0.02096774193548387 0.3827956989247312 0.03064516129032258 0.1 0.1 0.1 0.1 0.1 0.1 0.1 0.1 0.1 0.1 0.1 0.1 0.1 0.1 0.1 0.1 0.1 0.1 0.1 0.1 0.1 0.1 0.1 0.1 0.1 0.1 0.1 0.1 0.1 0.1 0.1 0.1 0.1 0.1 0.1 0.1 0.1 0.1 0.1 0.1 0.1 0.1 0.1 0.1 0.1 0.1 0.1 0.1 0.1 0.1 0.1 0.1 0.1 0.1 0.1 0.1 0.1 0.1 0.1 0.1 0.05 0.05 0.05 0.05 0.05 0.05 0.05 0.05 0.55 0.05 0.1 0.1 0.1 0.1 0.1 0.1 0.1 0.1 0.1 0.1 0.1 0.1 0.1 0.1 0.1 0.1 0.1 0.1 0.1 0.1 0.1 0.1 0.1 0.1 0.1 0.1 0.1 0.1 0.1 0.1 0.1 0.1 0.1 0.1 0.1 0.1 0.1 0.1 0.1 0.1 0.1 0.1 0.1 0.1 0.1 0.1 0.1 0.1 0.1 0.1 0.1 0.1 0.1 0.1 0.1 0.1 0.1 0.1 0.1 0.1 0.1 0.1 0.1 0.1 0.1 0.1 0.1 0.1 0.1 0.1 0.1 0.1 0.1 0.1 0.1 0.1 0.1 0.1 0.1 0.1 0.03333333333333333 0.03333333333333333 0.03333333333333333 0.03333333333333333 0.3666666666666666 0.03333333333333333 0.03333333333333333 0.03333333333333333 0.3666666666666666 0.03333333333333333 0.01111111111111111 0.3444444444444445 0.01111111111111111 0.01111111111111111 0.2333333333333334 0.01111111111111111 0.01111111111111111 0.01111111111111111 0.3444444444444445 0.01111111111111111 0.05 0.05 0.05 0.05 0.05 0.05 0.05 0.05 0.05 0.55 0.01534653465346535 0.05990099009900991 0.0004950495049504952 0.005445544554455447 0.1836633663366337 0.06485148514851487 0.005445544554455447 0.1589108910891089 0.4163366336633664 0.08960396039603963 0.04811320754716981 0.1613207547169812 0.02924528301886792 0.0009433962264150943 0.2367924528301887 0.07641509433962264 0.0009433962264150943 0.1424528301886792 0.1990566037735849 0.1047169811320755 0.05 0.05 0.05 0.05 0.05 0.05 0.05 0.05 0.05 0.55 0.02558139534883721 0.02558139534883721 0.002325581395348837 0.002325581395348837 0.09534883720930232 0.02558139534883721 0.002325581395348837 0.04883720930232558 0.7465116279069768 0.02558139534883721 0.1 0.1 0.1 0.1 0.1 0.1 0.1 0.1 0.1 0.1 0.02827586206896552 0.1248275862068966 0.02827586206896552 0.0006896551724137933 0.3317241379310346 0.06275862068965518 0.0006896551724137933 0.18 0.1731034482758621 0.06965517241379311 0.025 0.025 0.025 0.025 0.025 0.025 0.025 0.275 0.525 0.025 0.1 0.1 0.1 0.1 0.1 0.1 0.1 0.1 0.1 0.1 0.11 0.01 0.01 0.01 0.11 0.11 0.01 0.3100000000000001 0.3100000000000001 0.01 0.01428571428571429 0.01428571428571429 0.01428571428571429 0.01428571428571429 0.01428571428571429 0.1571428571428571 0.01428571428571429 0.1571428571428571 0.5857142857142856 0.01428571428571429 0.05 0.05 0.05 0.05 0.05 0.05 0.05 0.55 0.05 0.05 0.03306122448979592 0.1595918367346939 0.06979591836734696 0.0126530612244898 0.18 0.1514285714285714 0.0004081632653061225 0.1106122448979592 0.1555102040816327 0.1269387755102041 0.02 0.02 0.02 0.02 0.42 0.02 0.02 0.02 0.42 0.02 0.002941176470588235 0.1205882352941176 0.002941176470588235 0.002941176470588235 0.09117647058823529 0.03235294117647059 0.002941176470588235 0.03235294117647059 0.6794117647058824 0.03235294117647059 0.009090909090909092 0.009090909090909092 0.1 0.009090909090909092 0.009090909090909092 0.009090909090909092 0.009090909090909092 0.009090909090909092 0.6454545454545454 0.1909090909090909 0.01041666666666667 0.0798611111111111 0.003472222222222222 0.003472222222222222 0.1875 0.05381944444444444 0.001736111111111111 0.1631944444444444 0.3819444444444444 0.1145833333333333 0.03460076045627376 0.1106463878326996 0.01178707224334601 0.0003802281368821293 0.2285171102661597 0.0688212927756654 0.0003802281368821293 0.103041825095057 0.2437262357414448 0.1980988593155893 0.05 0.05 0.05 0.05 0.05 0.05 0.05 0.05 0.55 0.05 0.01794871794871795 0.04358974358974359 0.0008547008547008548 0.0008547008547008548 0.06068376068376069 0.07777777777777778 0.0008547008547008548 0.0264957264957265 0.7017094017094018 0.06923076923076923 0.03333333333333333 0.03333333333333333 0.03333333333333333 0.03333333333333333 0.03333333333333333 0.03333333333333333 0.03333333333333333 0.03333333333333333 0.03333333333333333 0.7 0.01727493917274939 0.1145985401459854 0.00997566909975669 0.002676399026763991 0.3092457420924574 0.0391727493917275 0.00024330900243309 0.1218978102189781 0.2094890510948905 0.1754257907542579 0.007142857142857143 0.007142857142857143 0.07857142857142857 0.007142857142857143 0.15 0.007142857142857143 0.007142857142857143 0.07857142857142857 0.3642857142857142 0.2928571428571428 0.02 0.02 0.02 0.02 0.22 0.22 0.02 0.22 0.22 0.02 0.005263157894736842 0.1105263157894737 0.005263157894736842 0.005263157894736842 0.2684210526315789 0.005263157894736842 0.005263157894736842 0.05789473684210526 0.4789473684210526 0.05789473684210526 0.06507936507936507 0.001587301587301587 0.001587301587301587 0.001587301587301587 0.1285714285714286 0.06507936507936507 0.001587301587301587 0.001587301587301587 0.6682539682539682 0.06507936507936507 0.01428571428571429 0.3 0.01428571428571429 0.01428571428571429 0.01428571428571429 0.01428571428571429 0.01428571428571429 0.1571428571428571 0.4428571428571428 0.01428571428571429 0.05807200929152149 0.1010452961672474 0.02206736353077816 0.002322880371660859 0.2009291521486643 0.1347270615563299 0.00116144018583043 0.08013937282229965 0.2392566782810685 0.1602787456445993 0.1 0.1 0.1 0.1 0.1 0.1 0.1 0.1 0.1 0.1 0.03333333333333333 0.03333333333333333 0.03333333333333333 0.03333333333333333 0.03333333333333333 0.03333333333333333 0.03333333333333333 0.3666666666666666 0.3666666666666666 0.03333333333333333 0.1 0.1 0.1 0.1 0.1 0.1 0.1 0.1 0.1 0.1 0.07749999999999999 0.07749999999999999 0.0025 0.0025 0.1025 0.07749999999999999 0.0025 0.07749999999999999 0.4774999999999999 0.1025 0.1105263157894737 0.2157894736842105 0.005263157894736842 0.05789473684210526 0.1105263157894737 0.1631578947368421 0.005263157894736842 0.005263157894736842 0.2157894736842105 0.1105263157894737 0.05 0.05 0.05 0.05 0.05 0.05 0.05 0.05 0.55 0.05 0.007142857142857144 0.007142857142857144 0.007142857142857144 0.07857142857142858 0.007142857142857144 0.4357142857142858 0.007142857142857144 0.007142857142857144 0.4357142857142858 0.007142857142857144 0.1 0.1 0.1 0.1 0.1 0.1 0.1 0.1 0.1 0.1 0.06774193548387097 0.132258064516129 0.003225806451612903 0.003225806451612903 0.2935483870967742 0.06774193548387097 0.003225806451612903 0.2612903225806452 0.132258064516129 0.03548387096774194 0.03333333333333333 0.03333333333333333 0.3666666666666666 0.03333333333333333 0.03333333333333333 0.03333333333333333 0.03333333333333333 0.03333333333333333 0.3666666666666666 0.03333333333333333 0.04999999999999999 0.04999999999999999 0.04999999999999999 0.04999999999999999 0.04999999999999999 0.5499999999999999 0.04999999999999999 0.04999999999999999 0.04999999999999999 0.04999999999999999 0.04999999999999999 0.04999999999999999 0.04999999999999999 0.04999999999999999 0.04999999999999999 0.5499999999999999 0.04999999999999999 0.04999999999999999 0.04999999999999999 0.04999999999999999 0.05 0.05 0.05 0.05 0.05 0.05 0.05 0.55 0.05 0.05 0.1 0.1 0.1 0.1 0.1 0.1 0.1 0.1 0.1 0.1 0.137914691943128 0.02890995260663507 0.04312796208530806 0.0004739336492890996 0.03364928909952607 0.5644549763033175 0.005213270142180096 0.03838862559241706 0.09526066350710902 0.05260663507109005 0.1 0.1 0.1 0.1 0.1 0.1 0.1 0.1 0.1 0.1 0.1 0.1 0.1 0.1 0.1 0.1 0.1 0.1 0.1 0.1 0.1 0.1 0.1 0.1 0.1 0.1 0.1 0.1 0.1 0.1 0.007692307692307693 0.08461538461538462 0.007692307692307693 0.007692307692307693 0.3153846153846154 0.007692307692307693 0.007692307692307693 0.1615384615384615 0.3923076923076923 0.007692307692307693 0.009090909090909092 0.1 0.009090909090909092 0.009090909090909092 0.2818181818181819 0.009090909090909092 0.009090909090909092 0.009090909090909092 0.3727272727272727 0.1909090909090909 0.1 0.1 0.1 0.1 0.1 0.1 0.1 0.1 0.1 0.1 0.025 0.025 0.025 0.025 0.025 0.025 0.025 0.275 0.525 0.025 0.1 0.1 0.1 0.1 0.1 0.1 0.1 0.1 0.1 0.1 0.11 0.11 0.01 0.11 0.11 0.11 0.01 0.21 0.11 0.11 0.1 0.1 0.1 0.1 0.1 0.1 0.1 0.1 0.1 0.1 0.1 0.1 0.1 0.1 0.1 0.1 0.1 0.1 0.1 0.1 0.1 0.1 0.1 0.1 0.1 0.1 0.1 0.1 0.1 0.1 0.1 0.1 0.1 0.1 0.1 0.1 0.1 0.1 0.1 0.1 0.05 0.05 0.05 0.05 0.05 0.05 0.05 0.55 0.05 0.05 0.0647058823529412 0.2411764705882353 0.005882352941176472 0.005882352941176472 0.1823529411764706 0.1235294117647059 0.005882352941176472 0.1235294117647059 0.0647058823529412 0.1823529411764706 0.1 0.1 0.1 0.1 0.1 0.1 0.1 0.1 0.1 0.1 0.05500000000000001 0.455 0.005000000000000001 0.005000000000000001 0.05500000000000001 0.005000000000000001 0.005000000000000001 0.05500000000000001 0.305 0.05500000000000001 0.03333333333333333 0.03333333333333333 0.03333333333333333 0.03333333333333333 0.03333333333333333 0.03333333333333333 0.03333333333333333 0.03333333333333333 0.7 0.03333333333333333 0.001818181818181818 0.3472727272727272 0.001818181818181818 0.02 0.2745454545454545 0.02 0.02 0.02 0.2199999999999999 0.07454545454545453 0.07454545454545453 0.4199999999999999 0.001818181818181818 0.05636363636363635 0.1654545454545454 0.05636363636363635 0.001818181818181818 0.03818181818181817 0.03818181818181817 0.1472727272727272 0.05 0.05 0.05 0.05 0.05 0.05 0.05 0.05 0.55 0.05 0.007142857142857143 0.007142857142857143 0.007142857142857143 0.07857142857142857 0.07857142857142857 0.07857142857142857 0.007142857142857143 0.007142857142857143 0.5071428571428571 0.2214285714285714 0.1 0.1 0.1 0.1 0.1 0.1 0.1 0.1 0.1 0.1 0.04606741573033709 0.3943820224719102 0.001123595505617978 0.01235955056179776 0.3157303370786518 0.001123595505617978 0.001123595505617978 0.04606741573033709 0.03483146067415731 0.1471910112359551 0.01666666666666667 0.1833333333333333 0.01666666666666667 0.01666666666666667 0.01666666666666667 0.01666666666666667 0.01666666666666667 0.01666666666666667 0.6833333333333332 0.01666666666666667 0.05 0.05 0.05 0.05 0.05 0.05 0.05 0.05 0.55 0.05 0.03333333333333333 0.03333333333333333 0.03333333333333333 0.03333333333333333 0.03333333333333333 0.03333333333333333 0.03333333333333333 0.03333333333333333 0.7 0.03333333333333333 0.02 0.22 0.02 0.02 0.22 0.02 0.02 0.02 0.42 0.02 0.05 0.05 0.05 0.05 0.05 0.05 0.05 0.05 0.05 0.55 0.06044776119402986 0.3664179104477613 0.06791044776119404 0.03805970149253732 0.1649253731343284 0.09029850746268658 0.0007462686567164181 0.0082089552238806 0.09776119402985077 0.1052238805970149 0.03333333333333333 0.03333333333333333 0.03333333333333333 0.03333333333333333 0.03333333333333333 0.03333333333333333 0.03333333333333333 0.03333333333333333 0.7 0.03333333333333333 0.003030303030303029 0.5484848484848482 0.003030303030303029 0.003030303030303029 0.003030303030303029 0.003030303030303029 0.003030303030303029 0.003030303030303029 0.4272727272727271 0.003030303030303029 0.009090909090909094 0.3727272727272728 0.1 0.1 0.009090909090909094 0.009090909090909094 0.009090909090909094 0.009090909090909094 0.3727272727272728 0.009090909090909094 0.04475138121546961 0.2049723756906078 0.03370165745856354 0.02265193370165746 0.09447513812154698 0.02265193370165746 0.0005524861878453039 0.1276243093922652 0.3928176795580111 0.0558011049723757 0.1516666666666666 0.4183333333333333 0.01833333333333333 0.05166666666666666 0.06833333333333332 0.05166666666666666 0.001666666666666666 0.05166666666666666 0.1683333333333333 0.01833333333333333 0.1 0.1 0.1 0.1 0.1 0.1 0.1 0.1 0.1 0.1 0.05526315789473684 0.1078947368421053 0.02894736842105263 0.1078947368421053 0.002631578947368421 0.08157894736842106 0.002631578947368421 0.002631578947368421 0.6078947368421053 0.002631578947368421 0.01111111111111111 0.3444444444444444 0.01111111111111111 0.01111111111111111 0.01111111111111111 0.01111111111111111 0.01111111111111111 0.01111111111111111 0.4555555555555555 0.1222222222222222 0.05294117647058826 0.4973856209150329 0.01372549019607844 0.04640522875816995 0.1509803921568628 0.01372549019607844 0.0006535947712418303 0.04640522875816995 0.1575163398692811 0.02026143790849674 0.03333333333333333 0.03333333333333333 0.03333333333333333 0.03333333333333333 0.3666666666666666 0.03333333333333333 0.03333333333333333 0.3666666666666666 0.03333333333333333 0.03333333333333333 0.006250000000000002 0.5687500000000001 0.06875000000000002 0.006250000000000002 0.006250000000000002 0.006250000000000002 0.006250000000000002 0.006250000000000002 0.31875 0.006250000000000002 0.008333333333333335 0.2583333333333334 0.008333333333333335 0.09166666666666669 0.09166666666666669 0.008333333333333335 0.008333333333333335 0.008333333333333335 0.5083333333333334 0.008333333333333335 0.1909090909090909 0.1909090909090909 0.009090909090909092 0.009090909090909092 0.009090909090909092 0.009090909090909092 0.009090909090909092 0.009090909090909092 0.5545454545454546 0.009090909090909092 0.01666666666666667 0.35 0.01666666666666667 0.01666666666666667 0.01666666666666667 0.01666666666666667 0.01666666666666667 0.01666666666666667 0.5166666666666666 0.01666666666666667 0.0976510067114094 0.3124161073825503 0.04395973154362416 0.037248322147651 0.1144295302013423 0.0976510067114094 0.0003355704697986578 0.02718120805369127 0.2385906040268456 0.03053691275167785 0.01666666666666667 0.1833333333333333 0.01666666666666667 0.01666666666666667 0.01666666666666667 0.01666666666666667 0.01666666666666667 0.01666666666666667 0.6833333333333332 0.01666666666666667 0.001204819277108434 0.4710843373493976 0.001204819277108434 0.001204819277108434 0.04939759036144578 0.03734939759036145 0.01325301204819277 0.01325301204819277 0.3987951807228916 0.01325301204819277 0.05789473684210526 0.531578947368421 0.05789473684210526 0.005263157894736842 0.005263157894736842 0.005263157894736842 0.005263157894736842 0.005263157894736842 0.3210526315789473 0.005263157894736842 0.05392156862745098 0.2352941176470588 0.02205882352941176 0.04901960784313725 0.1102941176470588 0.0196078431372549 0.002450980392156863 0.04166666666666666 0.4411764705882353 0.02450980392156863 0.05215517241379311 0.3366379310344828 0.05646551724137932 0.07801724137931036 0.1125 0.05646551724137932 0.0004310344827586208 0.03491379310344828 0.2073275862068966 0.06508620689655173 0.05 0.05 0.05 0.05 0.05 0.05 0.05 0.55 0.05 0.05 0.07029702970297029 0.1297029702970297 0.02079207920792079 0.1297029702970297 0.0306930693069307 0.0900990099009901 0.0009900990099009901 0.0009900990099009901 0.4861386138613862 0.04059405940594059 0.1833333333333334 0.5166666666666668 0.01666666666666667 0.01666666666666667 0.01666666666666667 0.01666666666666667 0.01666666666666667 0.01666666666666667 0.1833333333333334 0.01666666666666667 0.06189555125725339 0.471953578336557 0.03288201160541586 0.04835589941972921 0.1218568665377176 0.02127659574468085 0.005802707930367505 0.04448742746615087 0.1315280464216634 0.05996131528046422 0.005000000000000001 0.255 0.005000000000000001 0.105 0.05500000000000001 0.005000000000000001 0.005000000000000001 0.05500000000000001 0.505 0.005000000000000001 0.044 0.364 0.044 0.004 0.004 0.004 0.004 0.004 0.444 0.08400000000000001 0.003333333333333334 0.27 0.003333333333333334 0.003333333333333334 0.07000000000000001 0.003333333333333334 0.003333333333333334 0.03666666666666667 0.6033333333333334 0.003333333333333334 0.003125 0.065625 0.003125 0.065625 0.003125 0.065625 0.003125 0.003125 0.721875 0.065625 0.009090909090909094 0.4636363636363637 0.009090909090909094 0.009090909090909094 0.1 0.009090909090909094 0.009090909090909094 0.009090909090909094 0.3727272727272728 0.009090909090909094 0.1037433155080214 0.3112299465240642 0.05668449197860963 0.06737967914438503 0.07486631016042782 0.1133689839572193 0.00213903743315508 0.0213903743315508 0.2203208556149733 0.02887700534759358 0.007692307692307693 0.007692307692307693 0.007692307692307693 0.007692307692307693 0.007692307692307693 0.007692307692307693 0.007692307692307693 0.007692307692307693 0.8538461538461539 0.08461538461538462 0.001333333333333334 0.1613333333333333 0.01466666666666667 0.01466666666666667 0.01466666666666667 0.01466666666666667 0.001333333333333334 0.05466666666666666 0.7213333333333334 0.001333333333333334 0.005882352941176471 0.2411764705882353 0.005882352941176471 0.005882352941176471 0.06470588235294118 0.005882352941176471 0.005882352941176471 0.005882352941176471 0.6529411764705882 0.005882352941176471 0.01237345331833521 0.03149606299212598 0.007874015748031496 0.01012373453318335 0.0219347581552306 0.02418447694038246 0.002249718785151856 0.08998875140607425 0.7598425196850395 0.03993250843644545 0.03819241982507288 0.09067055393586006 0.04110787172011662 0.006122448979591837 0.03527696793002915 0.04110787172011662 0.0002915451895043732 0.1489795918367347 0.5163265306122449 0.08192419825072887 0.05 0.05 0.05 0.05 0.05 0.05 0.05 0.05 0.55 0.05 0.0078125 0.017578125 0.017578125 0.0078125 0.00390625 0.009765625 0.001953125 0.00390625 0.912109375 0.017578125 0.01428571428571429 0.01428571428571429 0.01428571428571429 0.01428571428571429 0.01428571428571429 0.01428571428571429 0.01428571428571429 0.1571428571428572 0.7285714285714286 0.01428571428571429 0.01898496240601504 0.07161654135338345 0.02086466165413534 0.02086466165413534 0.05469924812030075 0.03214285714285715 0.0001879699248120301 0.1242481203007519 0.5960526315789474 0.06033834586466166 0.003125 0.096875 0.003125 0.003125 0.003125 0.096875 0.003125 0.034375 0.721875 0.034375 0.007692307692307693 0.08461538461538462 0.007692307692307693 0.007692307692307693 0.007692307692307693 0.007692307692307693 0.007692307692307693 0.007692307692307693 0.8538461538461539 0.007692307692307693 0.01358024691358025 0.03827160493827161 0.02592592592592593 0.01358024691358025 0.001234567901234568 0.06296296296296296 0.001234567901234568 0.03827160493827161 0.7666666666666666 0.03827160493827161 0.009090909090909092 0.0256198347107438 0.0256198347107438 0.0008264462809917356 0.0008264462809917356 0.01735537190082645 0.009090909090909092 0.0008264462809917356 0.9016528925619834 0.009090909090909092 0.01111111111111111 0.01111111111111111 0.01111111111111111 0.01111111111111111 0.01111111111111111 0.01111111111111111 0.01111111111111111 0.1222222222222222 0.7888888888888888 0.01111111111111111 0.05584129316678912 0.08155767817781043 0.06539309331373989 0.02057310800881704 0.0242468772961058 0.0698016164584864 0.001469507714915503 0.04849375459221161 0.5833945628214547 0.04922850844966935 0.001282051282051282 0.001282051282051282 0.01410256410256411 0.001282051282051282 0.001282051282051282 0.001282051282051282 0.001282051282051282 0.01410256410256411 0.9500000000000002 0.01410256410256411 0.003899371069182389 0.05672955974842766 0.002641509433962263 0.002641509433962263 0.001383647798742138 0.01018867924528302 0.0001257861635220125 0.008930817610062891 0.912075471698113 0.001383647798742138 0.0102803738317757 0.06635514018691589 0.0102803738317757 0.0009345794392523366 0.0009345794392523366 0.0009345794392523366 0.0009345794392523366 0.0102803738317757 0.8981308411214953 0.0009345794392523366 0.005242884656537556 0.01669163278407875 0.006633854055210785 0.005884870532848277 0.01048576931307511 0.0187245880590627 0.00171196233682859 0.0423710678365076 0.8717098223839076 0.02054354804194308 0.01403177004538578 0.03937216338880484 0.02386535552193646 0.004576399394856279 0.0079803328290469 0.03596822995461423 3.782148260211801e-05 0.04201966717095311 0.8003403933434191 0.03180786686838125 0.005263157894736842 0.005263157894736842 0.005263157894736842 0.005263157894736842 0.005263157894736842 0.005263157894736842 0.005263157894736842 0.1105263157894737 0.7947368421052631 0.05789473684210526 0.00802485115195444 0.006989386487186125 0.01190784364483562 0.007507118819570283 0.001553196997152472 0.01061351281387523 0.001035464664768315 0.007507118819570283 0.940460781775822 0.004400724825265339 0.002083333333333333 0.02291666666666667 0.002083333333333333 0.002083333333333333 0.002083333333333333 0.02291666666666667 0.002083333333333333 0.002083333333333333 0.9395833333333331 0.002083333333333333 0.01648351648351648 0.04598033545401966 0.02602660497397339 0.01156737998843262 0.03007518796992481 0.01879699248120301 0.001156737998843262 0.05263157894736842 0.772700983227299 0.02458068247541931 0.0005347593582887702 0.02192513368983957 0.01122994652406417 0.0005347593582887702 0.01657754010695187 0.01122994652406417 0.0005347593582887702 0.01657754010695187 0.9149732620320856 0.005882352941176471 0.0182608695652174 0.04434782608695653 0.0008695652173913046 0.0008695652173913046 0.0008695652173913046 0.0008695652173913046 0.0008695652173913046 0.009565217391304351 0.9226086956521741 0.0008695652173913046 0.008659217877094972 0.01983240223463687 0.005865921787709497 0.0002793296089385475 0.005865921787709497 0.008659217877094972 0.003072625698324022 0.01983240223463687 0.9081005586592178 0.01983240223463687 0.004253544620517098 0.001751459549624688 0.007589658048373646 0.001751459549624688 0.0009174311926605507 0.01843202668890743 8.340283569641371e-05 0.002585487906588825 0.9583819849874897 0.004253544620517098 0.001190476190476191 0.08452380952380954 0.02500000000000001 0.001190476190476191 0.001190476190476191 0.0130952380952381 0.001190476190476191 0.001190476190476191 0.8702380952380954 0.001190476190476191 0.04644444444444445 0.04355555555555556 0.06244444444444445 0.01011111111111111 0.01011111111111111 0.05488888888888889 0.001777777777777778 0.02633333333333333 0.7168888888888889 0.02744444444444444 0.1 0.1 0.1 0.1 0.1 0.1 0.1 0.1 0.1 0.1 0.0125 0.2625 0.0125 0.1375 0.0125 0.0125 0.0125 0.0125 0.5125 0.0125 0.03333333333333333 0.3666666666666666 0.03333333333333333 0.03333333333333333 0.03333333333333333 0.03333333333333333 0.03333333333333333 0.03333333333333333 0.3666666666666666 0.03333333333333333 0.03009708737864078 0.03980582524271844 0.0009708737864077669 0.0009708737864077669 0.05922330097087378 0.09805825242718445 0.0009708737864077669 0.1563106796116505 0.5349514563106795 0.07864077669902912 0.03229166666666666 0.05312499999999999 0.021875 0.01145833333333333 0.09479166666666666 0.1572916666666667 0.001041666666666667 0.1572916666666667 0.3760416666666667 0.09479166666666666 0.1 0.1 0.1 0.1 0.1 0.1 0.1 0.1 0.1 0.1 0.03142857142857143 0.03142857142857143 0.002857142857142857 0.002857142857142857 0.03142857142857143 0.1171428571428571 0.002857142857142857 0.06 0.6885714285714286 0.03142857142857143 0.04999999999999998 0.5499999999999998 0.04999999999999998 0.04999999999999998 0.04999999999999998 0.04999999999999998 0.04999999999999998 0.04999999999999998 0.04999999999999998 0.04999999999999998 0.03088235294117647 0.1191176470588235 0.0161764705882353 0.001470588235294118 0.1779411764705882 0.1926470588235294 0.001470588235294118 0.1926470588235294 0.1779411764705882 0.08970588235294116 0.1 0.1 0.1 0.1 0.1 0.1 0.1 0.1 0.1 0.1 0.05 0.05 0.05 0.05 0.05 0.05 0.05 0.05 0.55 0.05 0.03333333333333333 0.03333333333333333 0.03333333333333333 0.03333333333333333 0.03333333333333333 0.03333333333333333 0.03333333333333333 0.03333333333333333 0.7 0.03333333333333333 0.07857142857142857 0.07857142857142857 0.007142857142857143 0.007142857142857143 0.007142857142857143 0.07857142857142857 0.007142857142857143 0.007142857142857143 0.7214285714285713 0.007142857142857143 0.05 0.05 0.05 0.05 0.05 0.05 0.05 0.05 0.55 0.05 0.09151515151515152 0.09151515151515152 0.07333333333333335 0.0006060606060606062 0.07939393939393941 0.2430303030303031 0.0006060606060606062 0.1096969696969697 0.2612121212121213 0.04909090909090909 0.03333333333333333 0.03333333333333333 0.03333333333333333 0.03333333333333333 0.03333333333333333 0.03333333333333333 0.03333333333333333 0.03333333333333333 0.7 0.03333333333333333 0.007692307692307693 0.2384615384615385 0.007692307692307693 0.007692307692307693 0.08461538461538462 0.007692307692307693 0.007692307692307693 0.007692307692307693 0.5461538461538462 0.08461538461538462 0.025 0.025 0.275 0.025 0.025 0.025 0.025 0.025 0.525 0.025 0.01089108910891089 0.06039603960396039 0.01089108910891089 0.05049504950495049 0.06039603960396039 0.06039603960396039 0.0009900990099009901 0.06039603960396039 0.6346534653465346 0.05049504950495049 0.0422680412371134 0.145360824742268 0.0422680412371134 0.01134020618556701 0.02164948453608247 0.1247422680412371 0.001030927835051546 0.06288659793814433 0.454639175257732 0.09381443298969072 0.1 0.1 0.1 0.1 0.1 0.1 0.1 0.1 0.1 0.1 0.003333333333333334 0.07000000000000001 0.1033333333333333 0.07000000000000001 0.03666666666666667 0.003333333333333334 0.003333333333333334 0.03666666666666667 0.67 0.003333333333333334 0.05 0.05 0.05 0.05 0.05 0.05 0.05 0.05 0.55 0.05 0.02763157894736842 0.3302631578947369 0.08026315789473683 0.06710526315789472 0.1197368421052631 0.09342105263157893 0.00131578947368421 0.06710526315789472 0.1592105263157895 0.05394736842105263 0.02 0.42 0.02 0.02 0.02 0.02 0.02 0.02 0.42 0.02 0.04999999999999999 0.04999999999999999 0.5499999999999999 0.04999999999999999 0.04999999999999999 0.04999999999999999 0.04999999999999999 0.04999999999999999 0.04999999999999999 0.04999999999999999 0.04999999999999999 0.04999999999999999 0.5499999999999999 0.04999999999999999 0.04999999999999999 0.04999999999999999 0.04999999999999999 0.04999999999999999 0.04999999999999999 0.04999999999999999 0.0125 0.1375 0.0125 0.0125 0.2625 0.1375 0.0125 0.0125 0.3875 0.0125 0.03333333333333333 0.3666666666666666 0.03333333333333333 0.03333333333333333 0.03333333333333333 0.03333333333333333 0.03333333333333333 0.03333333333333333 0.3666666666666666 0.03333333333333333 0.05812274368231048 0.1736462093862816 0.06173285198555958 0.03285198555956679 0.05090252707581228 0.1231046931407942 0.0003610108303249098 0.04729241877256318 0.3902527075812274 0.06173285198555958</probabilities>
		</cpt>
		<cpt id="GeneralPropertyUseGroupName">
			<state id="CommercialRetailManufacturingStorage" />
			<state id="CommunicationsResearch" />
			<state id="ConstructionRenovation" />
			<state id="Educational" />
			<state id="HealthInstitutional" />
			<state id="NoAddress" />
			<state id="Other" />
			<state id="RecreationalAssembly" />
			<state id="Residential" />
			<state id="RuralFarmingForests" />
			<state id="Transportation" />
			<state id="UtilitiesDisposal" />
			<state id="WaterAreas" />
			<parents>SpecificPropertyUseGroupParentName Numfloors</parents>
			<probabilities>0.1730769230769231 0.1730769230769231 0.006410256410256413 0.08974358974358976 0.006410256410256413 0.006410256410256413 0.006410256410256413 0.5064102564102565 0.006410256410256413 0.006410256410256413 0.006410256410256413 0.006410256410256413 0.006410256410256413 0.02646815550041356 0.00203022783667945 0.003007744943228814 0.02158056996766674 0.007895330475975636 7.519362358072035e-05 0.02646815550041356 0.872020452665614 0.01180539890217309 0.006917813369426273 0.02158056996766674 7.519362358072035e-05 7.519362358072035e-05 0.06493266924921599 0.004980630879911454 0.007378712414683636 0.02896144622763327 0.01457295701900018 0.0001844678103670909 0.002582549345139273 0.8131341080981367 0.004980630879911454 0.004980630879911454 0.05054418004058291 0.0001844678103670909 0.002582549345139273 0.9336996336996343 0.0003663003663003666 0.0003663003663003666 0.009890109890109897 0.0003663003663003666 0.0003663003663003666 0.0003663003663003666 0.0003663003663003666 0.04798534798534802 0.0003663003663003666 0.005128205128205131 0.0003663003663003666 0.0003663003663003666 0.9627369797341477 0.0005084622648362029 0.002397036391370671 0.001452749328103437 0.00570204111280599 3.631873320258593e-05 0.006174184644439607 0.01042347642914216 0.003813466986271522 0.002397036391370671 0.001452749328103437 3.631873320258593e-05 0.002869179923004288 0.9653348693512068 5.236424569304078e-05 0.002775305021731161 0.002094569827721631 0.005498245797769282 5.236424569304078e-05 0.001413834633712101 0.01230559773786458 0.009582656961826462 5.236424569304078e-05 5.236424569304078e-05 5.236424569304078e-05 0.0007330994397025709 0.003663003663003664 0.003663003663003664 0.003663003663003664 0.9084249084249086 0.05128205128205129 0.003663003663003664 0.003663003663003664 0.003663003663003664 0.003663003663003664 0.003663003663003664 0.003663003663003664 0.003663003663003664 0.003663003663003664 0.004803143875991556 7.277490721199329e-05 7.277490721199329e-05 0.9688523397132667 0.01994032457608616 7.277490721199329e-05 0.001018848700967906 0.001964922494723819 0.001964922494723819 0.001018848700967906 7.277490721199329e-05 7.277490721199329e-05 7.277490721199329e-05 0.009925558312655082 0.0002481389578163771 0.0002481389578163771 0.9615384615384611 0.01637717121588088 0.0002481389578163771 0.0002481389578163771 0.0002481389578163771 0.009925558312655082 0.0002481389578163771 0.0002481389578163771 0.0002481389578163771 0.0002481389578163771 0.097069597069597 0.00183150183150183 0.00183150183150183 0.02564102564102562 0.8589743589743585 0.00183150183150183 0.00183150183150183 0.00183150183150183 0.00183150183150183 0.00183150183150183 0.00183150183150183 0.00183150183150183 0.00183150183150183 0.01298445799724571 0.0001967342120794806 0.002754278969112727 0.0001967342120794806 0.9106826677159154 0.0001967342120794806 0.007869368483179222 0.005311823726145975 0.05902026362384416 0.0001967342120794806 0.0001967342120794806 0.0001967342120794806 0.0001967342120794806 0.08554674025526048 0.0003449465332873407 0.0003449465332873407 0.0003449465332873407 0.8613314936184896 0.0003449465332873407 0.004829251466022769 0.004829251466022769 0.0407036909279062 0.0003449465332873407 0.0003449465332873407 0.0003449465332873407 0.0003449465332873407 0.9560439560439563 0.003663003663003664 0.003663003663003664 0.003663003663003664 0.003663003663003664 0.003663003663003664 0.003663003663003664 0.003663003663003664 0.003663003663003664 0.003663003663003664 0.003663003663003664 0.003663003663003664 0.003663003663003664 0.9729473484609062 6.320712976423739e-05 0.00170659250363441 0.0008848998166993235 6.320712976423739e-05 6.320712976423739e-05 0.003349977877504582 0.0008848998166993235 0.00170659250363441 0.01649706086846596 0.00170659250363441 6.320712976423739e-05 6.320712976423739e-05 0.9918356933282303 0.0001275672917463962 0.0001275672917463962 0.0001275672917463962 0.0001275672917463962 0.0001275672917463962 0.001785942084449546 0.001785942084449546 0.0001275672917463962 0.001785942084449546 0.001785942084449546 0.0001275672917463962 0.0001275672917463962 0.04682274247491639 0.003344481605351171 0.6989966555183947 0.04682274247491639 0.003344481605351171 0.003344481605351171 0.04682274247491639 0.003344481605351171 0.04682274247491639 0.003344481605351171 0.003344481605351171 0.09030100334448163 0.003344481605351171 0.06891025641025642 0.02243589743589744 0.1271367521367522 0.003205128205128205 0.005876068376068377 0.00373931623931624 0.1677350427350427 0.09134615384615385 0.2275641025641026 0.1362179487179487 0.06837606837606838 0.04113247863247864 0.03632478632478633 0.1916134407109137 0.0002777006387114691 0.4154401555123577 0.01110802554845876 0.01471813385170786 0.0002777006387114691 0.02915856706470425 0.04359900027770064 0.1988336573174118 0.02193835045820606 0.02915856706470425 0.02193835045820606 0.02193835045820606 0.5384615384615387 0.03846153846153848 0.03846153846153848 0.03846153846153848 0.03846153846153848 0.03846153846153848 0.03846153846153848 0.03846153846153848 0.03846153846153848 0.03846153846153848 0.03846153846153848 0.03846153846153848 0.03846153846153848 0.131054131054131 0.001424501424501424 0.01994301994301994 0.03846153846153846 0.03846153846153846 0.001424501424501424 0.03846153846153846 0.01994301994301994 0.5754985754985753 0.1125356125356125 0.01994301994301994 0.001424501424501424 0.001424501424501424 0.2820512820512821 0.004273504273504275 0.004273504273504275 0.1153846153846154 0.004273504273504275 0.004273504273504275 0.004273504273504275 0.004273504273504275 0.5042735042735044 0.05982905982905984 0.004273504273504275 0.004273504273504275 0.004273504273504275 0.3136094674556213 0.2366863905325444 0.005917159763313611 0.3905325443786983 0.005917159763313611 0.005917159763313611 0.005917159763313611 0.005917159763313611 0.005917159763313611 0.005917159763313611 0.005917159763313611 0.005917159763313611 0.005917159763313611 0.03861584754262788 0.01905717151454363 0.0005015045135406219 0.001504513540621866 0.002006018054162487 0.0005015045135406219 0.01103309929789368 0.001003009027081244 0.01053159478435306 0.8761283851554664 0.001504513540621866 0.03711133400200602 0.0005015045135406219 0.195567144719687 0.1447196870925684 0.0006518904823989567 0.02607561929595827 0.01760104302477183 0.0006518904823989567 0.02607561929595827 0.0006518904823989567 0.02607561929595827 0.4921773142112124 0.0006518904823989567 0.06844850065189045 0.0006518904823989567 0.01102839812517232 0.0002757099531293079 0.007444168734491313 0.007444168734491313 0.0002757099531293079 0.0002757099531293079 0.0002757099531293079 0.0002757099531293079 0.971601874827681 0.0002757099531293079 0.0002757099531293079 0.0002757099531293079 0.0002757099531293079 0.003730778524523564 2.655358380443818e-06 0.0006930485372958363 0.00034785194783814 0.00034785194783814 2.655358380443818e-06 0.00131440239831969 0.001003725467807763 0.9802228907824547 0.01215357530729135 7.169467627198307e-05 3.717501732621344e-05 7.169467627198307e-05 0.01360917311837558 1.275461398160785e-05 0.002002474395112432 0.002334094358634236 0.001505044449829726 1.275461398160785e-05 0.000841804522786118 0.000841804522786118 0.974146397459281 0.004655434103286865 1.275461398160785e-05 1.275461398160785e-05 1.275461398160785e-05 0.8626373626373629 0.005494505494505497 0.005494505494505497 0.005494505494505497 0.005494505494505497 0.005494505494505497 0.005494505494505497 0.005494505494505497 0.005494505494505497 0.005494505494505497 0.07692307692307694 0.005494505494505497 0.005494505494505497 0.5311304717382065 0.0007437314067148319 0.00419677008074798 0.002815554611134721 0.001434339141521462 5.312367190820229e-05 0.01455588610284743 0.0138652783680408 0.1022630684232894 0.3191138971525712 0.00626859328516787 5.312367190820229e-05 0.00350616234594135 0.9009774755631116 0.0004249893752656187 0.0004249893752656187 0.01147471313217171 0.0004249893752656187 0.0004249893752656187 0.01699957501062475 0.005949851253718661 0.0004249893752656187 0.04462388440288996 0.005949851253718661 0.01147471313217171 0.0004249893752656187</probabilities>
		</cpt>
		<cpt id="FireCauseGroupName">
			<state id="CarelessnesswithHeatSource" />
			<state id="CarelessnesswithMaterialIgnited" />
			<state id="DeliberatelyLitFire" />
			<state id="DesignConstructionInstallationFault" />
			<state id="MechanicalFailureorMalfunction" />
			<state id="NaturalCauses" />
			<state id="NotRecorded" />
			<state id="OperatingFailure" />
			<state id="OtherorUndeterminedCause" />
			<state id="SReckless_involvingfire_" />
			<parents>EthnicityName CriticalInjuryCount</parents>
			<probabilities>0.05 0.05 0.05 0.05 0.05 0.05 0.05 0.05 0.05 0.55 0.5848000000000002 0.02480000000000001 0.04880000000000002 0.01680000000000001 0.1448000000000001 0.0008000000000000004 0.0008000000000000004 0.06480000000000002 0.08080000000000004 0.03280000000000001 0.6200000000000001 0.02 0.02 0.02 0.02 0.02 0.02 0.22 0.02 0.02 0.5804747320061258 0.05137825421133232 0.03223583460949465 0.02457886676875958 0.1424961715160797 0.003139356814701379 7.656967840735071e-05 0.07817764165390508 0.0812404287901991 0.006202143950995408 0.1 0.1 0.1 0.1 0.1 0.1 0.1 0.1 0.1 0.1 0.5304147465437788 0.05576036866359448 0.03732718894009217 0.04193548387096774 0.1064516129032258 0.005069124423963135 0.0004608294930875577 0.115668202764977 0.08341013824884795 0.02350230414746544 0.4044776119402984 0.07611940298507461 0.2253731343283581 0.001492537313432836 0.03134328358208954 0.001492537313432836 0.001492537313432836 0.0462686567164179 0.1656716417910447 0.0462686567164179 0.3997048932811749 0.04942008098277399 0.06122434973577653 0.05285155445748403 0.1889437924644842 0.0159975293390982 6.86294694942008e-06 0.07954841809072814 0.1358245830759728 0.01647793562555761 0.01666666666666667 0.01666666666666667 0.01666666666666667 0.01666666666666667 0.1833333333333333 0.01666666666666667 0.01666666666666667 0.1833333333333333 0.5166666666666666 0.01666666666666667 0.09910112359550562 0.0150561797752809 0.09932584269662922 0.02741573033707865 0.2876404494382023 0.01303370786516854 0.0002247191011235955 0.03910112359550562 0.4164044943820225 0.002696629213483146 0.1 0.1 0.1 0.1 0.1 0.1 0.1 0.1 0.1 0.1 0.5551724137931032 0.003448275862068964 0.1068965517241379 0.07241379310344825 0.07241379310344825 0.003448275862068964 0.003448275862068964 0.003448275862068964 0.1068965517241379 0.07241379310344825 0.6821428571428569 0.03928571428571427 0.1107142857142857 0.00357142857142857 0.00357142857142857 0.03928571428571427 0.00357142857142857 0.00357142857142857 0.03928571428571427 0.07499999999999997 0.5348714953271027 0.04149143302180684 0.1444898753894081 0.02649922118380061 0.0852998442367601 0.002745327102803737 1.947040498442367e-05 0.04304906542056074 0.09230919003115262 0.02922507788161993 0.1 0.1 0.1 0.1 0.1 0.1 0.1 0.1 0.1 0.1 0.5894117647058825 0.03647058823529413 0.07176470588235295 0.03647058823529413 0.06000000000000001 0.001176470588235294 0.001176470588235294 0.1188235294117647 0.06000000000000001 0.02470588235294119 0.01428571428571429 0.01428571428571429 0.01428571428571429 0.01428571428571429 0.7285714285714288 0.01428571428571429 0.01428571428571429 0.01428571428571429 0.1571428571428572 0.01428571428571429 0.01308275528311017 0.003081142119696725 0.001306662364897564 0.07857718986933374 0.529940312953702 0.0380867881916438 1.613163413453782e-05 0.08196483303758668 0.2537667365704145 0.0001774479754799161 0.6999999999999998 0.03333333333333333 0.03333333333333333 0.03333333333333333 0.03333333333333333 0.03333333333333333 0.03333333333333333 0.03333333333333333 0.03333333333333333 0.03333333333333333 0.4458745874587459 0.05643564356435644 0.04983498349834983 0.03003300330033003 0.2313531353135313 0.01023102310231023 0.00033003300330033 0.04323432343234324 0.1290429042904291 0.003630363036303631 0.04999999999999999 0.04999999999999999 0.5499999999999999 0.04999999999999999 0.04999999999999999 0.04999999999999999 0.04999999999999999 0.04999999999999999 0.04999999999999999 0.04999999999999999 0.5468292682926831 0.07853658536585369 0.04926829268292685 0.02975609756097562 0.1175609756097561 0.005365853658536588 0.0004878048780487807 0.09317073170731711 0.06878048780487807 0.01024390243902439 0.6999999999999998 0.03333333333333333 0.03333333333333333 0.03333333333333333 0.03333333333333333 0.03333333333333333 0.03333333333333333 0.03333333333333333 0.03333333333333333 0.03333333333333333 0.4727739726027396 0.05839041095890408 0.04982876712328765 0.05325342465753423 0.1577054794520547 0.01558219178082191 0.0001712328767123287 0.06695205479452052 0.0960616438356164 0.02928082191780821 0.5125000000000002 0.1375000000000001 0.1375000000000001 0.01250000000000001 0.01250000000000001 0.01250000000000001 0.01250000000000001 0.01250000000000001 0.1375000000000001 0.01250000000000001 0.5914611005692602 0.04813409234661608 0.125932953826692 0.01714104996837445 0.0791271347248577 0.001328273244781784 6.325110689437068e-05 0.031056293485136 0.07533206831119547 0.0304237824161923 0.1 0.1 0.1 0.1 0.1 0.1 0.1 0.1 0.1 0.1 0.5741258741258743 0.06363636363636366 0.02167832167832169 0.02867132867132868 0.09860139860139863 0.02867132867132868 0.0006993006993006996 0.1055944055944056 0.06363636363636366 0.01468531468531469 0.3558823529411764 0.1205882352941176 0.2676470588235293 0.002941176470588235 0.03235294117647058 0.002941176470588235 0.002941176470588235 0.03235294117647058 0.1205882352941176 0.06176470588235293 0.1618336052202284 0.01879934747145188 0.4335464926590538 0.03700489396411093 0.0975595432300163 0.0079673735725938 6.525285481239804e-06 0.03485154975530179 0.1945905383360522 0.01384013050570962</probabilities>
		</cpt>
		<cpt id="HeatSourceGroupName">
			<state id="CigarettesMatchesandCandles" />
			<state id="ElectricalEquipment" />
			<state id="ExplosivesFireWorks" />
			<state id="ExposureFire" />
			<state id="GasorLiquidFuelPoweredEquipment" />
			<state id="HotObject" />
			<state id="NaturalSource" />
			<state id="NotRecorded" />
			<state id="OutsideFire" />
			<state id="SolidFuelledPoweredEquipment" />
			<state id="UnabletoClassify" />
			<parents>FireCauseGroupName</parents>
			<probabilities>0.2611666901507679 0.3758630407214316 0.006692968860081725 0.02747639847823024 0.08609271523178809 0.1570381851486544 0.002465830632661688 0.01373819923911512 0.02613780470621389 0.02550373397210089 0.01782443285895449 0.1710610932475884 0.2803858520900321 0.01221864951768489 0.04180064308681672 0.09581993569131833 0.1479099678456592 0.05852090032154341 0.01672025723472669 0.05080385852090032 0.07974276527331189 0.04501607717041801 0.6462877285745758 0.0103547036792245 0.01828596607182199 0.01487111698612029 0.004406256884776382 0.01641330689579202 0.0001101564221194096 0.1451861643533818 0.03128442388191231 0.00738048028200044 0.1054196959682749 0.009515178975985502 0.4635251472587222 0.0009062075215224287 0.05709107385591301 0.05618486633439058 0.1486180335296783 0.004077933846850929 0.006796556411418215 0.003624830086089715 0.2383325781603987 0.01132759401903036 0.001120277013952541 0.8771769019248397 0.0001018433649047765 0.007230878908239128 0.03472858743252877 0.03208065994500459 0.001120277013952541 0.01130461350443019 0.0009165902841429881 0.01955392606171708 0.01466544454628781 0.01598837209302326 0.2805232558139535 0.001453488372093023 0.05087209302325581 0.01744186046511628 0.1177325581395349 0.3837209302325582 0.02616279069767442 0.05377906976744186 0.03488372093023256 0.01744186046511628 0.04545454545454546 0.04545454545454546 0.04545454545454546 0.04545454545454546 0.04545454545454546 0.04545454545454546 0.04545454545454546 0.5454545454545455 0.04545454545454546 0.04545454545454546 0.04545454545454546 0.009715475364330326 0.6991672449687717 0.0006939625260235947 0.01665510062456627 0.07251908396946564 0.09507286606523248 0.006939625260235947 0.01596113809854268 0.003816793893129771 0.06280360860513531 0.01665510062456627 0.01760069107007883 0.1008530396285498 0.001511715797430083 0.3308498002375553 0.01371342187668718 0.08271245005938883 0.0488068243170284 0.1831335708886729 0.01144584818054206 0.02278371666126768 0.1865889212827988 0.4005602240896359 0.05882352941176471 0.2086834733893558 0.03081232492997199 0.0392156862745098 0.08403361344537816 0.001400560224089636 0.04341736694677871 0.0742296918767507 0.03081232492997199 0.02801120448179272</probabilities>
		</cpt>
		<cpt id="OriginGroupName">
			<state id="LivingArea" />
			<state id="MeansofEgress" />
			<state id="NotRecorded" />
			<state id="OutsideAreaMultipleArea" />
			<state id="SalesandAssemblyArea" />
			<state id="ServiceFacility" />
			<state id="ServiceorEquipmentArea" />
			<state id="StorageandGarageArea" />
			<state id="StructuralRoofCeilingArea" />
			<state id="TechnicalManufacturingArea" />
			<state id="UnabletoClassify" />
			<state id="VehicleArea" />
			<parents>SpecificPropertyUseGroupParentName PercentofPropertySaved</parents>
			<probabilities>0.241505722460658 0.0344241773962804 8.941344778254647e-05 0.07948855507868381 0.09021816881258939 0.005454220314735335 0.03227825464949928 0.1524499284692417 0.3391452074391988 0.00330829756795422 0.01832975679542203 0.00330829756795422 0.1957635009310987 0.01419925512104283 0.0002327746741154563 0.1203445065176909 0.1259310986964619 0.003026070763500931 0.01978584729981378 0.2600093109869647 0.1957635009310987 0.003026070763500931 0.06168528864059591 0.0002327746741154563 0.191872427983539 0.02520576131687242 0.0005144032921810698 0.1116255144032922 0.08076131687242798 0.0005144032921810698 0.03137860082304526 0.2042181069958847 0.2782921810699588 0.006687242798353908 0.0684156378600823 0.0005144032921810698 0.263963510185807 0.03024960823819118 2.798298634430266e-05 0.04401723751958809 0.08397694201925229 0.01446720394000448 0.06853033355719722 0.1692690843966868 0.2874692187150212 0.02353369151555854 0.01144504141481979 0.00305014551152899 0.1983024691358025 0.009413580246913579 0.000154320987654321 0.0316358024691358 0.05941358024691359 0.009413580246913579 0.07237654320987655 0.3871913580246914 0.1427469135802469 0.01682098765432099 0.05385802469135802 0.01867283950617284 0.2476105137395461 0.01821983273596177 0.0002986857825567504 0.04689366786140982 0.08990442054958186 0.003882915173237755 0.05764635603345283 0.2762843488649941 0.201015531660693 0.01463560334528077 0.02538829151732378 0.01821983273596177 0.2713842637936663 0.0539503754489063 8.161932745674174e-05 0.0725595821090434 0.08627162912177602 0.003019915115899445 0.01771139405811296 0.1293666340189357 0.3183969964087495 0.02946457721188377 0.01771139405811296 8.161932745674174e-05 0.1526063100137174 0.04149519890260631 0.0003429355281207132 0.1237997256515775 0.09087791495198901 0.0003429355281207132 0.01268861454046639 0.3501371742112482 0.1772976680384088 0.02091906721536351 0.02914951989026063 0.0003429355281207132 0.1377688172043011 0.04099462365591398 0.0006720430107526882 0.1216397849462366 0.08131720430107529 0.0006720430107526882 0.03293010752688173 0.2184139784946237 0.3071236559139786 0.03293010752688173 0.02486559139784947 0.0006720430107526882 0.5596655328798186 0.02565192743764172 0.0001417233560090703 0.01714852607709751 0.01204648526077097 0.01034580498866213 0.03755668934240362 0.1123866213151927 0.1974206349206349 0.01714852607709751 0.01034580498866213 0.0001417233560090703 0.3969298245614035 0.00219298245614035 0.00219298245614035 0.1074561403508772 0.02850877192982455 0.00219298245614035 0.00219298245614035 0.2653508771929824 0.1600877192982456 0.02850877192982455 0.00219298245614035 0.00219298245614035 0.4694444444444447 0.06944444444444448 0.002777777777777779 0.03611111111111112 0.002777777777777779 0.002777777777777779 0.002777777777777779 0.2361111111111112 0.06944444444444448 0.06944444444444448 0.03611111111111112 0.002777777777777779 0.03857791225416037 0.00529500756429652 0.0007564296520423601 0.02118003025718608 0.009077155824508321 0.02874432677760968 0.1172465960665658 0.2798789712556732 0.1671709531013616 0.319213313161876 0.01210287443267776 0.0007564296520423601 0.02747502270663034 0.002951861943687557 0.0002270663033605813 0.02202543142597639 0.005676657584014534 0.01385104450499546 0.07924613987284287 0.5015894641235241 0.1010445049954587 0.2073115349682107 0.03292461398728429 0.005676657584014534 0.0336644591611479 0.0005518763796909492 0.0005518763796909492 0.0336644591611479 0.007174392935982339 0.02041942604856512 0.119757174392936 0.3647902869757175 0.1859823399558499 0.1926048565121413 0.02704194260485651 0.01379690949227373 0.2232755507403395 0.02500902853015529 9.028530155290718e-05 0.2200252798844348 0.02609245214879017 0.007674250631997111 0.02825929938605995 0.1431022029613579 0.2579451065366558 0.01417479234380643 0.05209461899602744 0.00225713253882268 0.1471433400946586 0.01428329952670723 8.451656524678837e-05 0.1724983096686951 0.01935429344151453 0.002112914131169709 0.02645368492224476 0.3124577417173766 0.1623563218390805 0.01428329952670723 0.1177315753887762 0.01124070317782285 0.2465277777777778 0.02683080808080808 0.0003156565656565656 0.1442550505050505 0.02683080808080808 0.007891414141414142 0.03440656565656566 0.2313762626262627 0.2124368686868687 0.004103535353535353 0.06470959595959595 0.0003156565656565656 0.4018518518518518 0.001851851851851852 0.001851851851851852 0.02407407407407407 0.001851851851851852 0.02407407407407407 0.001851851851851852 0.312962962962963 0.2240740740740741 0.001851851851851852 0.001851851851851852 0.001851851851851852 0.3373015873015874 0.003968253968253969 0.003968253968253969 0.0515873015873016 0.0515873015873016 0.003968253968253969 0.003968253968253969 0.2896825396825398 0.1468253968253969 0.003968253968253969 0.09920634920634924 0.003968253968253969 0.2604166666666666 0.01041666666666666 0.01041666666666666 0.01041666666666666 0.01041666666666666 0.01041666666666666 0.01041666666666666 0.3854166666666666 0.2604166666666666 0.01041666666666666 0.01041666666666666 0.01041666666666666 0.1017221249270286 0.007151196730881494 0.0001459427904261529 0.02816695855224752 0.001897256275539988 0.012405137186223 0.1560128429655575 0.3836835960303561 0.1997956800934034 0.05969060128429656 0.03692352597781669 0.012405137186223 0.06425625161124002 0.0008378448053622069 6.444960041247745e-05 0.05342871874194381 0.002384635215261666 0.0008378448053622069 0.09209847898943029 0.6110466615106988 0.07353699407063677 0.01089198246970869 0.07199020366073731 0.01862593451920598 0.06138676844783714 0.0003180661577608142 0.0003180661577608142 0.04993638676844784 0.0003180661577608142 0.01176844783715013 0.09573791348600508 0.5652035623409669 0.1682569974554707 0.02703562340966921 0.01940203562340967 0.0003180661577608142 0.5720407998709885 0.02283905821641671 4.031607805192711e-06 0.05172149653281728 0.002858409933881632 0.00474520238671182 0.009583131752943074 0.1103088211578778 0.2179043702628608 0.0003426866634413804 0.006099822609256572 0.001552169004999194 0.4292401323184635 0.007426855509522432 8.029032983267495e-06 0.03845103895686803 0.002513087323762726 0.001260558178372997 0.005596235989337444 0.375285030670906 0.09105726306323667 0.0007788161993769471 0.04230497478883643 0.006077977968333494 0.539026792750197 0.01609535066981875 0.000256107171000788 0.03760835303388495 0.001674546887312845 0.001674546887312845 0.004984239558707643 0.2411544523246651 0.1470646178092987 1.970055161544523e-05 0.006875492513790386 0.003565799842395587 0.04867128827267474 0.01054303870595031 0.000144425187752744 0.04867128827267474 0.01920854997111496 0.008809936452917387 0.05040439052570767 0.4836799537839398 0.2583766608896591 0.05040439052570767 0.008809936452917387 0.01227614095898324 0.02261636636636636 0.004598348348348347 9.384384384384382e-05 0.05189564564564564 0.002346096096096096 0.00121996996996997 0.02374249249249248 0.7714902402402402 0.05302177177177177 0.01022897897897898 0.03838213213213212 0.02036411411411411 0.04541198501872658 0.01170411985018727 0.0004681647940074905 0.0791198501872659 0.006086142322097377 0.006086142322097377 0.02855805243445692 0.6352996254681647 0.1352996254681648 0.01170411985018727 0.01732209737827715 0.02294007490636703</probabilities>
		</cpt>
		<cpt id="FlameDamagem2">
			<state id="High" />
			<state id="Low" />
			<state id="Medium" />
			<parents>TimeofDay FireCauseGroupName PercentofPropertySaved FloorAream2 StructureAream2</parents>
			<probabilities>0.02941176470588235 0.8676470588235294 0.1029411764705882 0.3333333333333333 0.3333333333333333 0.3333333333333333 0.3333333333333333 0.3333333333333333 0.3333333333333333 0.01851851851851852 0.9629629629629631 0.01851851851851852 0.00411522633744856 0.991769547325103 0.00411522633744856 0.0002923976608187135 0.9888888888888889 0.0108187134502924 0.0006613756613756614 0.9074074074074076 0.09193121693121695 0.3333333333333333 0.3333333333333333 0.3333333333333333 0.0003940110323089046 0.9755713159968478 0.02403467297084318 0.8666666666666668 0.06666666666666668 0.06666666666666668 0.3333333333333333 0.3333333333333333 0.3333333333333333 0.3333333333333333 0.3333333333333333 0.3333333333333333 0.3333333333333333 0.3333333333333333 0.3333333333333333 0.001041666666666667 0.9979166666666668 0.001041666666666667 0.0008071025020177562 0.06133979015334948 0.9378531073446328 0.5833333333333334 0.00641025641025641 0.4102564102564102 0.3333333333333333 0.3333333333333333 0.3333333333333333 0.001872659176029962 0.001872659176029962 0.9962546816479401 0.3333333333333333 0.3333333333333333 0.3333333333333333 0.3333333333333333 0.3333333333333333 0.3333333333333333 0.3333333333333333 0.3333333333333333 0.3333333333333333 0.3333333333333333 0.3333333333333333 0.3333333333333333 0.003745318352059926 0.9925093632958802 0.003745318352059926 0.001658374792703151 0.5190713101160862 0.4792703150912106 0.05797101449275362 0.0144927536231884 0.9275362318840579 0.3333333333333333 0.3333333333333333 0.3333333333333333 0.002666666666666667 0.002666666666666667 0.9946666666666667 0.09090909090909091 0.8181818181818182 0.09090909090909091 0.3333333333333333 0.3333333333333333 0.3333333333333333 0.3333333333333333 0.3333333333333333 0.3333333333333333 0.08333333333333333 0.8333333333333334 0.08333333333333333 0.02564102564102564 0.9487179487179487 0.02564102564102564 0.002777777777777778 0.9944444444444446 0.002777777777777778 0.004975124378109453 0.8258706467661692 0.1691542288557214 0.3333333333333333 0.3333333333333333 0.3333333333333333 0.003205128205128205 0.9743589743589743 0.02243589743589744 0.8333333333333334 0.08333333333333333 0.08333333333333333 0.3333333333333333 0.3333333333333333 0.3333333333333333 0.3333333333333333 0.3333333333333333 0.3333333333333333 0.3333333333333333 0.3333333333333333 0.3333333333333333 0.007751937984496122 0.9844961240310076 0.007751937984496122 0.005847953216374269 0.05847953216374269 0.935672514619883 0.3939393939393939 0.0303030303030303 0.5757575757575758 0.3333333333333333 0.3333333333333333 0.3333333333333333 0.01666666666666667 0.01666666666666667 0.9666666666666667 0.3333333333333333 0.3333333333333333 0.3333333333333333 0.3333333333333333 0.3333333333333333 0.3333333333333333 0.3333333333333333 0.3333333333333333 0.3333333333333333 0.1666666666666667 0.1666666666666667 0.6666666666666666 0.08333333333333333 0.8333333333333334 0.08333333333333333 0.01111111111111111 0.4777777777777778 0.5111111111111111 0.3333333333333333 0.3333333333333333 0.3333333333333333 0.3333333333333333 0.3333333333333333 0.3333333333333333 0.0196078431372549 0.0196078431372549 0.9607843137254901 0.02752293577981652 0.8623853211009175 0.1100917431192661 0.3333333333333333 0.3333333333333333 0.3333333333333333 0.3333333333333333 0.3333333333333333 0.3333333333333333 0.1111111111111111 0.7777777777777777 0.1111111111111111 0.002777777777777778 0.9944444444444446 0.002777777777777778 0.0006775067750677507 0.9905149051490516 0.00880758807588076 0.002487562189054726 0.8258706467661692 0.1716417910447761 0.3333333333333333 0.3333333333333333 0.3333333333333333 0.001107419712070875 0.9446290143964563 0.05426356589147287 0.9333333333333332 0.03333333333333333 0.03333333333333333 0.3333333333333333 0.3333333333333333 0.3333333333333333 0.3333333333333333 0.3333333333333333 0.3333333333333333 0.6666666666666667 0.1666666666666667 0.1666666666666667 0.0007153075822603721 0.9985693848354794 0.0007153075822603721 0.00089126559714795 0.0730837789661319 0.92602495543672 0.6837606837606838 0.004273504273504273 0.3119658119658119 0.3333333333333333 0.3333333333333333 0.3333333333333333 0.001536098310291859 0.001536098310291859 0.9969278033794163 0.8666666666666668 0.06666666666666668 0.06666666666666668 0.3333333333333333 0.3333333333333333 0.3333333333333333 0.3333333333333333 0.3333333333333333 0.3333333333333333 0.1666666666666667 0.1666666666666667 0.6666666666666666 0.002754820936639119 0.9944903581267217 0.002754820936639119 0.00228310502283105 0.5433789954337899 0.4543378995433789 0.2222222222222222 0.007936507936507936 0.7698412698412699 0.3333333333333333 0.3333333333333333 0.3333333333333333 0.004166666666666667 0.004166666666666667 0.9916666666666667 0.01754385964912281 0.9649122807017545 0.01754385964912281 0.3333333333333333 0.3333333333333333 0.3333333333333333 0.3333333333333333 0.3333333333333333 0.3333333333333333 0.04761904761904762 0.9047619047619049 0.04761904761904762 0.01754385964912281 0.9649122807017545 0.01754385964912281 0.001394700139470014 0.99721059972106 0.001394700139470014 0.001745200698080279 0.9284467713787085 0.06980802792321117 0.3333333333333333 0.3333333333333333 0.3333333333333333 0.001317523056653491 0.9815546772068511 0.01712779973649538 0.6666666666666667 0.1666666666666667 0.1666666666666667 0.3333333333333333 0.3333333333333333 0.3333333333333333 0.3333333333333333 0.3333333333333333 0.3333333333333333 0.3333333333333333 0.3333333333333333 0.3333333333333333 0.009523809523809521 0.9809523809523809 0.009523809523809521 0.008547008547008546 0.008547008547008546 0.982905982905983 0.619047619047619 0.04761904761904762 0.3333333333333333 0.3333333333333333 0.3333333333333333 0.3333333333333333 0.0196078431372549 0.0196078431372549 0.9607843137254901 0.3333333333333333 0.3333333333333333 0.3333333333333333 0.3333333333333333 0.3333333333333333 0.3333333333333333 0.3333333333333333 0.3333333333333333 0.3333333333333333 0.1666666666666667 0.1666666666666667 0.6666666666666666 0.02222222222222222 0.9555555555555554 0.02222222222222222 0.0196078431372549 0.607843137254902 0.3725490196078431 0.1944444444444444 0.02777777777777778 0.7777777777777778 0.3333333333333333 0.3333333333333333 0.3333333333333333 0.01333333333333333 0.01333333333333333 0.9733333333333333 0.01333333333333333 0.8400000000000001 0.1466666666666667 0.3333333333333333 0.3333333333333333 0.3333333333333333 0.3333333333333333 0.3333333333333333 0.3333333333333333 0.02380952380952381 0.8809523809523809 0.09523809523809523 0.007575757575757574 0.9848484848484848 0.007575757575757574 0.0005592841163310961 0.9921700223713645 0.007270693512304249 0.001733102253032929 0.8578856152512998 0.1403812824956672 0.3333333333333333 0.3333333333333333 0.3333333333333333 0.0006049606775559587 0.9879007864488807 0.01149425287356322 0.9555555555555554 0.02222222222222222 0.02222222222222222 0.3333333333333333 0.3333333333333333 0.3333333333333333 0.3333333333333333 0.3333333333333333 0.3333333333333333 0.1666666666666667 0.1666666666666667 0.6666666666666666 0.001926782273603082 0.9961464354527937 0.001926782273603082 0.001221001221001221 0.05982905982905982 0.9389499389499388 0.7269076305220884 0.004016064257028112 0.2690763052208835 0.3333333333333333 0.3333333333333333 0.3333333333333333 0.002164502164502165 0.002164502164502165 0.9956709956709958 0.888888888888889 0.05555555555555556 0.05555555555555556 0.3333333333333333 0.3333333333333333 0.3333333333333333 0.3333333333333333 0.3333333333333333 0.3333333333333333 0.1666666666666667 0.1666666666666667 0.6666666666666666 0.008771929824561401 0.982456140350877 0.008771929824561401 0.003205128205128205 0.6185897435897436 0.3782051282051282 0.1700680272108843 0.006802721088435373 0.8231292517006803 0.3333333333333333 0.3333333333333333 0.3333333333333333 0.003875968992248062 0.003875968992248062 0.9922480620155039 0.08333333333333333 0.5833333333333334 0.3333333333333333 0.3333333333333333 0.3333333333333333 0.3333333333333333 0.3333333333333333 0.3333333333333333 0.3333333333333333 0.1666666666666667 0.6666666666666667 0.1666666666666667 0.1111111111111111 0.7777777777777777 0.1111111111111111 0.0101010101010101 0.9494949494949495 0.0404040404040404 0.008771929824561403 0.7719298245614035 0.2192982456140351 0.3333333333333333 0.3333333333333333 0.3333333333333333 0.01190476190476191 0.9404761904761906 0.04761904761904762 0.3333333333333333 0.3333333333333333 0.3333333333333333 0.3333333333333333 0.3333333333333333 0.3333333333333333 0.3333333333333333 0.3333333333333333 0.3333333333333333 0.3333333333333333 0.3333333333333333 0.3333333333333333 0.01190476190476191 0.9761904761904763 0.01190476190476191 0.01234567901234568 0.04938271604938271 0.9382716049382716 0.761904761904762 0.04761904761904762 0.1904761904761905 0.3333333333333333 0.3333333333333333 0.3333333333333333 0.03333333333333333 0.03333333333333333 0.9333333333333335 0.3333333333333333 0.3333333333333333 0.3333333333333333 0.3333333333333333 0.3333333333333333 0.3333333333333333 0.3333333333333333 0.3333333333333333 0.3333333333333333 0.3333333333333333 0.3333333333333333 0.3333333333333333 0.06666666666666668 0.8666666666666668 0.06666666666666668 0.04166666666666666 0.6666666666666666 0.2916666666666667 0.06666666666666667 0.06666666666666667 0.8666666666666667 0.3333333333333333 0.3333333333333333 0.3333333333333333 0.08333333333333333 0.08333333333333333 0.8333333333333334 0.3333333333333333 0.3333333333333333 0.3333333333333333 0.3333333333333333 0.3333333333333333 0.3333333333333333 0.3333333333333333 0.3333333333333333 0.3333333333333333 0.3333333333333333 0.3333333333333333 0.3333333333333333 0.3333333333333333 0.3333333333333333 0.3333333333333333 0.3333333333333333 0.3333333333333333 0.3333333333333333 0.3333333333333333 0.3333333333333333 0.3333333333333333 0.3333333333333333 0.3333333333333333 0.3333333333333333 0.3333333333333333 0.3333333333333333 0.3333333333333333 0.3333333333333333 0.3333333333333333 0.3333333333333333 0.3333333333333333 0.3333333333333333 0.3333333333333333 0.3333333333333333 0.3333333333333333 0.3333333333333333 0.3333333333333333 0.3333333333333333 0.3333333333333333 0.3333333333333333 0.3333333333333333 0.3333333333333333 0.3333333333333333 0.3333333333333333 0.3333333333333333 0.3333333333333333 0.3333333333333333 0.3333333333333333 0.3333333333333333 0.3333333333333333 0.3333333333333333 0.3333333333333333 0.3333333333333333 0.3333333333333333 0.3333333333333333 0.3333333333333333 0.3333333333333333 0.3333333333333333 0.3333333333333333 0.3333333333333333 0.3333333333333333 0.3333333333333333 0.3333333333333333 0.3333333333333333 0.3333333333333333 0.3333333333333333 0.3333333333333333 0.3333333333333333 0.3333333333333333 0.3333333333333333 0.3333333333333333 0.3333333333333333 0.3333333333333333 0.3333333333333333 0.3333333333333333 0.3333333333333333 0.3333333333333333 0.3333333333333333 0.3333333333333333 0.3333333333333333 0.3333333333333333 0.03846153846153846 0.7692307692307693 0.1923076923076923 0.3333333333333333 0.3333333333333333 0.3333333333333333 0.3333333333333333 0.3333333333333333 0.3333333333333333 0.1111111111111111 0.7777777777777777 0.1111111111111111 0.02222222222222222 0.9555555555555554 0.02222222222222222 0.001692047377326565 0.9813874788494078 0.01692047377326565 0.006535947712418301 0.888888888888889 0.1045751633986928 0.3333333333333333 0.3333333333333333 0.3333333333333333 0.00210970464135021 0.970464135021097 0.02742616033755274 0.8333333333333334 0.08333333333333333 0.08333333333333333 0.3333333333333333 0.3333333333333333 0.3333333333333333 0.3333333333333333 0.3333333333333333 0.3333333333333333 0.3333333333333333 0.3333333333333333 0.3333333333333333 0.005464480874316939 0.989071038251366 0.005464480874316939 0.004694835680751174 0.1314553990610329 0.863849765258216 0.6805555555555556 0.01388888888888889 0.3055555555555556 0.3333333333333333 0.3333333333333333 0.3333333333333333 0.008547008547008546 0.008547008547008546 0.982905982905983 0.7777777777777777 0.1111111111111111 0.1111111111111111 0.3333333333333333 0.3333333333333333 0.3333333333333333 0.3333333333333333 0.3333333333333333 0.3333333333333333 0.3333333333333333 0.3333333333333333 0.3333333333333333 0.01388888888888889 0.9722222222222223 0.01388888888888889 0.01149425287356322 0.6666666666666666 0.3218390804597701 0.07843137254901961 0.0196078431372549 0.9019607843137255 0.3333333333333333 0.3333333333333333 0.3333333333333333 0.01754385964912281 0.01754385964912281 0.9649122807017543 0.09523809523809523 0.6666666666666666 0.2380952380952381 0.3333333333333333 0.3333333333333333 0.3333333333333333 0.3333333333333333 0.3333333333333333 0.3333333333333333 0.04761904761904762 0.9047619047619049 0.04761904761904762 0.006535947712418299 0.9869281045751632 0.006535947712418299 0.0007733952049497294 0.9868522815158547 0.01237432327919567 0.01030927835051546 0.7835051546391752 0.2061855670103093 0.3333333333333333 0.3333333333333333 0.3333333333333333 0.001031991744066048 0.9514963880288959 0.04747162022703819 0.9259259259259258 0.03703703703703703 0.03703703703703703 0.3333333333333333 0.3333333333333333 0.3333333333333333 0.3333333333333333 0.3333333333333333 0.3333333333333333 0.3333333333333333 0.3333333333333333 0.3333333333333333 0.0009980039920159682 0.9980039920159682 0.0009980039920159682 0.0007092198581560283 0.05390070921985816 0.9453900709219858 0.706140350877193 0.002192982456140351 0.2916666666666667 0.3333333333333333 0.3333333333333333 0.3333333333333333 0.001626016260162602 0.001626016260162602 0.9967479674796749 0.9047619047619049 0.04761904761904762 0.04761904761904762 0.3333333333333333 0.3333333333333333 0.3333333333333333 0.3333333333333333 0.3333333333333333 0.3333333333333333 0.1666666666666667 0.1666666666666667 0.6666666666666666 0.004830917874396136 0.9903381642512079 0.004830917874396136 0.002380952380952381 0.6238095238095237 0.3738095238095238 0.2311827956989247 0.005376344086021505 0.7634408602150538 0.3333333333333333 0.3333333333333333 0.3333333333333333 0.003787878787878788 0.003787878787878788 0.9924242424242424 0.08333333333333333 0.8333333333333334 0.08333333333333333 0.3333333333333333 0.3333333333333333 0.3333333333333333 0.3333333333333333 0.3333333333333333 0.3333333333333333 0.1666666666666667 0.6666666666666667 0.1666666666666667 0.08333333333333333 0.8333333333333334 0.08333333333333333 0.00606060606060606 0.9878787878787879 0.00606060606060606 0.03703703703703703 0.8518518518518519 0.1111111111111111 0.3333333333333333 0.3333333333333333 0.3333333333333333 0.009009009009009007 0.9009009009009008 0.09009009009009007 0.7777777777777777 0.1111111111111111 0.1111111111111111 0.3333333333333333 0.3333333333333333 0.3333333333333333 0.3333333333333333 0.3333333333333333 0.3333333333333333 0.3333333333333333 0.3333333333333333 0.3333333333333333 0.005847953216374269 0.9883040935672515 0.005847953216374269 0.009009009009009009 0.009009009009009009 0.9819819819819821 0.8666666666666668 0.06666666666666668 0.06666666666666668 0.3333333333333333 0.3333333333333333 0.3333333333333333 0.02222222222222222 0.02222222222222222 0.9555555555555556 0.3333333333333333 0.3333333333333333 0.3333333333333333 0.3333333333333333 0.3333333333333333 0.3333333333333333 0.3333333333333333 0.3333333333333333 0.3333333333333333 0.3333333333333333 0.3333333333333333 0.3333333333333333 0.03333333333333333 0.9333333333333332 0.03333333333333333 0.01754385964912281 0.5964912280701754 0.3859649122807017 0.1111111111111111 0.1111111111111111 0.7777777777777778 0.3333333333333333 0.3333333333333333 0.3333333333333333 0.08333333333333333 0.08333333333333333 0.8333333333333334 0.01694915254237288 0.788135593220339 0.1949152542372881 0.3333333333333333 0.3333333333333333 0.3333333333333333 0.3333333333333333 0.3333333333333333 0.3333333333333333 0.01234567901234568 0.9753086419753088 0.01234567901234568 0.003968253968253969 0.9920634920634922 0.003968253968253969 0.0002703433360367667 0.9889159232224927 0.01081373344147067 0.0005640157924421883 0.8618161308516638 0.1376198533558939 0.3333333333333333 0.3333333333333333 0.3333333333333333 0.0003849114703618167 0.9761354888375672 0.02347959969207082 0.9259259259259258 0.03703703703703703 0.03703703703703703 0.3333333333333333 0.3333333333333333 0.3333333333333333 0.3333333333333333 0.3333333333333333 0.3333333333333333 0.3333333333333333 0.3333333333333333 0.3333333333333333 0.0009633911368015415 0.998073217726397 0.0009633911368015415 0.0006872852233676975 0.04810996563573883 0.9512027491408934 0.5990990990990992 0.004504504504504504 0.3963963963963964 0.3333333333333333 0.3333333333333333 0.3333333333333333 0.0015220700152207 0.0015220700152207 0.9969558599695586 0.8333333333333334 0.08333333333333333 0.08333333333333333 0.3333333333333333 0.3333333333333333 0.3333333333333333 0.3333333333333333 0.3333333333333333 0.3333333333333333 0.1666666666666667 0.1666666666666667 0.6666666666666666 0.003300330033003301 0.9933993399339935 0.003300330033003301 0.001443001443001443 0.6075036075036075 0.391053391053391 0.08176100628930817 0.006289308176100628 0.9119496855345912 0.3333333333333333 0.3333333333333333 0.3333333333333333 0.002688172043010752 0.002688172043010752 0.9946236559139784 0.04761904761904762 0.7142857142857142 0.2380952380952381 0.3333333333333333 0.3333333333333333 0.3333333333333333 0.3333333333333333 0.3333333333333333 0.3333333333333333 0.08333333333333333 0.8333333333333334 0.08333333333333333 0.04166666666666667 0.9166666666666669 0.04166666666666667 0.003144654088050315 0.9937106918238995 0.003144654088050315 0.009900990099009901 0.8811881188118812 0.1089108910891089 0.3333333333333333 0.3333333333333333 0.3333333333333333 0.003703703703703704 0.9481481481481483 0.04814814814814816 0.3333333333333333 0.3333333333333333 0.3333333333333333 0.3333333333333333 0.3333333333333333 0.3333333333333333 0.3333333333333333 0.3333333333333333 0.3333333333333333 0.3333333333333333 0.3333333333333333 0.3333333333333333 0.007936507936507934 0.984126984126984 0.007936507936507934 0.004694835680751174 0.0892018779342723 0.9061032863849765 0.7037037037037036 0.03703703703703703 0.2592592592592592 0.3333333333333333 0.3333333333333333 0.3333333333333333 0.01515151515151515 0.01515151515151515 0.9696969696969697 0.7777777777777777 0.1111111111111111 0.1111111111111111 0.3333333333333333 0.3333333333333333 0.3333333333333333 0.3333333333333333 0.3333333333333333 0.3333333333333333 0.3333333333333333 0.3333333333333333 0.3333333333333333 0.0303030303030303 0.9393939393939393 0.0303030303030303 0.01515151515151515 0.5151515151515151 0.4696969696969697 0.1212121212121212 0.0303030303030303 0.8484848484848485 0.3333333333333333 0.3333333333333333 0.3333333333333333 0.02222222222222222 0.02222222222222222 0.9555555555555556 0.05454545454545454 0.8363636363636363 0.1090909090909091 0.3333333333333333 0.3333333333333333 0.3333333333333333 0.3333333333333333 0.3333333333333333 0.3333333333333333 0.02777777777777777 0.8611111111111109 0.1111111111111111 0.003205128205128205 0.9935897435897436 0.003205128205128205 0.0005678591709256102 0.9835320840431572 0.01590005678591709 0.005714285714285714 0.8057142857142857 0.1885714285714286 0.3333333333333333 0.3333333333333333 0.3333333333333333 0.0008936550491510278 0.9660411081322611 0.03306523681858804 0.9393939393939393 0.0303030303030303 0.0303030303030303 0.3333333333333333 0.3333333333333333 0.3333333333333333 0.3333333333333333 0.3333333333333333 0.3333333333333333 0.3333333333333333 0.3333333333333333 0.3333333333333333 0.0006138735420503375 0.9987722529158992 0.0006138735420503375 0.0005868544600938967 0.04812206572769953 0.9512910798122066 0.7095516569200779 0.001949317738791423 0.2884990253411306 0.3333333333333333 0.3333333333333333 0.3333333333333333 0.001169590643274854 0.001169590643274854 0.9976608187134502 0.9166666666666669 0.04166666666666667 0.04166666666666667 0.3333333333333333 0.3333333333333333 0.3333333333333333 0.3333333333333333 0.3333333333333333 0.3333333333333333 0.1111111111111111 0.1111111111111111 0.7777777777777778 0.002487562189054725 0.9950248756218903 0.002487562189054725 0.001718213058419244 0.5738831615120275 0.4243986254295533 0.1207729468599034 0.004830917874396135 0.8743961352657005 0.3333333333333333 0.3333333333333333 0.3333333333333333 0.002564102564102564 0.002564102564102564 0.994871794871795 0.009803921568627451 0.8627450980392156 0.1274509803921569 0.3333333333333333 0.3333333333333333 0.3333333333333333 0.3333333333333333 0.3333333333333333 0.3333333333333333 0.06666666666666667 0.6666666666666667 0.2666666666666667 0.01388888888888889 0.9722222222222223 0.01388888888888889 0.00181159420289855 0.9800724637681159 0.0181159420289855 0.00202020202020202 0.8929292929292929 0.105050505050505 0.3333333333333333 0.3333333333333333 0.3333333333333333 0.002096436058700209 0.9706498951781969 0.02725366876310272 0.3333333333333333 0.3333333333333333 0.3333333333333333 0.3333333333333333 0.3333333333333333 0.3333333333333333 0.3333333333333333 0.3333333333333333 0.3333333333333333 0.3333333333333333 0.3333333333333333 0.3333333333333333 0.01041666666666667 0.9791666666666669 0.01041666666666667 0.008771929824561403 0.08771929824561403 0.9035087719298246 0.5757575757575758 0.0303030303030303 0.3939393939393939 0.3333333333333333 0.3333333333333333 0.3333333333333333 0.01754385964912281 0.01754385964912281 0.9649122807017543 0.8333333333333334 0.08333333333333333 0.08333333333333333 0.3333333333333333 0.3333333333333333 0.3333333333333333 0.3333333333333333 0.3333333333333333 0.3333333333333333 0.3333333333333333 0.3333333333333333 0.3333333333333333 0.03703703703703703 0.9259259259259258 0.03703703703703703 0.0101010101010101 0.5252525252525252 0.4646464646464647 0.02564102564102564 0.02564102564102564 0.9487179487179488 0.3333333333333333 0.3333333333333333 0.3333333333333333 0.02083333333333333 0.02083333333333333 0.9583333333333334 0.02816901408450704 0.8591549295774648 0.1126760563380282 0.3333333333333333 0.3333333333333333 0.3333333333333333 0.3333333333333333 0.3333333333333333 0.3333333333333333 0.01234567901234568 0.8641975308641976 0.1234567901234568 0.005208333333333333 0.9895833333333334 0.005208333333333333 0.0004456327985739749 0.9844028520499107 0.01515151515151515 0.0003903200624512099 0.886807181889149 0.1128024980483997 0.3333333333333333 0.3333333333333333 0.3333333333333333 0.0005307855626326963 0.9702760084925689 0.02919320594479829 0.9607843137254903 0.01960784313725491 0.01960784313725491 0.3333333333333333 0.3333333333333333 0.3333333333333333 0.3333333333333333 0.3333333333333333 0.3333333333333333 0.1666666666666667 0.1666666666666667 0.6666666666666666 0.001424501424501424 0.9971509971509971 0.001424501424501424 0.0008748906386701661 0.04024496937882765 0.9588801399825021 0.6830601092896175 0.00273224043715847 0.3142076502732241 0.3333333333333333 0.3333333333333333 0.3333333333333333 0.001388888888888889 0.001388888888888889 0.9972222222222222 0.888888888888889 0.05555555555555556 0.05555555555555556 0.3333333333333333 0.3333333333333333 0.3333333333333333 0.3333333333333333 0.3333333333333333 0.3333333333333333 0.1666666666666667 0.1666666666666667 0.6666666666666666 0.005747126436781607 0.9885057471264366 0.005747126436781607 0.002314814814814815 0.6412037037037036 0.3564814814814815 0.1637426900584795 0.005847953216374269 0.8304093567251462 0.3333333333333333 0.3333333333333333 0.3333333333333333 0.003703703703703704 0.003703703703703704 0.9925925925925926 0.03703703703703703 0.8148148148148148 0.1481481481481481 0.3333333333333333 0.3333333333333333 0.3333333333333333 0.3333333333333333 0.3333333333333333 0.3333333333333333 0.3333333333333333 0.3333333333333333 0.3333333333333333 0.03333333333333333 0.9333333333333332 0.03333333333333333 0.006802721088435373 0.9863945578231292 0.006802721088435373 0.01149425287356322 0.8735632183908048 0.1149425287356322 0.3333333333333333 0.3333333333333333 0.3333333333333333 0.01111111111111111 0.9444444444444446 0.04444444444444445 0.7777777777777777 0.1111111111111111 0.1111111111111111 0.3333333333333333 0.3333333333333333 0.3333333333333333 0.3333333333333333 0.3333333333333333 0.3333333333333333 0.3333333333333333 0.3333333333333333 0.3333333333333333 0.01515151515151515 0.9696969696969698 0.01515151515151515 0.009523809523809523 0.009523809523809523 0.980952380952381 0.8666666666666668 0.06666666666666668 0.06666666666666668 0.3333333333333333 0.3333333333333333 0.3333333333333333 0.01851851851851852 0.01851851851851852 0.9629629629629628 0.3333333333333333 0.3333333333333333 0.3333333333333333 0.3333333333333333 0.3333333333333333 0.3333333333333333 0.3333333333333333 0.3333333333333333 0.3333333333333333 0.3333333333333333 0.3333333333333333 0.3333333333333333 0.06666666666666668 0.8666666666666668 0.06666666666666668 0.06666666666666668 0.8666666666666668 0.06666666666666668 0.4444444444444444 0.1111111111111111 0.4444444444444444 0.3333333333333333 0.3333333333333333 0.3333333333333333 0.04166666666666666 0.04166666666666666 0.9166666666666666 0.3333333333333333 0.3333333333333333 0.3333333333333333 0.3333333333333333 0.3333333333333333 0.3333333333333333 0.3333333333333333 0.3333333333333333 0.3333333333333333 0.3333333333333333 0.3333333333333333 0.3333333333333333 0.3333333333333333 0.3333333333333333 0.3333333333333333 0.3333333333333333 0.3333333333333333 0.3333333333333333 0.3333333333333333 0.3333333333333333 0.3333333333333333 0.3333333333333333 0.3333333333333333 0.3333333333333333 0.3333333333333333 0.3333333333333333 0.3333333333333333 0.3333333333333333 0.3333333333333333 0.3333333333333333 0.3333333333333333 0.3333333333333333 0.3333333333333333 0.3333333333333333 0.3333333333333333 0.3333333333333333 0.3333333333333333 0.3333333333333333 0.3333333333333333 0.3333333333333333 0.3333333333333333 0.3333333333333333 0.3333333333333333 0.3333333333333333 0.3333333333333333 0.3333333333333333 0.3333333333333333 0.3333333333333333 0.3333333333333333 0.3333333333333333 0.3333333333333333 0.1666666666666667 0.1666666666666667 0.6666666666666666 0.3333333333333333 0.3333333333333333 0.3333333333333333 0.3333333333333333 0.3333333333333333 0.3333333333333333 0.3333333333333333 0.3333333333333333 0.3333333333333333 0.3333333333333333 0.3333333333333333 0.3333333333333333 0.3333333333333333 0.3333333333333333 0.3333333333333333 0.3333333333333333 0.3333333333333333 0.3333333333333333 0.3333333333333333 0.3333333333333333 0.3333333333333333 0.3333333333333333 0.3333333333333333 0.3333333333333333 0.3333333333333333 0.3333333333333333 0.3333333333333333 0.02777777777777778 0.8333333333333333 0.1388888888888889 0.3333333333333333 0.3333333333333333 0.3333333333333333 0.3333333333333333 0.3333333333333333 0.3333333333333333 0.05555555555555556 0.888888888888889 0.05555555555555556 0.01449275362318841 0.9710144927536233 0.01449275362318841 0.001610305958132045 0.9967793880837359 0.001610305958132045 0.0015220700152207 0.8645357686453576 0.1339421613394216 0.3333333333333333 0.3333333333333333 0.3333333333333333 0.00210970464135021 0.9831223628691982 0.01476793248945148 0.8666666666666668 0.06666666666666668 0.06666666666666668 0.3333333333333333 0.3333333333333333 0.3333333333333333 0.3333333333333333 0.3333333333333333 0.3333333333333333 0.6666666666666667 0.1666666666666667 0.1666666666666667 0.004065040650406504 0.9918699186991871 0.004065040650406504 0.003003003003003003 0.03903903903903903 0.9579579579579579 0.7160493827160495 0.01234567901234568 0.271604938271605 0.3333333333333333 0.3333333333333333 0.3333333333333333 0.005847953216374269 0.005847953216374269 0.9883040935672515 0.3333333333333333 0.3333333333333333 0.3333333333333333 0.3333333333333333 0.3333333333333333 0.3333333333333333 0.3333333333333333 0.3333333333333333 0.3333333333333333 0.1111111111111111 0.1111111111111111 0.7777777777777778 0.01388888888888889 0.9722222222222223 0.01388888888888889 0.008333333333333333 0.5333333333333333 0.4583333333333333 0.1884057971014493 0.0144927536231884 0.7971014492753622 0.3333333333333333 0.3333333333333333 0.3333333333333333 0.01075268817204301 0.01075268817204301 0.9784946236559139 0.06818181818181818 0.7727272727272727 0.1590909090909091 0.3333333333333333 0.3333333333333333 0.3333333333333333 0.3333333333333333 0.3333333333333333 0.3333333333333333 0.03703703703703703 0.8148148148148148 0.1481481481481481 0.003436426116838488 0.9931271477663232 0.003436426116838488 0.0006218905472636814 0.9894278606965172 0.009950248756218902 0.004987531172069825 0.773067331670823 0.2219451371571072 0.3333333333333333 0.3333333333333333 0.3333333333333333 0.0008169934640522877 0.9640522875816995 0.03513071895424837 0.9761904761904763 0.01190476190476191 0.01190476190476191 0.3333333333333333 0.3333333333333333 0.3333333333333333 0.3333333333333333 0.3333333333333333 